\data\
ngram 1=14650
ngram 2=30943
ngram 3=32553

\1-grams:
-0.36687523	<unk>
-inf	<s>	-1.3798147
-1.1657974	</s>
-5.1505437	Strategie	-0.031655297
-4.570131	republikánské	-0.031655297
-3.6880503	strany	-0.031655297
-3.038068	proti	-0.04734641
-5.1505437	Obamovu	-0.031655297
-5.1505437	znovuzvolení	-0.031655297
-5.1505437	Republikánští	-0.031655297
-5.1505437	lídři	-0.031655297
-5.1505437	odůvodnili	-0.031655297
-3.39903	svou	-0.031655297
-4.3614607	politiku	-0.09813799
-5.1505437	nezbytností	-0.031655297
-3.8524551	boje	-0.26706982
-4.3614607	volebním	-0.031655297
-5.1505437	podvodům.	-0.031655297
-5.1505437	Brennanovo	-0.031655297
-4.570131	středisko	-0.031655297
-2.9675164	však	-0.036933523
-3.6880503	takový	-0.031655297
-4.570131	podvod	-0.031655297
-4.570131	označuje	-0.1766703
-2.5394864	za	-0.09318185
-5.1505437	mýtus	-0.031655297
-2.2179177	s	-0.09552205
-3.3652055	tím,	-0.6524207
-2.1494324	že	-0.2139063
-4.120202	volební	-0.031655297
-1.9460651	je	-0.16895226
-1.7861149	v	-0.19384815
-3.7625191	USA	-0.0840023
-3.6880503	méně	-0.031655297
-5.1505437	častý	-0.031655297
-2.9807396	než	-0.040715564
-3.5690749	počet	-0.031655297
-4.120202	osob,	-0.82848775
-2.4438872	které	-0.20354524
-5.1505437	zemřou	-0.031655297
-2.702775	po	-0.08219525
-5.1505437	zásahu	-0.031655297
-5.1505437	bleskem.	-0.031655297
-5.1505437	advokáti	-0.031655297
-5.1505437	ostatně	-0.031655297
-4.120202	posledních	-0.031655297
-4.3614607	deset	-0.1227706
-3.023011	let	-0.060791284
-5.1505437	zaznamenali	-0.031655297
-3.2513587	pouze	-0.058418673
-3.8524551	300	-0.031655297
-3.5690749	případů	-0.031655297
-4.3614607	volebních	-0.031655297
-5.1505437	podvodů	-0.031655297
-4.3614607	USA.	-0.703549
-5.1505437	Jedno	-0.031655297
-5.1505437	jisté:	-0.031655297
-3.5199285	tato	-0.09813796
-4.3614607	nová	-0.031655297
-5.1505437	ustanovení	-0.031655297
-3.3652055	budou	-0.04640753
-3.2771463	mít	-0.031655297
-4.570131	negativní	-0.031655297
-4.120202	dopad	-0.82848775
-1.842841	na	-0.109430656
-5.1505437	účast.	-0.031655297
-3.9660137	V	-0.037360996
-4.120202	tomto	-0.031655297
-4.3614607	smyslu	-0.031655297
-4.120202	opatření	-0.031655297
-3.9660137	částečně	-0.031655297
-5.1505437	podkopou	-0.031655297
-4.120202	americký	-0.031655297
-5.1505437	demokratický	-0.031655297
-4.570131	systém.	-0.1766703
-4.3614607	Na	-0.031655297
-4.3614607	rozdíl	-0.703549
-2.6687465	od	-0.08055895
-5.1505437	Kanady	-0.031655297
-3.141359	mají	-0.08515903
-4.3614607	odpovědnost	-0.1227706
-4.570131	organizaci	-0.031655297
-4.570131	federálních	-0.031655297
-3.7625191	voleb	-0.21036665
-3.9660137	jednotlivé	-0.031655297
-5.1505437	státy.	-0.031655297
-4.3614607	A	-0.050777797
-5.1505437	duchu	-0.031655297
-3.8524551	většina	-0.031655297
-3.9660137	amerických	-0.031655297
-5.1505437	vlád	-0.031655297
-3.3045623	roku	-0.051843427
-4.3614607	2009	-0.031655297
-5.1505437	vyhlašuje	-0.031655297
-3.2771463	nové	-0.031655297
-4.120202	zákony,	-0.09813799
-5.1505437	ztěžují	-0.031655297
-4.3614607	proces	-0.031655297
-4.3614607	volby	-0.031655297
-2.5543194	nebo	-0.042881254
-4.570131	zápisu	-0.031655297
-2.372145	do	-0.08495572
-4.570131	volebního	-0.031655297
-5.1505437	seznamu.	-0.031655297
-5.1505437	Tento	-0.031655323
-5.1505437	jev	-0.031655297
-4.3614607	zaznamenal	-0.1227706
-5.1505437	rozmach	-0.031655297
-4.120202	volbách	-0.031655297
-3.9660137	listopadu	-0.031655297
-4.570131	2010,	-0.031655297
-3.5690749	během	-0.031655297
-3.9660137	nichž	-0.06362571
-5.1505437	přibylo	-0.031655297
-5.1505437	675	-0.031655297
-3.6880503	nových	-0.06362571
-5.1505437	republikánských	-0.031655297
-5.1505437	zástupců	-0.031655297
-2.3020666	ve	-0.21723738
-4.570131	26	-0.031655297
-4.120202	státech.	-0.82848775
-5.1505437	Následkem	-0.031655297
-3.3338263	toho	-0.031655297
-2.8536117	bylo	-0.041434247
-2.7800543	jen	-0.09299409
-3.7625191	rok	-0.031655297
-3.7625191	2011	-0.07135013
-5.1505437	předloženo	-0.031655297
-4.570131	180	-0.031655297
-4.3614607	návrhů	-0.031655297
-3.6245012	zákona	-0.3195111
-5.1505437	omezujících	-0.031655297
-4.3614607	právo	-0.031655297
-5.1505437	41	-0.031655297
-5.1505437	Před	-0.031655297
-5.1505437	volbami	-0.031655297
-3.7625191	roce	-0.06422937
-5.1505437	2006	-0.031655297
-4.570131	nevyžadoval	-0.031655297
-5.1505437	voličích	-0.031655297
-4.570131	předložení	-0.031655297
-5.1505437	půkazu	-0.031655297
-4.120202	totožnosti	-0.38843334
-5.1505437	fotografií	-0.031655297
-3.435713	žádný	-0.031655297
-4.120202	stát.	-0.82848775
-5.1505437	Prvním	-0.031655297
-5.1505437	státem,	-0.031655297
-2.5696766	který	-0.18783621
-3.2771463	tento	-0.116110735
-4.3614607	požadavek	-0.031655297
-5.1505437	zavedl,	-0.031655297
-2.8637483	byla	-0.060184825
-5.1505437	Indiana.	-0.031655297
-5.1505437	Ústavnost	-0.031655297
-5.1505437	indianského	-0.031655297
-5.1505437	potvrdil	-0.031655297
-5.1505437	2008	-0.031655297
-5.1505437	Nejvyšší	-0.031655297
-4.120202	soud	-0.031655297
-5.1505437	Republikánské	-0.031655297
-4.570131	úřady	-0.031655297
-5.1505437	spěchaly	-0.031655297
-5.1505437	rozšířením	-0.031655297
-3.4757826	tohoto	-0.031655297
-4.570131	postupu	-0.031655297
-2.4174082	i	-0.17485197
-4.3614607	ostatních	-0.031655297
-4.3614607	států.	-0.703549
-5.1505437	Za	-0.031655323
-3.4757826	poslední	-0.052705295
-3.4757826	dva	-0.12682267
-4.570131	roky	-0.031655297
-5.1505437	podpořily	-0.031655297
-4.3614607	návrhy	-0.031655297
-4.120202	takových	-0.031655297
-3.7625191	zákonů	-0.031655297
-4.570131	34	-0.031655297
-3.7625191	státech	-0.031655297
-3.6880503	cílem	-0.06362571
-5.1505437	přinutit	-0.031655297
-5.1505437	voliče,	-0.031655297
-2.7634592	aby	-0.23691735
-5.1505437	předkládali	-0.031655297
-5.1505437	průkazy	-0.031655297
-5.1505437	fotografií.	-0.031655297
-5.1505437	Je	-0.031655297
-3.7625191	třeba	-0.058418673
-4.570131	poznamenat,	-0.1766703
-4.3614607	Quebeku	-0.031655297
-3.5199285	nemají	-0.031655297
-5.1505437	američtí	-0.031655297
-5.1505437	občané	-0.031655297
-5.1505437	univerzální	-0.031655297
-4.120202	průkaz	-0.4192429
-5.1505437	totožnosti,	-0.031655297
-2.5022435	jako	-0.11929641
-5.1505437	karta	-0.031655297
-5.1505437	zdravotního	-0.031655297
-5.1505437	pojištění.	-0.031655297
-4.3614607	Ve	-0.042052817
-4.120202	skutečnosti	-0.031655297
-5.1505437	nevlastní	-0.031655297
-4.570131	11%	-0.031655297
-4.570131	občanů,	-0.031655297
-4.570131	tj.	-0.031655297
-3.6880503	21	-0.06362571
-3.5199285	milionů	-0.031655323
-3.6880503	osob	-0.06362571
-3.7625191	věku	-0.06362571
-5.1505437	umožňujícím	-0.031655297
-5.1505437	volit,	-0.031655297
-5.1505437	vydaný	-0.031655297
-5.1505437	vládním	-0.031655297
-5.1505437	úřadem	-0.031655297
-3.038068	jejich	-0.03919233
-4.3614607	státu.	-0.703549
-5.1505437	Dále	-0.031655297
-3.5690749	nemá	-0.031655297
-3.3045623	asi	-0.031655297
-3.6245012	pět	-0.031655297
-4.120202	voličů	-0.0840023
-4.570131	2012.	-0.1766703
-5.1505437	Pořízení	-0.031655297
-5.1505437	požadovaného	-0.031655297
-4.570131	průkazu	-0.1766703
-3.5690749	navíc	-0.031655297
-3.2771463	stojí	-0.19782865
-3.4757826	často	-0.031655297
-3.038068	více	-0.43510637
-4.570131	sto	-0.031655297
-4.120202	dolarů.	-0.82848775
-5.1505437	Nová	-0.031655297
-3.9660137	omezení	-0.031655297
-1.8303174	se	-0.176174
-5.1505437	nepřiměřeně	-0.031655297
-5.1505437	dotýkají	-0.031655297
-3.8524551	hlavně	-0.031655297
-5.1505437	mladých,	-0.031655297
-5.1505437	příslušníků	-0.031655297
-4.570131	menšin	-0.031655297
-1.6477373	a	-0.09247978
-5.1505437	nízkými	-0.031655297
-5.1505437	příjmy.	-0.031655297
-2.440004	to	-0.13639776
-2.9068403	není	-0.05031538
-5.1505437	vše.	-0.031655297
-5.1505437	Studenti,	-0.031655297
-2.7634592	kteří	-0.19978692
-2.4557488	jsou	-0.09694768
-4.570131	voliči	-0.031655297
-5.1505437	známí	-0.031655297
-3.5690749	svým	-0.05104938
-5.1505437	příklonem	-0.031655297
-2.4174082	k	-0.11679488
-4.570131	demokratickým	-0.031655297
-5.1505437	kandidátům,	-0.031655297
-3.3045623	nejsou	-0.061678536
-3.5690749	několika	-0.031655297
-5.1505437	oprávněni	-0.031655297
-4.3614607	používat	-0.031655297
-3.435713	svůj	-0.05104938
-5.1505437	vystavený	-0.031655297
-5.1505437	školou.	-0.031655297
-3.5690749	druhé	-0.0840023
-4.120202	straně	-0.031655297
-5.1505437	tytéž	-0.031655297
-4.120202	státy	-0.031655297
-4.3614607	umožňují	-0.031655297
-5.1505437	členům	-0.031655297
-5.1505437	loveckých	-0.031655297
-5.1505437	rybářských	-0.031655297
-5.1505437	klubů,	-0.031655297
-5.1505437	volí	-0.031655297
-3.6245012	spíše	-0.05704057
-5.1505437	kandidáty,	-0.031655297
-5.1505437	karty	-0.031655297
-5.1505437	vystavené	-0.031655297
-5.1505437	těmito	-0.031655297
-4.570131	kluby	-0.031655297
-3.038068	při	-0.039683126
-5.1505437	používat.	-0.031655297
-5.1505437	Do	-0.031655297
-4.3614607	2004	-0.031655297
-3.3652055	stát	-0.04734641
-2.9068403	u	-0.11190045
-4.570131	doklad	-0.031655297
-2.3754642	o	-0.107045956
-5.1505437	občanství.	-0.031655297
-5.1505437	První	-0.031655297
-4.570131	zavedla	-0.031655297
-5.1505437	Arizona.	-0.031655297
-5.1505437	Od	-0.031655297
-4.570131	přijalo	-0.031655297
-5.1505437	dvanáct	-0.031655297
-4.3614607	států	-0.031655297
-5.1505437	stanoví	-0.031655297
-4.120202	povinnost	-0.031655297
-5.1505437	prokazovat,	-0.031655297
-5.1505437	americkými	-0.031655297
-5.1505437	občany.	-0.031655297
-5.1505437	Tato	-0.031655323
-4.570131	zjevně	-0.031655297
-5.1505437	směřují	-0.031655297
-4.120202	počtu	-0.031655297
-4.3614607	hlasů	-0.031655297
-5.1505437	hispánské	-0.031655297
-5.1505437	menšiny.	-0.031655297
-5.1505437	Nutno	-0.031655297
-3.8524551	totiž	-0.031655297
-2.8741271	ze	-0.11193662
-4.3614607	tří	-0.031655297
-4.570131	Hispánců	-0.031655297
-4.3614607	dávají	-0.031655297
-4.570131	přednost	-0.031655297
-4.570131	demokratické	-0.031655297
-4.570131	straně.	-0.1766703
-5.1505437	legislativci	-0.031655297
-4.570131	podpořili	-0.031655297
-4.570131	osmi	-0.031655297
-3.39903	jež	-0.1118827
-5.1505437	ruší	-0.031655297
-4.570131	zápis	-0.1766703
-3.6245012	den	-0.052705295
-5.1505437	konání	-0.031655297
-5.1505437	voleb.	-0.031655297
-5.1505437	Omezili	-0.031655297
-4.120202	skupin	-0.031655297
-5.1505437	poskytovat	-0.031655297
-4.120202	pomoc	-0.031655297
-5.1505437	voličům,	-0.031655297
-4.120202	chtějí	-0.031655297
-5.1505437	zapsat.	-0.031655297
-2.9943779	své	-0.04385311
-5.1505437	důsledky.	-0.031655297
-5.1505437	Například	-0.031655297
-5.1505437	všeobecných	-0.031655297
-5.1505437	napomohly	-0.031655297
-4.3614607	kampaně	-0.031655297
-2.3855765	pro	-0.09137538
-5.1505437	zaregistrování	-0.031655297
-4.570131	cca	-0.031655297
-3.8524551	10	-0.031655297
-4.570131	obyvatel.	-0.1766703
-5.1505437	Opatření	-0.031655297
-5.1505437	přijatá	-0.031655297
-2.4210935	ale	-0.12726955
-5.1505437	způsobila	-0.031655297
-5.1505437	pokles	-0.031655297
-5.1505437	zapisování	-0.031655297
-4.570131	2010	-0.031655297
-4.570131	17%	-0.031655297
-3.9660137	oproti	-0.031655297
-5.1505437	2006.	-0.031655297
-4.570131	zákonodárci	-0.031655297
-3.227017	pak	-0.083565354
-3.8524551	dalších	-0.031655323
-3.7625191	pěti	-0.031655297
-4.3614607	přijali	-0.031655297
-3.6245012	zákony	-0.031655297
-4.570131	zaměřené	-0.1766703
-5.1505437	zkrácení	-0.031655297
-4.3614607	období	-0.031655297
-5.1505437	předstihu.	-0.031655297
-5.1505437	U	-0.031655297
-3.39903	tomu	-0.10741058
-5.1505437	stejně.	-0.031655297
-5.1505437	Tvořili	-0.031655297
-5.1505437	pouhých	-0.031655297
-3.227017	všech	-0.04251054
-4.3614607	voličů,	-0.031655297
-5.1505437	24%	-0.031655297
-2.2225788	z	-0.14362961
-4.3614607	občanů	-0.031655297
-5.1505437	hlasujících	-0.031655297
-4.120202	druhou	-0.1227706
-4.3614607	stranu	-0.031655297
-5.1505437	běloši,	-0.031655297
-4.570131	představovali	-0.031655297
-5.1505437	76%	-0.031655297
-5.1505437	tvořili	-0.031655297
-5.1505437	46%	-0.031655297
-5.1505437	volili	-0.031655297
-5.1505437	Proti	-0.031655297
-5.1505437	schválení	-0.031655297
-4.570131	zákonů,	-0.031655297
-5.1505437	omezují	-0.031655297
-4.570131	registraci	-0.031655297
-3.7625191	samozřejmě	-0.031655297
-3.038068	velmi	-0.062295362
-5.1505437	důrazně	-0.031655297
-4.570131	postavili	-0.031655297
-5.1505437	demokratičtí	-0.031655297
-5.1505437	podporovatelé.	-0.031655297
-5.1505437	Demokratičtí	-0.031655297
-5.1505437	guvernéři	-0.031655297
-5.1505437	zablokovali	-0.031655297
-5.1505437	vetem	-0.031655297
-3.2513587	několik	-0.043558687
-4.3614607	zákonů.	-0.703549
-5.1505437	S	-0.031655297
-5.1505437	pozastavit	-0.031655297
-4.570131	platnost	-0.031655297
-5.1505437	nejkontroverznějších	-0.031655297
-3.5690749	dokonce	-0.05467054
-5.1505437	zasáhl	-0.031655297
-4.570131	generální	-0.031655297
-4.3614607	prokurátor	-0.031655297
-3.6880503	Spojených	-0.18218459
-5.1505437	Škody	-0.031655297
-3.4757826	jim	-0.045574673
-5.1505437	zčásti	-0.031655297
-3.9660137	podařilo	-0.031655297
-5.1505437	omezit.	-0.031655297
-5.1505437	vyžadující	-0.031655297
-3.9660137	16	-0.031655297
-5.1505437	Nově	-0.031655297
-5.1505437	zavedená	-0.031655297
-4.120202	pravidla	-0.031655297
-3.435713	zcela	-0.031655297
-5.1505437	nepopiratelně	-0.031655297
-5.1505437	ztíží	-0.031655297
-4.570131	2012	-0.031655297
-4.570131	výkon	-0.031655297
-5.1505437	hlasovacího	-0.031655297
-3.8524551	práva.	-0.5953342
-4.570131	kritici	-0.031655297
-3.9660137	hovoří	-0.031655297
-3.6880503	především	-0.031655297
-5.1505437	předpojatosti	-0.031655297
-5.1505437	schválených	-0.031655297
-5.1505437	považují	-0.031655297
-5.1505437	zjevnou	-0.031655297
-4.570131	snahu	-0.031655297
-5.1505437	ovlivnit	-0.031655297
-4.570131	výsledky	-0.031655297
-5.1505437	klíčových	-0.031655297
-5.1505437	Zpráva	-0.031655297
-5.1505437	Brennanova	-0.031655297
-4.570131	střediska	-0.031655297
-4.3614607	ukazuje,	-0.1227706
-4.3614607	státy,	-0.031655297
-3.038068	kde	-0.16855505
-3.08665	byly	-0.053975914
-3.4757826	tyto	-0.031655297
-5.1505437	schváleny,	-0.031655297
-4.570131	představují	-0.031655297
-5.1505437	171	-0.031655297
-5.1505437	270	-0.031655297
-5.1505437	sboru	-0.031655297
-5.1505437	volitelů	-0.031655297
-5.1505437	nezbytných	-0.031655297
-4.570131	vítězství	-0.1766703
-4.570131	prezidentských	-0.031655297
-4.570131	volbách.	-0.1766703
-3.2513587	příliš	-0.031655297
-4.570131	brzy	-0.031655297
-3.1612422	to,	-0.43686295
-5.1505437	prohlásit	-0.031655297
-5.1505437	jistotou,	-0.031655297
-5.1505437	legislativní	-0.031655297
-3.9660137	změny	-0.0840023
-4.3614607	úrovni	-0.031655297
-4.120202	systému	-0.031655297
-5.1505437	výrazný	-0.031655297
-4.3614607	výsledek	-0.031655297
-4.570131	jisté	-0.031655297
-2.9943779	již	-0.04519255
-5.1505437	dnes:	-0.031655297
-5.1505437	nepříznivý	-0.031655297
-5.1505437	Odhalování	-0.031655297
-3.7625191	rakoviny	-0.031655297
-5.1505437	prostaty:	-0.031655297
-4.570131	absolvovat	-0.031655297
-3.8524551	vyšetření	-0.031655297
-4.570131	ne?	-0.1766703
-5.1505437	Test	-0.031655297
-5.1505437	PSA	-0.031655297
-5.1505437	přinášel	-0.031655297
-5.1505437	leckdy	-0.031655297
-5.1505437	chybné	-0.031655297
-5.1505437	výsledky,	-0.031655297
-4.570131	nesprávně	-0.031655297
-3.6245012	či	-0.031655297
-5.1505437	pozitivní,	-0.031655297
-3.3045623	což	-0.17300506
-4.570131	vedlo	-0.031655297
-3.227017	ke	-0.05467054
-5.1505437	zbytečným	-0.031655297
-5.1505437	lékařským	-0.031655297
-5.1505437	zákrokům.	-0.031655297
-4.3614607	To	-0.06854196
-3.6245012	vše	-0.059954986
-2.8062003	ještě	-0.0698672
-5.1505437	zvýšilo	-0.031655297
-5.1505437	váhavost	-0.031655297
-4.120202	mužů,	-0.09813799
-2.7474747	tak	-0.08191361
-5.1505437	zdráhali	-0.031655297
-3.5690749	vůbec	-0.14864168
-4.3614607	jít.	-0.703549
-5.1505437	Nechat	-0.031655297
-5.1505437	vyšetřit	-0.031655297
-5.1505437	Požádali	-0.031655297
-2.8245485	jsme	-0.11161692
-4.570131	názor	-0.031655297
-4.570131	odborníky.	-0.1766703
-5.1505437	studiích	-0.031655297
-4.3614607	prováděných	-0.031655297
-5.1505437	projevila	-0.031655297
-4.3614607	vysoká	-0.031655297
-4.570131	míra	-0.031655297
-5.1505437	kontaminace	-0.031655297
-2.8437061	mezi	-0.09270789
-4.570131	jednotlivými	-0.031655297
-5.1505437	testovanými	-0.031655297
-5.1505437	skupinami,	-0.031655297
-3.3045623	tedy	-0.043558687
-4.570131	obtížné	-0.031655297
-5.1505437	interpretovat	-0.031655297
-5.1505437	přinést	-0.031655297
-5.1505437	hodnotná	-0.031655297
-5.1505437	doporučení.	-0.031655297
-5.1505437	Další	-0.031655297
-4.570131	studie,	-0.031655297
-5.1505437	tentokrát	-0.031655297
-5.1505437	evropská,	-0.031655297
-5.1505437	konstatovala	-0.031655297
-5.1505437	rozdílnou	-0.031655297
-5.1505437	úmrtnost	-0.031655297
-5.1505437	pacienty,	-0.031655297
-4.570131	podstoupili	-0.031655297
-5.1505437	vyšetření,	-0.031655297
-5.1505437	těmi,	-0.031655297
-4.120202	ně	-0.031655297
-5.1505437	nešli.	-0.031655297
-4.570131	studie	-0.031655297
-2.8340218	také	-0.07002928
-5.1505437	prokázala	-0.031655297
-5.1505437	12letém	-0.031655297
-5.1505437	odstupu,	-0.031655297
-3.9660137	ti,	-0.3092521
-3.3652055	kdo	-0.061678536
-5.1505437	nejdou,	-0.031655297
-3.5690749	30	-0.0840023
-2.8340218	až	-0.11076976
-5.1505437	40%	-0.031655297
-3.9660137	vyšší	-0.031655297
-4.120202	riziko	-0.031655297
-4.570131	výskytu	-0.031655297
-5.1505437	metastáz.	-0.031655297
-5.1505437	Doporučuji	-0.031655297
-3.9660137	50	-0.031655297
-4.570131	40	-0.031655297
-3.5690749	let,	-0.05704057
-3.5690749	pokud	-0.11947197
-4.3614607	váš	-0.031655297
-5.1505437	přímý	-0.031655297
-5.1505437	příbuzný	-0.031655297
-3.2771463	měl	-0.044162497
-4.570131	rakovinu	-0.031655297
-5.1505437	prostaty.	-0.031655297
-5.1505437	Ohroženější	-0.031655297
-4.3614607	skupinou	-0.031655297
-3.7625191	rovněž	-0.031655297
-5.1505437	muži	-0.031655297
-5.1505437	afroamerického	-0.031655297
-5.1505437	původu.	-0.031655297
-5.1505437	Klíčem	-0.031655297
-5.1505437	přijmout	-0.031655297
-5.1505437	správné	-0.031655297
-5.1505437	rozhodnutí,	-0.031655297
-5.1505437	jakmile	-0.031655297
-4.570131	rakovina	-0.031655297
-5.1505437	odhalena.	-0.031655297
-5.1505437	Existují	-0.031655297
-4.570131	agresivní	-0.031655297
-4.570131	druhy	-0.031655297
-3.7625191	takové	-0.031655297
-5.1505437	druhy,	-0.031655297
-5.1505437	netečné.	-0.031655297
-5.1505437	Dnes	-0.031655297
-4.120202	řada	-0.031655297
-5.1505437	diagnostikována,	-0.031655297
-5.1505437	neléčí,	-0.031655297
-4.120202	jelikož	-0.031655297
-4.3614607	druh	-0.031655297
-5.1505437	neohrožuje	-0.031655297
-5.1505437	životě.	-0.031655297
-5.1505437	Navrhneme	-0.031655297
-5.1505437	provádění	-0.031655297
-5.1505437	aktivního	-0.031655297
-4.570131	dohledu	-0.031655297
-4.120202	případě	-0.031655297
-5.1505437	progrese	-0.031655297
-3.9660137	nemoci	-0.031655297
-5.1505437	nabídneme	-0.031655297
-4.570131	léčbu.	-0.1766703
-5.1505437	Stále	-0.031655297
-4.570131	častěji	-0.031655297
-3.435713	větší	-0.031655297
-5.1505437	přesností	-0.031655297
-5.1505437	stanovujeme	-0.031655297
-5.1505437	kritéria,	-0.031655297
-5.1505437	pomáhají	-0.031655297
-5.1505437	rozhodování,	-0.031655297
-5.1505437	léčit	-0.031655297
-4.120202	ne.	-0.82848775
-5.1505437	Přesto	-0.031655297
-5.1505437	doporučuji	-0.031655297
-5.1505437	absolvovat.	-0.031655297
-5.1505437	Důležité	-0.031655297
-5.1505437	pohovor	-0.031655297
-5.1505437	lékařem	-0.031655297
-5.1505437	stanovit,	-0.031655297
-3.5199285	zda	-0.18126068
-4.3614607	vhodné	-0.031655297
-5.1505437	podstoupit	-0.031655297
-4.120202	spolupráci	-0.3092521
-4.3614607	Mezinárodní	-0.031655297
-5.1505437	urologickou	-0.031655297
-4.3614607	společností	-0.031655297
-5.1505437	vytvořilo	-0.031655297
-4.3614607	hnutí	-0.031655297
-5.1505437	Movember	-0.031655297
-4.570131	nástroj,	-0.031655297
-4.3614607	umožňuje	-0.031655297
-5.1505437	hodnotit	-0.031655297
-4.570131	souvislosti	-0.1766703
-5.1505437	vyšetřením	-0.031655297
-5.1505437	PSA.	-0.031655297
-5.1505437	Prevence	-0.031655297
-4.120202	onemocnění	-0.09813799
-5.1505437	Bohužel	-0.031655297
-4.570131	neexistuje	-0.031655297
-5.1505437	zázračný	-0.031655297
-4.3614607	postup	-0.031655297
-5.1505437	prevenci	-0.031655297
-4.3614607	rakoviny.	-0.703549
-5.1505437	Odhaduje	-0.031655297
-3.435713	se,	-0.29612795
-3.6880503	kdyby	-0.031655297
-3.6880503	všichni	-0.031655297
-4.570131	zdravě	-0.031655297
-5.1505437	jedli	-0.031655297
-4.3614607	dostatečně	-0.031655297
-5.1505437	hýbali,	-0.031655297
-4.570131	dalo	-0.031655297
-2.6622496	by	-0.1866469
-5.1505437	předejít	-0.031655297
-4.3614607	30%	-0.031655297
-5.1505437	Naproti	-0.031655297
-5.1505437	odhaduje,	-0.031655297
-4.120202	přibližně	-0.031655297
-5.1505437	10%	-0.031655297
-4.3614607	rakovinou	-0.031655297
-5.1505437	způsobuje	-0.031655297
-5.1505437	dědičnost.	-0.031655297
-5.1505437	Nějaké	-0.031655297
-5.1505437	procento	-0.031655297
-4.3614607	zůstává	-0.031655297
-5.1505437	nevysvětlené.	-0.031655297
-5.1505437	Pro	-0.031655297
-5.1505437	kanadskou	-0.031655297
-3.39903	společnost	-0.06839128
-3.9660137	výzkum	-0.031655297
-4.570131	prioritou	-0.031655297
-4.3614607	boj	-0.031655297
-5.1505437	kouření,	-0.031655297
-2.8437061	když	-0.17307577
-4.570131	kuřáků	-0.031655297
-5.1505437	klesá.	-0.031655297
-5.1505437	Cigarety	-0.031655297
-5.1505437	85%	-0.031655297
-5.1505437	plic.	-0.031655297
-4.3614607	Jsou	-0.031655297
-4.570131	rizikovým	-0.1766703
-5.1505437	faktorem	-0.031655297
-5.1505437	dalších.	-0.031655297
-5.1505437	nesmírně	-0.031655297
-5.1505437	škodí	-0.031655297
-5.1505437	lidskému	-0.031655297
-4.570131	zdraví.	-0.1766703
-5.1505437	"Ještě	-0.031655297
-3.227017	dnes	-0.087197326
-4.120202	1,5	-0.031655297
-4.3614607	milionu	-0.031655297
-5.1505437	kuřáků,"	-0.031655297
-4.570131	kroutí	-0.031655297
-5.1505437	hlavou	-0.031655297
-4.3614607	mluvčí	-0.031655297
-4.570131	André	-0.031655297
-5.1505437	Beaulieu.	-0.031655297
-5.1505437	Povzbudivý	-0.031655297
-5.1505437	údaj:	-0.031655297
-4.120202	poté,	-0.82848775
-2.7800543	co	-0.18171243
-5.1505437	kuřák	-0.031655297
-5.1505437	přestane	-0.031655297
-4.570131	kouřit,	-0.031655297
-4.570131	klesá	-0.031655297
-5.1505437	úmrtí	-0.031655297
-5.1505437	polovinu.	-0.031655297
-5.1505437	Hmotnost	-0.031655297
-5.1505437	Tělnatost	-0.031655297
-5.1505437	obezita	-0.031655297
-3.141359	podle	-0.05619811
-5.1505437	SCC	-0.031655297
-4.570131	dalším	-0.031655297
-5.1505437	výskyt	-0.031655297
-5.1505437	onemocnění.	-0.031655297
-5.1505437	Zvyšují	-0.031655297
-5.1505437	prsu,	-0.031655297
-4.570131	tlustého	-0.031655297
-5.1505437	střeva	-0.031655297
-5.1505437	konečníku,	-0.031655297
-5.1505437	jícnu,	-0.031655297
-5.1505437	slinivky	-0.031655297
-5.1505437	dělohy.	-0.031655297
-5.1505437	"Z	-0.031655297
-4.570131	výzkumu	-0.031655297
-4.570131	vyplývá,	-0.1766703
-4.570131	pravidelná	-0.031655297
-5.1505437	tělesná	-0.031655297
-5.1505437	aktivita	-0.031655297
-3.6245012	celý	-0.05704057
-3.5690749	život	-0.052705295
-5.1505437	chrání	-0.031655297
-3.1223466	před	-0.05031538
-5.1505437	střeva,"	-0.031655297
-4.120202	dodává	-0.1766703
-5.1505437	zpráva.	-0.031655297
-5.1505437	Výživa	-0.031655297
-5.1505437	Uvedená	-0.031655297
-3.8524551	organizace	-0.09813799
-4.570131	doporučuje	-0.031655297
-5.1505437	omezit	-0.031655297
-5.1505437	spotřebu	-0.031655297
-5.1505437	červeného	-0.031655297
-4.570131	masa.	-0.1766703
-5.1505437	Při	-0.031655297
-3.9660137	vysoké	-0.031655297
-5.1505437	spotřebě	-0.031655297
-2.9068403	může	-0.11679217
-4.120202	vést	-0.24887247
-5.1505437	zvýšenému	-0.031655297
-4.3614607	nebezpečí	-0.031655297
-5.1505437	kolorektální	-0.031655297
-5.1505437	vyvarovat	-0.031655297
-5.1505437	uzenin,	-0.031655297
-3.6245012	platí	-0.059954986
-5.1505437	totéž.	-0.031655297
-5.1505437	Konzervování	-0.031655297
-5.1505437	masa	-0.031655297
-5.1505437	uzením,	-0.031655297
-5.1505437	sušením	-0.031655297
-5.1505437	solením	-0.031655297
-4.570131	tvorbě	-0.031655297
-5.1505437	karcinogenních	-0.031655297
-5.1505437	látek.	-0.031655297
-5.1505437	"Mohou	-0.031655297
-4.570131	způsobit	-0.031655297
-4.570131	poškození	-0.031655297
-5.1505437	buněk	-0.031655297
-5.1505437	organismu	-0.031655297
-5.1505437	rozvoji	-0.031655297
-5.1505437	rakoviny,"	-0.031655297
-5.1505437	Vitamíny	-0.031655297
-3.8524551	době	-0.101005554
-5.1505437	různí	-0.031655297
-3.6880503	vědci	-0.031655297
-5.1505437	zaměřili	-0.031655297
-5.1505437	spojitost	-0.031655297
-5.1505437	vitamínovými	-0.031655297
-5.1505437	doplňky	-0.031655297
-4.3614607	rakovinou.	-0.703549
-5.1505437	Výzkumy	-0.031655297
-3.6880503	dosud	-0.031655297
-5.1505437	nepřinesly	-0.031655297
-5.1505437	jednoznačné	-0.031655297
-5.1505437	závěry.	-0.031655297
-5.1505437	Studie	-0.031655297
-5.1505437	vitamín	-0.031655297
-5.1505437	E	-0.031655297
-5.1505437	rozporuplné.	-0.031655297
-5.1505437	Ačkoli	-0.031655297
-3.5690749	jedné	-0.17439324
-3.5690749	nich	-0.031655297
-4.3614607	dojde	-0.1227706
-4.570131	snížení	-0.031655297
-4.570131	rizika	-0.031655297
-4.570131	prostaty,	-0.031655297
-4.3614607	jiná	-0.031655297
-2.8340218	jeho	-0.031655297
-5.1505437	zvýšení.	-0.031655297
-5.1505437	Ani	-0.031655297
-5.1505437	účinek	-0.031655297
-5.1505437	vitamínu	-0.031655297
-5.1505437	D	-0.031655297
-5.1505437	jednoznačně	-0.031655297
-5.1505437	prokázán.	-0.031655297
-5.1505437	Pan	-0.031655297
-5.1505437	Beaulieu	-0.031655297
-3.8524551	dále	-0.031655297
-3.8524551	trvá	-0.24887247
-4.3614607	tom,	-0.26706982
-2.7553935	jak	-0.21903946
-4.570131	důležité	-0.031655297
-5.1505437	hovořit	-0.031655297
-3.3652055	svých	-0.031655297
-5.1505437	obavách	-0.031655297
-5.1505437	precedentech	-0.031655297
-3.8524551	rodiny	-0.031655297
-5.1505437	lékařem.	-0.031655297
-5.1505437	"Podrobit	-0.031655297
-4.570131	neznamená,	-0.1766703
-3.9660137	budete	-0.031655297
-5.1505437	rakovinu."	-0.031655297
-4.570131	Higgsův	-0.031655297
-4.570131	boson	-0.031655297
-5.1505437	prozkoumán	-0.031655297
-5.1505437	Existuje	-0.031655297
-5.1505437	názor,	-0.031655297
-5.1505437	podílí	-0.031655297
-5.1505437	mechanismu,	-0.031655297
-4.570131	odpovědný	-0.031655297
-5.1505437	veškerou	-0.031655297
-5.1505437	hmotu	-0.031655297
-4.120202	vesmíru.	-0.82848775
-5.1505437	Mezi	-0.031655297
-5.1505437	fyziky	-0.031655297
-5.1505437	nepanuje	-0.031655297
-4.570131	stoprocentní	-0.031655297
-5.1505437	jistota,	-0.031655297
-3.5199285	jde	-0.40666127
-5.1505437	boson.	-0.031655297
-5.1505437	Nepochybuje	-0.031655297
-4.120202	máme	-0.031655297
-4.570131	dispozici	-0.031655297
-4.120202	novou	-0.031655297
-5.1505437	částici,	-0.031655297
-2.739698	která	-0.21559817
-4.570131	podobá	-0.031655297
-5.1505437	Higgsovu	-0.031655297
-5.1505437	bosonu,	-0.031655297
-5.1505437	předpovězen	-0.031655297
-5.1505437	standardním	-0.031655297
-5.1505437	modelem.	-0.031655297
-5.1505437	data	-0.031655297
-5.1505437	zveřejněná	-0.031655297
-3.7625191	týden	-0.031655297
-5.1505437	velkého	-0.031655297
-5.1505437	fyzikálního	-0.031655297
-5.1505437	kongresu	-0.031655297
-5.1505437	Kjótu	-0.031655297
-3.7625191	jej	-0.031655297
-4.570131	potvrzují,	-0.031655297
-4.570131	chybějí	-0.031655297
-4.570131	veškeré	-0.031655297
-4.570131	údaje,	-0.031655297
-3.5199285	abychom	-0.031655323
-4.120202	mohli	-0.031655297
-5.1505437	absolutní	-0.031655297
-4.570131	jistotu.	-0.1766703
-5.1505437	Nicméně	-0.031655297
-5.1505437	předpokládejme,	-0.031655297
-5.1505437	boson,	-0.031655297
-5.1505437	omylu	-0.031655297
-4.3614607	jeví	-0.1227706
-5.1505437	malá,	-0.031655297
-4.570131	podívejme	-0.1766703
-5.1505437	oč	-0.031655297
-3.6880503	vlastně	-0.031655297
-5.1505437	jde.	-0.031655297
-3.8524551	světě	-0.031655297
-5.1505437	nezpochybnitelný	-0.031655297
-4.3614607	zákon,	-0.1227706
-4.570131	něhož	-0.031655297
-3.6245012	dvě	-0.031655297
-4.120202	věci	-0.031655297
-3.9660137	nemohou	-0.031655297
-5.1505437	vyskytovat	-0.031655297
-5.1505437	stejný	-0.031655297
-4.570131	okamžik	-0.031655297
-5.1505437	stejném	-0.031655297
-4.3614607	místě.	-0.703549
-5.1505437	Toto	-0.031655297
-4.3614607	pravidlo	-0.031655297
-3.8524551	nelze	-0.07482778
-5.1505437	obejít	-0.031655297
-2.5204659	-	-0.11650627
-5.1505437	nepokoušejte	-0.031655297
-5.1505437	usilovně,	-0.031655297
-4.570131	jinak	-0.031655297
-2.511259	si	-0.0693544
-5.1505437	ublížíte.	-0.031655297
-4.570131	dělí	-0.031655297
-5.1505437	fyzikové	-0.031655297
-4.3614607	částice	-0.031655297
-5.1505437	kategorie.	-0.031655297
-5.1505437	najdeme	-0.031655297
-5.1505437	spořádané	-0.031655297
-5.1505437	občany,	-0.031655297
-3.7625191	neboli	-0.031655297
-5.1505437	fermiony,	-0.031655297
-5.1505437	poslušně	-0.031655297
-5.1505437	dodržují	-0.031655297
-5.1505437	Pauliho	-0.031655297
-5.1505437	princip.	-0.031655297
-4.120202	říct,	-0.82848775
-5.1505437	bosony	-0.031655297
-5.1505437	exotická	-0.031655297
-5.1505437	zvířátka,	-0.031655297
-5.1505437	možno	-0.031655297
-5.1505437	domnívat.	-0.031655297
-4.570131	Pokud	-0.031655323
-4.120202	článek	-0.031655297
-5.1505437	přečtete,	-0.031655297
-3.7625191	díky	-0.031655297
-5.1505437	bosonu	-0.031655297
-5.1505437	neobvyklou	-0.031655297
-5.1505437	banalitou:	-0.031655297
-5.1505437	fotonu,	-0.031655297
-5.1505437	"částici	-0.031655297
-5.1505437	světla",	-0.031655297
-5.1505437	"nositelem"	-0.031655297
-4.570131	elektromagnetické	-0.031655297
-5.1505437	síly.	-0.031655297
-5.1505437	Když	-0.031655297
-5.1505437	elektrickým	-0.031655297
-5.1505437	nábojem	-0.031655297
-5.1505437	zrychlí	-0.031655297
-4.570131	změní	-0.031655297
-5.1505437	směr,	-0.031655297
-5.1505437	"vyruší"	-0.031655297
-3.6880503	tím	-0.031655323
-4.570131	pole	-0.031655297
-5.1505437	konkrétním	-0.031655297
-4.570131	místě,	-0.031655297
-4.570131	podobně	-0.031655297
-5.1505437	oblázek	-0.031655297
-5.1505437	hozený	-0.031655297
-5.1505437	rybníka.	-0.031655297
-5.1505437	Z	-0.031655297
-5.1505437	"vyrušení"	-0.031655297
-4.570131	vznikne	-0.031655297
-5.1505437	elektromagnetická	-0.031655297
-4.570131	vlna	-0.031655297
-5.1505437	(světlo,	-0.031655297
-4.120202	infračervené	-0.031655297
-5.1505437	ultrafialové	-0.031655297
-5.1505437	záření	-0.031655297
-5.1505437	atd.)	-0.031655297
-4.3614607	ničím	-0.031655297
-5.1505437	jiným	-0.031655297
-5.1505437	fotonem	-0.031655297
-3.8524551	jedním	-0.24887247
-5.1505437	bosonů,	-0.031655297
-5.1505437	"nositelů	-0.031655297
-5.1505437	síly".	-0.031655297
-5.1505437	Stabilnější	-0.031655297
-5.1505437	Taktéž	-0.031655297
-5.1505437	Higgsovým	-0.031655297
-5.1505437	bosonem,	-0.031655297
-5.1505437	rozdílem,	-0.031655297
-5.1505437	"vyrušit"	-0.031655297
-4.120202	nutno	-0.031655297
-3.8524551	jiné	-0.031655297
-4.570131	pole,	-0.031655297
-5.1505437	Higgsovo	-0.031655297
-5.1505437	objevil.	-0.031655297
-5.1505437	Analogie	-0.031655297
-4.570131	elektromagnetickým	-0.1766703
-4.570131	polem	-0.1227706
-3.3338263	nám	-0.043558687
-3.9660137	znovu	-0.031655297
-5.1505437	hodí	-0.031655297
-4.570131	objasnění	-0.031655297
-4.120202	vztahu	-0.09813799
-5.1505437	Higgsem	-0.031655297
-5.1505437	hmotou.	-0.031655297
-5.1505437	nereagují	-0.031655297
-2.9675164	ani	-0.044830855
-3.3045623	všechny	-0.031655323
-5.1505437	materiály.	-0.031655297
-5.1505437	Některé,	-0.031655297
-3.1612422	například	-0.04124409
-5.1505437	magnety,	-0.031655297
-5.1505437	činí,	-0.031655297
-3.3652055	ne	-0.06507058
-4.570131	kus	-0.031655297
-5.1505437	papíru	-0.031655297
-3.39903	nikdy	-0.15089895
-3.7625191	nebude	-0.031655297
-3.6880503	sám	-0.06362571
-3.7625191	sebe	-0.059954986
-4.570131	držet	-0.031655297
-5.1505437	ledničce.	-0.031655297
-3.435713	stejně	-0.32352227
-4.120202	platí,	-0.82848775
-5.1505437	částice:	-0.031655297
-3.8524551	ty,	-0.1227706
-4.3614607	určitou	-0.031655297
-5.1505437	hmotu,	-0.031655297
-4.3614607	zatímco	-0.031655297
-3.7625191	ostatní	-0.06839128
-5.1505437	(jako	-0.031655297
-5.1505437	foton,	-0.031655297
-5.1505437	něj)	-0.031655297
-3.3338263	ji	-0.04640753
-5.1505437	nemají.	-0.031655297
-4.3614607	paní	-0.031655297
-5.1505437	Nováková	-0.031655297
-5.1505437	ptá,	-0.031655297
-4.570131	čemu	-0.031655297
-5.1505437	výzkumy	-0.031655297
-4.570131	jsou,	-0.031655297
-5.1505437	"nám	-0.031655297
-5.1505437	přinesou"?	-0.031655297
-4.570131	hlediska	-0.031655297
-5.1505437	vědy	-0.031655297
-5.1505437	potvrzení	-0.031655297
-4.3614607	platnosti	-0.031655297
-5.1505437	standardního	-0.031655297
-5.1505437	modelu	-0.031655297
-5.1505437	(SM),	-0.031655297
-5.1505437	fyzikům	-0.031655297
-5.1505437	podrobovat	-0.031655297
-5.1505437	zkoumání	-0.031655297
-5.1505437	jakýkoli	-0.031655297
-5.1505437	nesoulad	-0.031655297
-5.1505437	pozorováním	-0.031655297
-4.570131	předpověďmi	-0.031655297
-5.1505437	SM.	-0.031655297
-4.3614607	potřeba	-0.031655297
-5.1505437	konstatovat,	-0.031655297
-4.570131	model	-0.031655297
-2.788596	má	-0.08903628
-4.570131	obrovské	-0.031655297
-5.1505437	nedostatky,	-0.031655297
-5.1505437	nepřináší	-0.031655297
-3.5199285	žádné	-0.031655297
-5.1505437	gravitace	-0.031655297
-5.1505437	(ouha!)	-0.031655297
-4.570131	tmavé	-0.031655297
-5.1505437	hmoty,	-0.031655297
-3.9660137	tvoří	-0.031655297
-4.570131	80%	-0.031655297
-5.1505437	vesmírné	-0.031655297
-5.1505437	hmoty	-0.031655297
-5.1505437	(zase	-0.031655297
-5.1505437	ouha!).	-0.031655297
-5.1505437	Zařízení	-0.031655297
-5.1505437	CERN	-0.031655297
-4.570131	rozpory	-0.031655297
-5.1505437	neobjevilo.	-0.031655297
-5.1505437	Odezvy	-0.031655297
-5.1505437	Hleďte:	-0.031655297
-4.570131	samotném	-0.031655297
-3.9660137	počátku	-0.031655297
-4.570131	60.	-0.031655297
-4.3614607	neměli	-0.1227706
-5.1505437	průkopníci	-0.031655297
-5.1505437	laseru	-0.031655297
-5.1505437	Bellových	-0.031655297
-5.1505437	laboratořích	-0.031655297
-5.1505437	tušení	-0.031655297
-5.1505437	revoluci,	-0.031655297
-3.5199285	práce	-0.05104938
-5.1505437	vyvolá.	-0.031655297
-5.1505437	Předpokládali	-0.031655297
-4.3614607	vědecké	-0.031655297
-5.1505437	využití,	-0.031655297
-3.4757826	nic	-0.031655297
-5.1505437	dalšího.	-0.031655297
-4.570131	Jen	-0.031655297
-5.1505437	představte...	-0.031655297
-3.8524551	kromě	-0.07482778
-4.570131	uplatnění	-0.031655297
-5.1505437	vyplynout	-0.031655297
-5.1505437	veškerých	-0.031655297
-5.1505437	nástrojů,	-0.031655297
-5.1505437	obklopují	-0.031655297
-4.570131	výzkum.	-0.1766703
-5.1505437	tentýž	-0.031655297
-5.1505437	Willard	-0.031655297
-4.570131	Boyle	-0.031655297
-5.1505437	vytvořil	-0.031655297
-4.3614607	malý	-0.031655297
-5.1505437	světelný	-0.031655297
-4.570131	snímač	-0.031655297
-5.1505437	1969	-0.031655297
-4.570131	prací	-0.031655297
-4.570131	zaměřených	-0.1766703
-5.1505437	optiku.	-0.031655297
-5.1505437	snímač,	-0.031655297
-5.1505437	zpočátku	-0.031655297
-5.1505437	neplánoval,	-0.031655297
-3.4757826	nyní	-0.031655297
-4.3614607	slouží	-0.1227706
-5.1505437	"oko"	-0.031655297
-5.1505437	digitálních	-0.031655297
-5.1505437	fotoaparátů	-0.031655297
-5.1505437	vynesl	-0.031655297
-3.1223466	mu	-0.04024226
-5.1505437	Nobelovu	-0.031655297
-3.8524551	cenu	-0.07482778
-5.1505437	fyziku	-0.031655297
-5.1505437	2009.	-0.031655297
-5.1505437	Samozřejmě	-0.031655297
-4.120202	činnosti	-0.031655297
-3.39903	kolem	-0.049634993
-5.1505437	LHC	-0.031655297
-3.9660137	nutně	-0.031655297
-3.3045623	musí	-0.13860793
-4.120202	změnit	-0.031655297
-4.570131	život,	-0.031655297
-3.5199285	znamená	-0.07482778
-4.570131	ale,	-0.1766703
-4.3614607	člověk	-0.031655297
-3.6245012	opravdu	-0.031655297
-5.1505437	neví...	-0.031655297
-5.1505437	Paliativní	-0.031655297
-3.9660137	péče	-0.031655297
-4.570131	Nejlepší	-0.031655297
-4.120202	způsob,	-0.82848775
-5.1505437	odejít	-0.031655297
-5.1505437	života...	-0.031655297
-5.1505437	|	-0.031655297
-4.570131	Le	-0.1766703
-5.1505437	Devoir	-0.031655297
-5.1505437	Prostřednictvím	-0.031655297
-5.1505437	Komise	-0.031655297
-5.1505437	důstojné	-0.031655297
-5.1505437	umírání	-0.031655297
-5.1505437	Quebek	-0.031655297
-4.120202	nedávno	-0.031655297
-5.1505437	zapojil	-0.031655297
-5.1505437	choulostivé	-0.031655297
-3.8524551	otázky	-0.031655297
-3.8524551	týkající	-1.0045791
-3.7625191	konce	-0.031655297
-3.8524551	života.	-1.0045791
-5.1505437	Debata	-0.031655297
-3.5199285	měla	-0.05467054
-5.1505437	zanedlouho	-0.031655297
-4.120202	pokračovat	-0.031655297
-4.120202	současně	-0.0840023
-5.1505437	chystá	-0.031655297
-4.120202	návrh	-0.031655297
-4.570131	zákona.	-0.1766703
-3.1041317	této	-0.04519255
-3.9660137	zásadní	-0.031655297
-3.8524551	oblasti	-0.04734641
-5.1505437	zbývá	-0.031655297
-5.1505437	vykonat	-0.031655297
-4.120202	spoustu	-0.031655297
-4.570131	práce.	-0.1766703
-5.1505437	Časopis	-0.031655297
-4.570131	pokusil	-0.031655297
-4.570131	podívat	-0.031655297
-3.435713	tuto	-0.031655297
-5.1505437	otázku	-0.031655297
-5.1505437	podrobněji.	-0.031655297
-5.1505437	necelými	-0.031655297
-3.9660137	pár	-0.031655297
-3.9660137	týdny	-0.031655297
-5.1505437	bydlel	-0.031655297
-4.120202	pan	-0.031655297
-5.1505437	L.	-0.031655297
-3.8524551	svém	-0.031655297
-5.1505437	bytě	-0.031655297
-5.1505437	Montérégie.	-0.031655297
-5.1505437	Rakovina	-0.031655297
-5.1505437	stravovala,	-0.031655297
-5.1505437	poskytla	-0.031655297
-5.1505437	dvouletý	-0.031655297
-5.1505437	odklad.	-0.031655297
-4.570131	"Je	-0.031655297
-3.9660137	pořád	-0.031655297
-5.1505437	šok,	-0.031655297
-4.3614607	tohle	-0.031655297
-5.1505437	nemůžete	-0.031655297
-5.1505437	připravit,"	-0.031655297
-4.120202	dodává.	-0.82848775
-5.1505437	Nemoc	-0.031655297
-5.1505437	vykonala	-0.031655297
-5.1505437	dílo:	-0.031655297
-5.1505437	nesmírná	-0.031655297
-5.1505437	slabost	-0.031655297
-5.1505437	znemožňuje	-0.031655297
-5.1505437	odebrat	-0.031655297
-5.1505437	toaletu	-0.031655297
-4.570131	najíst.	-0.1766703
-5.1505437	Rezignovaně	-0.031655297
-5.1505437	dívá	-0.031655297
-5.1505437	chutně	-0.031655297
-5.1505437	vyhlížející	-0.031655297
-5.1505437	snídani	-0.031655297
-5.1505437	souhlasí	-0.031655297
-5.1505437	pomůžeme	-0.031655297
-5.1505437	odvážný	-0.031655297
-5.1505437	usměje,	-0.031655297
-5.1505437	neznámými,	-0.031655297
-3.9660137	něj	-0.031655297
-5.1505437	zastavují,	-0.031655297
-5.1505437	přináší	-0.031655297
-5.1505437	léky,	-0.031655297
-4.3614607	nabízejí	-0.031655297
-5.1505437	koupel.	-0.031655297
-5.1505437	Odvaha	-0.031655297
-5.1505437	obyčejnou	-0.031655297
-5.1505437	smrt.	-0.031655297
-5.1505437	"Mé	-0.031655297
-3.9660137	největší	-0.031655297
-5.1505437	přání	-0.031655297
-5.1505437	zbavit	-0.031655297
-5.1505437	průjmu,	-0.031655297
-3.7625191	ten	-0.031655297
-3.4757826	mě	-0.049634993
-5.1505437	ponižuje,"	-0.031655297
-4.570131	svěřuje	-0.031655297
-4.3614607	se.	-0.703549
-5.1505437	O	-0.031655297
-4.120202	hodin	-0.031655297
-3.7625191	později	-0.031655297
-4.570131	našel	-0.031655297
-3.8524551	tým	-0.07482778
-4.570131	lékařů	-0.031655297
-3.6880503	problém	-0.031655297
-5.1505437	lék.	-0.031655297
-5.1505437	"V	-0.031655297
-4.120202	celém	-0.031655297
-4.3614607	životě	-0.031655297
-5.1505437	učí,	-0.031655297
-5.1505437	chlapi	-0.031655297
-5.1505437	močí	-0.031655297
-5.1505437	vestoje,"	-0.031655297
-3.5199285	vypráví	-0.13660468
-4.120202	Pierre	-0.4192429
-5.1505437	Brodeur,	-0.031655297
-5.1505437	psycholog	-0.031655297
-4.570131	zařízení	-0.031655297
-5.1505437	Victor-Gadbois.	-0.031655297
-5.1505437	Vrátit	-0.031655297
-4.570131	fáze	-0.031655297
-4.3614607	dítěte	-0.031655297
-3.7625191	některé	-0.06839128
-3.6245012	lidi	-0.031655297
-5.1505437	nepřijatelným	-0.031655297
-5.1505437	ponížením.	-0.031655297
-5.1505437	"Závisí	-0.031655297
-5.1505437	schopnostech	-0.031655297
-3.7625191	kterého	-0.059954986
-5.1505437	člověka",	-0.031655297
-4.570131	návrat	-0.031655297
-5.1505437	přijme,	-0.031655297
-4.3614607	tvrdí	-0.031655297
-5.1505437	psycholog.	-0.031655297
-5.1505437	Podle	-0.031655297
-4.3614607	názoru	-0.031655297
-4.570131	řady	-0.031655297
-5.1505437	zabývají	-0.031655297
-3.6245012	paliativní	-0.24840683
-5.1505437	péčí,	-0.031655297
-5.1505437	okamžiky	-0.031655297
-5.1505437	odehrávají	-0.031655297
-5.1505437	jádru	-0.031655297
-4.120202	takového	-0.031655297
-5.1505437	návratu.	-0.031655297
-5.1505437	Pacienti,	-0.031655297
-5.1505437	nastupují	-0.031655297
-5.1505437	domova	-0.031655297
-5.1505437	péčí	-0.031655297
-5.1505437	Victor-Gadbois,	-0.031655297
-4.3614607	trpí	-0.031655297
-5.1505437	Jejich	-0.031655297
-5.1505437	prognóza	-0.031655297
-5.1505437	maximálně	-0.031655297
-3.39903	tři	-0.04734641
-4.570131	měsíce	-0.031655297
-5.1505437	stadiu	-0.031655297
-5.1505437	sester,	-0.031655297
-5.1505437	starají,	-0.031655297
-5.1505437	neposkytuje	-0.031655297
-5.1505437	takzvaně	-0.031655297
-5.1505437	"léčebnou"	-0.031655297
-5.1505437	péči.	-0.031655297
-5.1505437	A.,	-0.031655297
-5.1505437	89	-0.031655297
-4.3614607	nejhorší	-0.031655297
-5.1505437	obavou	-0.031655297
-5.1505437	umřít	-0.031655297
-4.570131	"na	-0.031655297
-5.1505437	udušení	-0.031655297
-5.1505437	plném	-0.031655297
-5.1505437	vědomí".	-0.031655297
-3.1041317	mi	-0.04734641
-5.1505437	umožnila	-0.031655297
-4.3614607	objevit	-0.031655297
-3.9660137	děti.	-0.92539775
-4.570131	"Mám	-0.031655297
-5.1505437	hodné	-0.031655297
-5.1505437	děti,"	-0.031655297
-3.0084584	už	-0.046862457
-3.8524551	nemám	-0.06839128
-3.7625191	žádná	-0.031655297
-5.1505437	přání,"	-0.031655297
-3.39903	říká,	-0.39453486
-5.1505437	svolí,	-0.031655297
-3.9660137	jí	-0.031655297
-4.570131	nasadili	-0.031655297
-5.1505437	dýchací	-0.031655297
-5.1505437	přístroj.	-0.031655297
-5.1505437	těší	-0.031655297
-5.1505437	následujících	-0.031655297
-5.1505437	dnech	-0.031655297
-4.3614607	návštěvu	-0.031655297
-5.1505437	syna	-0.031655297
-5.1505437	Itálie.	-0.031655297
-5.1505437	domově	-0.031655297
-4.3614607	Victor-Gadbois	-0.031655297
-5.1505437	dobrovolníků	-0.031655297
-4.120202	poskytuje	-0.031655297
-4.570131	tělo	-0.031655297
-3.6245012	pomocí	-0.031655297
-5.1505437	výživy.	-0.031655297
-5.1505437	Tak	-0.031655297
-4.570131	vypadá	-0.031655297
-5.1505437	péče,	-0.031655297
-5.1505437	nastupuje,	-0.031655297
-3.8524551	dělat	-0.07482778
-5.1505437	jiného.	-0.031655297
-5.1505437	Aby	-0.031655297
-4.570131	smrt	-0.031655297
-5.1505437	pohodlnější.	-0.031655297
-5.1505437	Québeku	-0.031655297
-4.3614607	připadá	-0.031655297
-4.570131	jedno	-0.031655297
-5.1505437	lůžko	-0.031655297
-4.3614607	11	-0.031655297
-4.570131	700	-0.031655297
-4.3614607	málo,	-0.09813799
-5.1505437	uvědomíme,	-0.031655297
-3.8524551	jednou	-0.031655297
-5.1505437	umřeme.	-0.031655297
-5.1505437	Zde	-0.031655297
-5.1505437	pokračuje	-0.031655297
-5.1505437	optimálních	-0.031655297
-5.1505437	podmínkách,	-0.031655297
-3.7625191	vysvětluje	-0.031655297
-5.1505437	Dr.	-0.031655297
-4.570131	Christiane	-0.031655297
-5.1505437	Martelová,	-0.031655297
-3.6245012	jedna	-0.20957895
-5.1505437	lékařek	-0.031655297
-5.1505437	domově.	-0.031655297
-5.1505437	Ať	-0.031655297
-4.120202	úroveň	-0.09813799
-5.1505437	fyzického,	-0.031655297
-5.1505437	emočního	-0.031655297
-5.1505437	duchovního	-0.031655297
-5.1505437	pohodlí.	-0.031655297
-5.1505437	umírá,	-0.031655297
-3.4757826	lze	-0.052705295
-4.3614607	poskytnout	-0.031655297
-5.1505437	doušek	-0.031655297
-5.1505437	brandy	-0.031655297
-5.1505437	pepsi,	-0.031655297
-5.1505437	chuti.	-0.031655297
-5.1505437	Diabetici	-0.031655297
-4.570131	nemusí	-0.031655297
-5.1505437	hlídat	-0.031655297
-5.1505437	hladinu	-0.031655297
-5.1505437	cukru.	-0.031655297
-3.2771463	zde	-0.042052817
-3.9660137	součástí	-0.031655297
-5.1505437	každodenního	-0.031655297
-5.1505437	Včera	-0.031655297
-3.9660137	večer	-0.031655297
-5.1505437	nesli	-0.031655297
-4.3614607	pivo	-0.031655297
-5.1505437	panu	-0.031655297
-5.1505437	X.,	-0.031655297
-5.1505437	noci	-0.031655297
-4.3614607	zemřel.	-0.703549
-4.120202	ráno	-0.031655297
-5.1505437	dopije	-0.031655297
-4.3614607	syn	-0.031655297
-5.1505437	počest	-0.031655297
-5.1505437	zesnulého	-0.031655297
-5.1505437	otce.	-0.031655297
-5.1505437	"Pomáháme	-0.031655297
-5.1505437	pacientům	-0.031655297
-5.1505437	blízkým,"	-0.031655297
-4.570131	Nathalie	-0.031655297
-5.1505437	Savardová,	-0.031655297
-4.570131	ředitelka	-0.031655297
-5.1505437	pečovatelské	-0.031655297
-5.1505437	služby.	-0.031655297
-4.570131	jdou	-0.031655297
-4.570131	dny	-0.031655297
-3.39903	jeden	-0.25791124
-5.1505437	druhým,	-0.031655297
-5.1505437	nepodobají	-0.031655297
-5.1505437	navzájem.	-0.031655297
-5.1505437	"Už	-0.031655297
-4.120202	půl	-0.031655297
-3.435713	vždy	-0.031655297
-5.1505437	lůžek,	-0.031655297
-4.570131	určena	-0.031655297
-4.3614607	osoby	-0.031655297
-4.3614607	45	-0.031655297
-5.1505437	let,"	-0.031655297
-5.1505437	obavami	-0.031655297
-5.1505437	doktorka	-0.031655297
-5.1505437	Martelová.	-0.031655297
-5.1505437	53%	-0.031655297
-4.570131	pacientů,	-0.1766703
-4.570131	přicházejí,	-0.031655297
-3.8524551	sem	-0.031655297
-5.1505437	přijíždí	-0.031655297
-5.1505437	domovů,	-0.031655297
-5.1505437	47%	-0.031655297
-5.1505437	nemocnic.	-0.031655297
-5.1505437	Problémy	-0.031655297
-5.1505437	přístupem	-0.031655297
-4.570131	péči	-0.031655297
-5.1505437	organizací,	-0.031655297
-5.1505437	domov	-0.031655297
-4.570131	Společnost	-0.031655297
-4.570131	domácí	-0.031655297
-5.1505437	léčbu	-0.031655297
-4.570131	Grand	-0.031655297
-5.1505437	Montréal,	-0.031655297
-5.1505437	specializují	-0.031655297
-4.3614607	výhradně	-0.031655297
-5.1505437	poskytovanou	-0.031655297
-5.1505437	onkologickým	-0.031655297
-4.570131	pacientům.	-0.1766703
-3.7625191	právě	-0.031655297
-5.1505437	nedostupnost	-0.031655297
-5.1505437	zdravotnické	-0.031655297
-3.8524551	vede	-0.38843334
-3.8524551	tomu,	-0.47039542
-5.1505437	specializujících	-0.031655297
-5.1505437	obává	-0.031655297
-4.3614607	přijetí	-0.031655297
-5.1505437	eutanazii	-0.031655297
-5.1505437	asistované	-0.031655297
-5.1505437	sebevraždě.	-0.031655297
-4.570131	Jak	-0.031655297
-5.1505437	zažila	-0.031655297
-5.1505437	pacientku,	-0.031655297
-5.1505437	strávila	-0.031655297
-3.8524551	14	-0.031655297
-4.570131	dní	-0.031655297
-5.1505437	pohotovosti	-0.031655297
-4.570131	obrovských	-0.031655297
-5.1505437	bolestech,	-0.031655297
-4.3614607	aniž	-0.703549
-5.1505437	kdokoli	-0.031655297
-4.570131	udělal	-0.031655297
-5.1505437	nezbytné	-0.031655297
-5.1505437	kroky,	-0.031655297
-5.1505437	ulevilo.	-0.031655297
-5.1505437	Obává	-0.031655297
-4.570131	pacienti	-0.031655297
-5.1505437	nežádali	-0.031655297
-5.1505437	usmrcení	-0.031655297
-5.1505437	důvodu,	-0.031655297
-4.570131	nedostává	-0.031655297
-4.570131	péče.	-0.1766703
-5.1505437	onkologů	-0.031655297
-5.1505437	pečuje	-0.031655297
-5.1505437	pacienty	-0.031655297
-5.1505437	chvil	-0.031655297
-3.023011	bez	-0.10648329
-5.1505437	ohledu	-0.031655297
-5.1505437	nepříznivou	-0.031655297
-5.1505437	prognózu.	-0.031655297
-5.1505437	Naděje	-0.031655297
-5.1505437	přežití	-0.031655297
-5.1505437	Hélène	-0.031655297
-5.1505437	Richardové	-0.031655297
-4.570131	minimální,	-0.031655297
-5.1505437	opustila	-0.031655297
-5.1505437	náročnou	-0.031655297
-5.1505437	chemoterapii.	-0.031655297
-2.5346527	jsem	-0.21762973
-5.1505437	onkoložce	-0.031655297
-5.1505437	sdělila,	-0.031655297
-5.1505437	končím	-0.031655297
-5.1505437	léčbou,	-0.031655297
-5.1505437	odpověděla,	-0.031655297
-5.1505437	lituje	-0.031655297
-3.5199285	toho,	-0.5953342
-5.1505437	přestávám	-0.031655297
-5.1505437	bojovat,	-0.031655297
-5.1505437	nám.	-0.031655297
-3.8524551	přitom	-0.031655297
-5.1505437	říkala,	-0.031655297
-5.1505437	konec!	-0.031655297
-5.1505437	Neexistuje	-0.031655297
-4.570131	všemocná	-0.031655297
-4.570131	rozhodně	-0.031655297
-4.3614607	léčbě	-0.031655297
-5.1505437	bolesti.	-0.031655297
-5.1505437	Elsie	-0.031655297
-5.1505437	Monereauové,	-0.031655297
-5.1505437	ředitelky	-0.031655297
-5.1505437	Společnosti	-0.031655297
-4.570131	brání	-0.031655297
-4.120202	bolesti	-0.09813799
-4.570131	8%	-0.031655297
-4.570131	případů.	-0.1766703
-5.1505437	Nelze	-0.031655297
-5.1505437	tvářit,	-0.031655297
-4.570131	součást	-0.031655297
-5.1505437	utrpení	-0.031655297
-5.1505437	nevnímáme.	-0.031655297
-5.1505437	Pacient,	-0.031655297
-5.1505437	nezbavíme	-0.031655297
-5.1505437	bolesti,	-0.031655297
-2.9068403	bude	-0.041838076
-3.39903	stále	-0.049634993
-3.7625191	možnost	-0.031655297
-4.120202	přístupu	-0.4192429
-5.1505437	paliativním	-0.031655297
-5.1505437	sedativům.	-0.031655297
-5.1505437	Nemocní,	-0.031655297
-3.5690749	kterým	-0.16612948
-4.570131	poskytnuto	-0.031655297
-5.1505437	sedativum,	-0.031655297
-4.570131	říkají	-0.031655297
-5.1505437	totéž:	-0.031655297
-5.1505437	"Chci	-0.031655297
-5.1505437	umřít".	-0.031655297
-4.570131	znamenat	-0.031655297
-4.570131	"chci,	-0.1766703
-3.9660137	abyste	-0.031655297
-5.1505437	poskytli	-0.031655297
-5.1505437	eutanazii",	-0.031655297
-5.1505437	zbavili	-0.031655297
-5.1505437	bolesti".	-0.031655297
-5.1505437	Realizaci	-0.031655297
-5.1505437	reportáže	-0.031655297
-5.1505437	umožnil	-0.031655297
-5.1505437	grant	-0.031655297
-4.3614607	novináře	-0.031655297
-4.570131	kanadského	-0.031655297
-4.3614607	Ústavu	-0.031655297
-5.1505437	zdravotnictví.	-0.031655297
-5.1505437	Rozsáhlé	-0.031655297
-5.1505437	realitní	-0.031655297
-5.1505437	skandály	-0.031655297
-5.1505437	"obor"	-0.031655297
-4.3614607	přišel	-0.031655297
-5.1505437	quebecké	-0.031655297
-5.1505437	daňové	-0.031655297
-5.1505437	poplatníky	-0.031655297
-5.1505437	draho	-0.031655297
-3.3045623	zejména	-0.09660476
-4.3614607	lety	-0.031655297
-4.570131	1990	-0.031655297
-5.1505437	2000.	-0.031655297
-5.1505437	zajímavé,	-0.031655297
-3.6245012	systém	-0.031655297
-5.1505437	rozdrolil	-0.031655297
-4.3614607	doby,	-0.031655297
-5.1505437	opatření,"	-0.031655297
-2.9068403	říká	-0.06305186
-5.1505437	ironicky	-0.031655297
-5.1505437	Jacques	-0.031655297
-5.1505437	Duchesneau,	-0.031655297
-5.1505437	quebecký	-0.031655297
-4.3614607	poslanec	-0.031655297
-4.3614607	bývalý	-0.09813799
-5.1505437	šéf	-0.031655297
-4.3614607	policie	-0.031655297
-5.1505437	Montrealu.	-0.031655297
-5.1505437	"Duchesneauova	-0.031655297
-5.1505437	zpráva"	-0.031655297
-5.1505437	potvrdila	-0.031655297
-5.1505437	přímé	-0.031655297
-4.120202	spojení	-0.1766703
-5.1505437	průmyslem,	-0.031655297
-5.1505437	neprůhledným	-0.031655297
-5.1505437	financováním	-0.031655297
-4.3614607	stran	-0.031655297
-4.570131	korupcí	-0.031655297
-4.570131	státních	-0.031655297
-5.1505437	úředníků.	-0.031655297
-5.1505437	"Již	-0.031655297
-3.9660137	začátku	-0.06839128
-5.1505437	vyšetřování	-0.031655297
-5.1505437	2010,"	-0.031655297
-5.1505437	"ušetřilo	-0.031655297
-4.3614607	ministerstvo	-0.031655297
-4.570131	dopravy	-0.031655297
-4.570131	zakázkách	-0.031655297
-5.1505437	miliardu	-0.031655297
-4.570131	dolarů,"	-0.031655297
-4.120202	někteří	-0.031655297
-3.1041317	lidé	-0.07476164
-5.1505437	udrželi	-0.031655297
-5.1505437	uzdě	-0.031655297
-5.1505437	instinkty	-0.031655297
-3.6245012	získat	-0.031655297
-5.1505437	podíl!	-0.031655297
-5.1505437	Charbonneauova	-0.031655297
-4.3614607	komise	-0.031655297
-5.1505437	"již	-0.031655297
-5.1505437	přivedla	-0.031655297
-5.1505437	demisi	-0.031655297
-5.1505437	starosty,"	-0.031655297
-5.1505437	nadějí,	-0.031655297
-3.9660137	podaří	-0.031655297
-5.1505437	"rozkrýt	-0.031655297
-5.1505437	lstivost	-0.031655297
-3.7625191	některých	-0.031655297
-4.570131	lidí".	-0.1766703
-5.1505437	Stálá	-0.031655297
-5.1505437	jednotka	-0.031655297
-5.1505437	založená	-0.031655297
-4.570131	zapojuje	-0.031655297
-5.1505437	armádou	-0.031655297
-5.1505437	vládních	-0.031655297
-5.1505437	kontrolorů,	-0.031655297
-5.1505437	vyšetřovatelů	-0.031655297
-5.1505437	analytiků.	-0.031655297
-5.1505437	K	-0.031655297
-5.1505437	policisté	-0.031655297
-5.1505437	"Marteauovy	-0.031655297
-5.1505437	družiny",	-0.031655297
-5.1505437	zajistili,	-0.031655297
-5.1505437	montrealský	-0.031655297
-5.1505437	"kartel	-0.031655297
-5.1505437	penězovodů"	-0.031655297
-4.3614607	výrazně	-0.031655297
-5.1505437	zmírnil	-0.031655297
-4.570131	nafukování	-0.031655297
-5.1505437	zakázek...	-0.031655297
-5.1505437	Dalším	-0.031655297
-4.570131	seznamu	-0.031655297
-2.9807396	být	-0.03592754
-5.1505437	Gilles	-0.031655297
-5.1505437	Vaillancourt,	-0.031655297
-5.1505437	odstoupil	-0.031655297
-4.570131	funkce	-0.031655297
-5.1505437	starosty	-0.031655297
-5.1505437	obce	-0.031655297
-5.1505437	Laval,	-0.031655297
-5.1505437	třetího	-0.031655297
-5.1505437	největšího	-0.031655297
-5.1505437	quebeckého	-0.031655297
-4.570131	města.	-0.031655297
-4.570131	podezřelý	-0.1766703
-5.1505437	opakovaně	-0.031655297
-5.1505437	přijímal	-0.031655297
-5.1505437	úplatky	-0.031655297
-4.570131	výměnou	-0.1766703
-3.8524551	veřejné	-0.031655297
-5.1505437	zakázky.	-0.031655297
-5.1505437	Formální	-0.031655297
-4.3614607	obvinění	-0.031655297
-5.1505437	obdrželi	-0.031655297
-4.570131	dopravní	-0.031655297
-5.1505437	inženýři	-0.031655297
-4.3614607	Montrealu	-0.031655297
-5.1505437	podnikatelé	-0.031655297
-5.1505437	italského	-0.031655297
-5.1505437	původu,	-0.031655297
-4.570131	Tony	-0.031655297
-5.1505437	Accurso	-0.031655297
-4.570131	Lino	-0.031655297
-5.1505437	Zambito.	-0.031655297
-4.570131	Zambito	-0.031655297
-4.3614607	vyvolal	-0.031655297
-5.1505437	senzaci	-0.031655297
-4.3614607	komisi	-0.031655297
-5.1505437	vysvětloval	-0.031655297
-5.1505437	mechanismus	-0.031655297
-5.1505437	"systému"	-0.031655297
-5.1505437	získávání	-0.031655297
-3.8524551	veřejných	-0.031655297
-5.1505437	zakázek.	-0.031655297
-2.7474747	byl	-0.08202372
-4.570131	2000	-0.031655297
-5.1505437	štědrý	-0.031655297
-4.3614607	věnoval	-0.031655297
-4.570131	88	-0.031655297
-3.435713	000	-0.05104938
-5.1505437	kanadských	-0.031655297
-3.6245012	dolarů	-0.28048414
-4.570131	(přibližně	-0.031655297
-5.1505437	68	-0.031655297
-5.1505437	euro)	-0.031655297
-5.1505437	provinčním	-0.031655297
-5.1505437	stranám,	-0.031655297
-4.570131	liberálům,	-0.031655297
-3.5690749	byli	-0.031655297
-4.3614607	tehdy	-0.031655297
-4.3614607	moci.	-0.703549
-5.1505437	Přiznal	-0.031655297
-5.1505437	organizoval	-0.031655297
-4.120202	nelegální	-0.031655297
-5.1505437	shánění	-0.031655297
-5.1505437	financí	-0.031655297
-5.1505437	bývalou	-0.031655297
-5.1505437	liberální	-0.031655297
-5.1505437	vicepremiérku	-0.031655297
-5.1505437	Normandeauovou.	-0.031655297
-5.1505437	Zakázky	-0.031655297
-5.1505437	penězovody,	-0.031655297
-4.3614607	jejichž	-0.031655297
-4.3614607	ceny	-0.031655297
-5.1505437	nadsazoval	-0.031655297
-5.1505437	fungoval	-0.031655297
-5.1505437	"systém"	-0.031655297
-5.1505437	korupce	-0.031655297
-5.1505437	čile.	-0.031655297
-5.1505437	Ostatní	-0.031655297
-5.1505437	veřejní	-0.031655297
-5.1505437	činitelé	-0.031655297
-5.1505437	sféry	-0.031655297
-5.1505437	přiznali,	-0.031655297
-4.3614607	nechali	-0.031655297
-5.1505437	vyplácet	-0.031655297
-5.1505437	odměny	-0.031655297
-5.1505437	nadhodnocovali	-0.031655297
-5.1505437	faktury	-0.031655297
-4.3614607	prostřednictvím	-0.031655297
-5.1505437	nepravdivých	-0.031655297
-5.1505437	víceprací.	-0.031655297
-4.570131	základě	-0.031655297
-3.3338263	těchto	-0.031655323
-5.1505437	odhalení	-0.031655297
-5.1505437	Tremblay	-0.031655297
-4.570131	začátkem	-0.031655297
-5.1505437	odstoupil,	-0.031655297
-4.120202	čímž	-0.031655297
-5.1505437	uvrhl	-0.031655297
-5.1505437	Montréal	-0.031655297
-5.1505437	rozsáhlé	-0.031655297
-5.1505437	krize.	-0.031655297
-5.1505437	Chantal	-0.031655297
-5.1505437	Rouleau	-0.031655297
-5.1505437	prvními	-0.031655297
-5.1505437	montrealskými	-0.031655297
-5.1505437	poslanci,	-0.031655297
-4.570131	vydali	-0.031655297
-5.1505437	varovný	-0.031655297
-5.1505437	signál.	-0.031655297
-5.1505437	70%	-0.031655297
-4.570131	špinavých	-0.1766703
-3.8524551	peněz	-0.21036665
-5.1505437	kampaních	-0.031655297
-5.1505437	Proces	-0.031655297
-3.6880503	ní	-0.031655297
-5.1505437	"bolestný,	-0.031655297
-5.1505437	kladný".	-0.031655297
-5.1505437	Jsme	-0.031655297
-4.570131	fázi	-0.031655297
-5.1505437	čištění	-0.031655297
-5.1505437	rány,	-0.031655297
-5.1505437	zřídit	-0.031655297
-5.1505437	Montréalu	-0.031655297
-3.435713	vlastní	-0.049634993
-5.1505437	vyšetřovací	-0.031655297
-5.1505437	jednotku	-0.031655297
-5.1505437	zajistit	-0.031655297
-5.1505437	dohled,	-0.031655297
-5.1505437	pochybné	-0.031655297
-5.1505437	praktiky	-0.031655297
-5.1505437	nemohly	-0.031655297
-4.570131	vrátit	-0.031655297
-4.570131	zpět.	-0.1766703
-5.1505437	Jako	-0.031655297
-5.1505437	uklízí.	-0.031655297
-5.1505437	Pravidelně.	-0.031655297
-4.3614607	příběh	-0.031655297
-5.1505437	očernil	-0.031655297
-5.1505437	obraz	-0.031655297
-5.1505437	zahraničí,	-0.031655297
-5.1505437	Duchesneau	-0.031655297
-4.3614607	všem,	-0.031655297
-5.1505437	vysmívají,	-0.031655297
-5.1505437	podívali	-0.031655297
-5.1505437	dvorek...	-0.031655297
-5.1505437	"PSG	-0.031655297
-4.570131	FC	-0.031655297
-5.1505437	Barcelona!"	-0.031655297
-4.3614607	sezóně	-0.031655297
-3.3045623	jste	-0.13227157
-3.8524551	PSG	-0.031655297
-5.1505437	tempo.	-0.031655297
-4.120202	vývoj	-0.031655297
-5.1505437	vysvětlujete?	-0.031655297
-5.1505437	Lze	-0.031655297
-5.1505437	vysvětlit	-0.031655297
-5.1505437	jednotlivci	-0.031655297
-4.3614607	šli	-0.031655297
-5.1505437	sebe,	-0.031655297
-3.9660137	naprosto	-0.031655297
-3.7625191	novým	-0.031655297
-5.1505437	rozměrem	-0.031655297
-5.1505437	PSG.	-0.031655297
-5.1505437	Přišli	-0.031655297
-5.1505437	velcí	-0.031655297
-4.570131	hráči.	-0.1766703
-5.1505437	Každý	-0.031655297
-4.120202	vedle	-0.031655297
-5.1505437	dostávám	-0.031655297
-4.570131	dále.	-0.1766703
-5.1505437	Technický	-0.031655297
-4.3614607	taky	-0.031655297
-3.4757826	hodně	-0.031655297
-5.1505437	pomohl.	-0.031655297
-4.570131	zvyšovat	-0.031655297
-5.1505437	hry.	-0.031655297
-5.1505437	fotbale	-0.031655297
-3.6245012	všechno	-0.031655297
-4.570131	hrozně	-0.031655297
-5.1505437	rychle.	-0.031655297
-5.1505437	Neztrácím	-0.031655297
-5.1505437	hlavu.	-0.031655297
-4.570131	Už	-0.031655297
-4.3614607	mých	-0.031655297
-4.570131	začátků	-0.1766703
-5.1505437	přípravce	-0.031655297
-5.1505437	INF	-0.031655297
-5.1505437	Clairefontaine	-0.031655297
-5.1505437	přestup	-0.031655297
-5.1505437	Saint-Etienne	-0.031655297
-5.1505437	posouval	-0.031655297
-4.570131	stupně.	-0.1766703
-5.1505437	Využíváte	-0.031655297
-5.1505437	konkurenčního	-0.031655297
-4.570131	prostředí,	-0.031655297
-5.1505437	zavedl	-0.031655297
-4.570131	Carlo	-0.031655297
-5.1505437	Ancelotti...	-0.031655297
-5.1505437	Posily	-0.031655297
-4.3614607	léta	-0.031655297
-5.1505437	zvyklé	-0.031655297
-3.6245012	hrát	-0.0840023
-5.1505437	zápasy	-0.031655297
-5.1505437	úrovni.	-0.031655297
-5.1505437	Vědí	-0.031655297
-4.570131	také,	-0.031655297
-3.6245012	každý	-0.052705295
-5.1505437	trénink	-0.031655297
-5.1505437	zásadní.	-0.031655297
-4.570131	hráč	-0.031655297
-3.8524551	já	-0.031655297
-5.1505437	chuť	-0.031655297
-5.1505437	utkání	-0.031655297
-3.7625191	chce	-0.031655297
-4.570131	podat	-0.031655297
-4.3614607	maximální	-0.031655297
-4.570131	výkon.	-0.1766703
-4.3614607	Ancelotti	-0.031655297
-4.120202	dává	-0.031655297
-5.1505437	mým	-0.031655297
-5.1505437	postavením.	-0.031655297
-5.1505437	ruce	-0.031655297
-5.1505437	asistenty,	-0.031655297
-5.1505437	Claude	-0.031655297
-5.1505437	Makelele,	-0.031655297
-5.1505437	hrával	-0.031655297
-5.1505437	postu	-0.031655297
-5.1505437	já.	-0.031655297
-5.1505437	rozhodující	-0.031655297
-4.3614607	slovo	-0.09813799
-5.1505437	pravou	-0.031655297
-5.1505437	chvíli?	-0.031655297
-5.1505437	Samozřejmě.	-0.031655297
-5.1505437	respekt	-0.031655297
-5.1505437	techniků.	-0.031655297
-3.9660137	1.	-0.14353485
-5.1505437	lize	-0.031655297
-4.120202	sobě	-0.031655297
-5.1505437	rovného	-0.031655297
-3.5690749	patří	-0.18218459
-3.7625191	nejlepší	-0.031655297
-4.3614607	evropské	-0.031655297
-5.1505437	trenéry.	-0.031655297
-5.1505437	Má	-0.031655297
-4.120202	zkušenosti	-0.031655297
-5.1505437	špičkovými	-0.031655297
-4.570131	týmy	-0.031655297
-3.9660137	získal	-0.031655297
-5.1505437	titulů.	-0.031655297
-5.1505437	Pracoval	-0.031655297
-5.1505437	vynikajícími	-0.031655297
-4.570131	vyhraje	-0.031655297
-5.1505437	Paříži	-0.031655297
-3.8524551	další	-0.031655297
-5.1505437	tituly.	-0.031655297
-5.1505437	Měl	-0.031655297
-4.3614607	sebou	-0.031655297
-3.9660137	řadu	-0.031655297
-5.1505437	zranění.	-0.031655297
-5.1505437	Důvěra,	-0.031655297
-3.1820796	kterou	-0.08818485
-5.1505437	poskytuje,	-0.031655297
-5.1505437	důvodem	-0.031655297
-3.9660137	mé	-0.031655297
-5.1505437	výkonnosti.	-0.031655297
-5.1505437	díváte	-0.031655297
-3.141359	první	-0.05104938
-3.6880503	část	-0.031655297
-4.570131	sezóny	-0.031655297
-5.1505437	PSG?	-0.031655297
-4.3614607	Lyon	-0.031655297
-5.1505437	sebral	-0.031655297
-5.1505437	čelní	-0.031655297
-4.3614607	pozici.	-0.703549
-5.1505437	Zůstáváme	-0.031655297
-5.1505437	závěsu.	-0.031655297
-5.1505437	Jedním	-0.031655297
-4.3614607	našich	-0.031655297
-4.3614607	hlavních	-0.031655297
-5.1505437	cílů	-0.031655297
-5.1505437	Liga	-0.031655297
-5.1505437	mistrů:	-0.031655297
-3.9660137	snadno	-0.031655297
-5.1505437	postoupili	-0.031655297
-5.1505437	osmifinále.	-0.031655297
-5.1505437	Jaký	-0.031655297
-4.570131	klub	-0.031655297
-5.1505437	soutěži	-0.031655297
-5.1505437	cíl?	-0.031655297
-5.1505437	Pokusíme	-0.031655297
-3.9660137	jít	-0.0840023
-5.1505437	nejdále.	-0.031655297
-5.1505437	Teď	-0.031655297
-5.1505437	cokoli.	-0.031655297
-5.1505437	Může	-0.031655297
-4.570131	krátkodobém	-0.031655297
-4.570131	horizontu	-0.031655297
-3.8524551	velkým	-0.1227706
-5.1505437	evropským	-0.031655297
-5.1505437	klubem?	-0.031655297
-5.1505437	Rozpočet	-0.031655297
-5.1505437	má...	-0.031655297
-5.1505437	Paříž	-0.031655297
-4.3614607	stala	-0.031655297
-5.1505437	klubem,	-0.031655297
-4.570131	vyhrát	-0.031655297
-4.570131	tituly	-0.1766703
-5.1505437	zapsat	-0.031655297
-4.570131	historie.	-0.1766703
-4.3614607	není.	-0.1227706
-3.7625191	finanční	-0.031655297
-4.570131	stránce	-0.031655297
-4.570131	prostředky,	-0.1766703
-4.570131	tenhle	-0.031655297
-5.1505437	záměr	-0.031655297
-5.1505437	povedlo	-0.031655297
-5.1505437	uskutečnit.	-0.031655297
-5.1505437	Samozřejmě,	-0.031655297
-3.6245012	velké	-0.031655297
-4.570131	zklamání.	-0.1766703
-5.1505437	Letos	-0.031655297
-3.9660137	chceme	-0.031655297
-5.1505437	ligový	-0.031655297
-5.1505437	titul.	-0.031655297
-4.570131	loňské	-0.1766703
-3.7625191	dost	-0.031655297
-5.1505437	chybělo.	-0.031655297
-4.570131	květnu	-0.09813799
-5.1505437	zklamaní,	-0.031655297
-2.9807396	protože	-0.11031246
-3.39903	měli	-0.031655297
-5.1505437	vyhráli.	-0.031655297
-5.1505437	Měli	-0.031655297
-5.1505437	výbornou	-0.031655297
-5.1505437	sezónu.	-0.031655297
-5.1505437	Nasbírali	-0.031655297
-4.570131	79	-0.031655297
-5.1505437	bodů.	-0.031655297
-5.1505437	Obvykle	-0.031655297
-5.1505437	body	-0.031655297
-4.570131	jasný	-0.031655297
-5.1505437	mistr...	-0.031655297
-5.1505437	Jenže	-0.031655297
-4.570131	jiný	-0.031655297
-4.570131	klub,	-0.031655297
-5.1505437	Montpellier,	-0.031655297
-4.570131	sezónu	-0.031655297
-5.1505437	úžasnější.	-0.031655297
-5.1505437	Myslím,	-0.031655297
-5.1505437	letos	-0.031655297
-5.1505437	povede.	-0.031655297
-5.1505437	I	-0.031655297
-4.570131	titul	-0.031655297
-5.1505437	usilují	-0.031655297
-5.1505437	týmy,	-0.031655297
-4.570131	Marseille,	-0.031655297
-5.1505437	Bordeaux,	-0.031655297
-4.120202	myslím,	-0.82848775
-5.1505437	zbraně,	-0.031655297
-5.1505437	porazili.	-0.031655297
-5.1505437	Myslíte	-0.031655297
-3.6245012	si,	-0.6102821
-4.3614607	média	-0.031655297
-5.1505437	očekávají	-0.031655297
-5.1505437	příliš?	-0.031655297
-4.570131	Není	-0.031655297
-4.570131	neobvyklé	-0.031655297
-5.1505437	očekávat	-0.031655297
-3.3338263	nás	-0.07334778
-4.120202	vzhledem	-0.4192429
-3.2771463	tu	-0.031655323
-5.1505437	investovalo	-0.031655297
-4.120202	jaké	-0.031655297
-4.3614607	hráče.	-0.703549
-5.1505437	přijímáme.	-0.031655297
-5.1505437	fakt,	-0.031655297
-4.3614607	doma	-0.031655297
-5.1505437	porazíme	-0.031655297
-5.1505437	Troyes	-0.031655297
-4.570131	4:0	-0.031655297
-5.1505437	najde	-0.031655297
-4.3614607	něco,	-0.703549
-5.1505437	novinách	-0.031655297
-5.1505437	vyčítají,	-0.031655297
-5.1505437	zrovna	-0.031655297
-4.570131	příjemné.	-0.1766703
-5.1505437	Člověk	-0.031655297
-3.5690749	vás	-0.031655323
-5.1505437	můžou	-0.031655297
-5.1505437	chtít	-0.031655297
-5.1505437	víc.	-0.031655297
-5.1505437	Nejde	-0.031655297
-5.1505437	vyhrávat	-0.031655297
-4.3614607	každém	-0.031655297
-5.1505437	víkendu.	-0.031655297
-5.1505437	Nejsme	-0.031655297
-5.1505437	Barcelona!	-0.031655297
-5.1505437	Snažíme	-0.031655297
-4.570131	nastavit	-0.031655297
-5.1505437	herní	-0.031655297
-5.1505437	styl.	-0.031655297
-4.570131	vybudování	-0.031655297
-4.3614607	týmu	-0.031655297
-5.1505437	potřebujete	-0.031655297
-4.570131	čas.	-0.1766703
-5.1505437	Lize	-0.031655297
-5.1505437	mistrů	-0.031655297
-5.1505437	dokázali,	-0.031655297
-5.1505437	umíme.	-0.031655297
-5.1505437	Podívejte	-0.031655297
-5.1505437	Manchester	-0.031655297
-5.1505437	City,	-0.031655297
-5.1505437	neprobojoval	-0.031655297
-5.1505437	osmifinále,	-0.031655297
-5.1505437	investovali	-0.031655297
-5.1505437	částky!	-0.031655297
-5.1505437	Vzhledem	-0.031655297
-5.1505437	investovaným	-0.031655297
-5.1505437	sumám	-0.031655297
-5.1505437	čekat,	-0.031655297
-5.1505437	ostatními	-0.031655297
-3.6880503	15	-0.031655297
-5.1505437	bodů	-0.031655297
-5.1505437	náskok!	-0.031655297
-5.1505437	Tím	-0.031655297
-5.1505437	urážíte	-0.031655297
-4.570131	francouzskou	-0.031655297
-5.1505437	ligu.	-0.031655297
-5.1505437	Kluby	-0.031655297
-5.1505437	nedařilo,	-0.031655297
-5.1505437	posunuly	-0.031655297
-5.1505437	fáze.	-0.031655297
-5.1505437	Doufám,	-0.031655297
-3.6880503	budeme	-0.09022809
-3.8524551	moci	-0.031655297
-5.1505437	usmívat	-0.031655297
-4.570131	říkat	-0.031655297
-3.9660137	navzdory	-0.031655297
-4.120202	všem	-0.031655297
-5.1505437	těžkostem	-0.031655297
-5.1505437	zvítězit.	-0.031655297
-5.1505437	Zdá	-0.031655297
-5.1505437	spoléhalo	-0.031655297
-5.1505437	výkony	-0.031655297
-5.1505437	Zlatana	-0.031655297
-5.1505437	Ibrahimoviče.	-0.031655297
-4.570131	dobře,	-0.031655297
-3.8524551	existuje	-0.031655297
-5.1505437	"závislost	-0.031655297
-5.1505437	Zlatanovi".	-0.031655297
-4.570131	znamená,	-0.1766703
-5.1505437	Ibrahimovič	-0.031655297
-5.1505437	výkonný	-0.031655297
-5.1505437	gólů.	-0.031655297
-5.1505437	Kvůli	-0.031655297
-5.1505437	prokazuje,	-0.031655297
-4.570131	hvězdou	-0.031655297
-5.1505437	ligy.	-0.031655297
-4.3614607	našem	-0.031655297
-5.1505437	respektujeme	-0.031655297
-3.6880503	člověka	-0.06362571
-4.570131	on	-0.031655297
-5.1505437	respektuje	-0.031655297
-5.1505437	lidi,	-0.031655297
-5.1505437	má.	-0.031655297
-5.1505437	To,	-0.031655297
-3.9660137	čeho	-0.0840023
-5.1505437	dosáhl,	-0.031655297
-5.1505437	výjimečné.	-0.031655297
-5.1505437	zvýšili	-0.031655297
-5.1505437	Thiago	-0.031655297
-5.1505437	Silva,	-0.031655297
-4.3614607	nejlepším	-0.031655297
-5.1505437	obráncům	-0.031655297
-4.3614607	světě,	-0.031655297
-4.3614607	ostatním	-0.031655297
-5.1505437	růst.	-0.031655297
-5.1505437	prožíval	-0.031655297
-5.1505437	Euro	-0.031655297
-5.1505437	reprezentací?	-0.031655297
-3.5690749	kvůli	-0.05704057
-4.570131	zranění	-0.031655297
-4.120202	nemohl	-0.031655297
-3.8524551	tak,	-0.1227706
-3.4757826	bych	-0.05104938
-5.1505437	představoval.	-0.031655297
-5.1505437	Ale	-0.031655297
-5.1505437	zažil	-0.031655297
-5.1505437	vyšel	-0.031655297
-5.1505437	silnější.	-0.031655297
-4.3614607	daří	-0.031655297
-5.1505437	reprezentaci	-0.031655297
-3.5690749	dobré	-0.031655297
-4.570131	zápasy.	-0.1766703
-5.1505437	doufal	-0.031655297
-3.39903	svého	-0.031655323
-4.3614607	nástupu	-0.031655297
-5.1505437	reprezentace.	-0.031655297
-5.1505437	Poučili	-0.031655297
-4.3614607	stalo	-0.031655297
-5.1505437	Ukrajině,	-0.031655297
-5.1505437	dlužíme	-0.031655297
-4.120202	sami	-0.09813799
-5.1505437	sobě,	-0.031655297
-3.7625191	naše	-0.031655297
-5.1505437	vystupování	-0.031655297
-5.1505437	příkladné.	-0.031655297
-5.1505437	Didiera	-0.031655297
-5.1505437	Deschampse	-0.031655297
-5.1505437	čele	-0.031655297
-4.3614607	národního	-0.031655297
-5.1505437	týmu?	-0.031655297
-5.1505437	Hovoří	-0.031655297
-5.1505437	výsledky.	-0.031655297
-5.1505437	kvalifikaci	-0.031655297
-5.1505437	MS	-0.031655297
-5.1505437	dobrém	-0.031655297
-5.1505437	Trenér	-0.031655297
-5.1505437	vybírá	-0.031655297
-5.1505437	přísně,	-0.031655297
-5.1505437	hráčům	-0.031655297
-5.1505437	nablízku	-0.031655297
-4.120202	dokáže	-0.031655297
-5.1505437	nadchnout	-0.031655297
-4.570131	vítězství.	-0.1766703
-5.1505437	Takový	-0.031655297
-5.1505437	Laurent	-0.031655297
-5.1505437	Blanc.	-0.031655297
-5.1505437	Nechci	-0.031655297
-5.1505437	srovnávat.	-0.031655297
-5.1505437	Blanc	-0.031655297
-4.570131	dosáhl	-0.1766703
-4.570131	cíle	-0.031655297
-5.1505437	kvalifikovali	-0.031655297
-5.1505437	Euro.	-0.031655297
-5.1505437	Didier	-0.031655297
-5.1505437	Deschamps	-0.031655297
-4.570131	dovede	-0.031655297
-4.3614607	náš	-0.031655297
-5.1505437	Brazílie.	-0.031655297
-5.1505437	remíza	-0.031655297
-5.1505437	(1:1)	-0.031655297
-5.1505437	16.	-0.031655297
-4.570131	října	-0.031655297
-5.1505437	Španělsku	-0.031655297
-5.1505437	solidním	-0.031655297
-5.1505437	výchozím	-0.031655297
-5.1505437	zápasem?	-0.031655297
-4.3614607	zápas	-0.031655297
-4.570131	dodal	-0.031655297
-5.1505437	sebevědomí.	-0.031655297
-5.1505437	Všichni	-0.031655297
-5.1505437	bojovali	-0.031655297
-5.1505437	tým.	-0.031655297
-3.7625191	tímto	-0.0840023
-5.1505437	šokem	-0.031655297
-5.1505437	kariéru	-0.031655297
-5.1505437	nezažil.	-0.031655297
-5.1505437	Díky	-0.031655297
-4.570131	Bitcoinu	-0.031655297
-3.435713	můžete	-0.049634993
-4.120202	platit	-0.031655297
-4.3614607	prodávat	-0.031655297
-5.1505437	bank	-0.031655297
-5.1505437	Všechna	-0.031655297
-5.1505437	negativa	-0.031655297
-4.570131	současných	-0.031655297
-4.570131	finančních	-0.031655297
-4.570131	transakcí	-0.031655297
-5.1505437	založených	-0.031655297
-5.1505437	centrálních	-0.031655297
-5.1505437	bankách,	-0.031655297
-5.1505437	identifikovaných	-0.031655297
-5.1505437	transakcích	-0.031655297
-5.1505437	nákladech	-0.031655297
-4.570131	zpracování	-0.031655297
-5.1505437	příjemci.	-0.031655297
-4.570131	rámci	-0.031655297
-4.3614607	technologií	-0.031655297
-5.1505437	pravdou,	-0.031655297
-4.3614607	cítit	-0.031655297
-5.1505437	zjevný	-0.031655297
-4.120202	politický	-0.031655297
-5.1505437	výhled:	-0.031655297
-5.1505437	přesvědčení,	-0.031655297
-5.1505437	stávající	-0.031655297
-4.570131	postavený	-0.031655297
-5.1505437	bankovních	-0.031655297
-5.1505437	monopolech	-0.031655297
-5.1505437	finančním	-0.031655297
-5.1505437	krizím.	-0.031655297
-5.1505437	Asi	-0.031655297
-5.1505437	tisícovka	-0.031655297
-4.120202	webových	-0.1766703
-4.3614607	stránek	-0.031655297
-4.570131	přijímá	-0.031655297
-4.570131	bitcoiny	-0.031655297
-5.1505437	dárky	-0.031655297
-5.1505437	platební	-0.031655297
-5.1505437	prostředek.	-0.031655297
-5.1505437	porovnání	-0.031655297
-4.3614607	světovou	-0.031655297
-5.1505437	reálné	-0.031655297
-3.6880503	peníze	-0.059954986
-5.1505437	produkty	-0.031655297
-5.1505437	impozantního.	-0.031655297
-4.120202	přesto	-0.0840023
-4.3614607	Evropská	-0.031655297
-4.570131	centrální	-0.031655297
-5.1505437	banka	-0.031655297
-5.1505437	(ECB)	-0.031655297
-5.1505437	skutečnost	-0.031655297
-4.570131	zajímá	-0.031655297
-5.1505437	zprávě	-0.031655297
-4.570131	virtuálních	-0.031655297
-5.1505437	financích,	-0.031655297
-4.570131	vyšla	-0.031655297
-5.1505437	říjnu.	-0.031655297
-4.120202	Bitcoin	-0.031655297
-5.1505437	"nejúspěšnější	-0.031655297
-3.8524551	virtuální	-0.031655297
-5.1505437	peníze",	-0.031655297
-5.1505437	"konkurující	-0.031655297
-5.1505437	dolaru	-0.031655297
-5.1505437	euru"	-0.031655297
-5.1505437	"obdobu	-0.031655297
-4.120202	běžných	-0.09813799
-5.1505437	peněz".	-0.031655297
-3.9660137	měsíc	-0.031655297
-5.1505437	ústřední	-0.031655297
-5.1505437	orgán	-0.031655297
-4.570131	kontroluje	-0.031655297
-5.1505437	zpracovává	-0.031655297
-5.1505437	komunikace.	-0.031655297
-4.570131	uzly	-0.031655297
-4.3614607	sítě	-0.031655297
-5.1505437	depozitáři	-0.031655297
-4.570131	knihy	-0.031655297
-5.1505437	účtů,	-0.031655297
-5.1505437	kontrolory,	-0.031655297
-5.1505437	emitenty	-0.031655297
-5.1505437	kupujícími	-0.031655297
-5.1505437	prodávajícími.	-0.031655297
-4.3614607	síť	-0.031655297
-5.1505437	funguje?	-0.031655297
-5.1505437	Každá	-0.031655297
-4.570131	transakce	-0.031655297
-4.3614607	dvěma	-0.031655297
-4.570131	uživateli	-0.031655297
-4.120202	probíhá	-0.031655297
-5.1505437	elektronickými	-0.031655297
-5.1505437	adresami	-0.031655297
-5.1505437	e-mailu.	-0.031655297
-5.1505437	Uživatel	-0.031655297
-5.1505437	zvolit	-0.031655297
-4.3614607	jinou	-0.031655297
-5.1505437	adresu	-0.031655297
-4.570131	každou	-0.031655297
-5.1505437	platbu,	-0.031655297
-5.1505437	zajišťuje	-0.031655297
-5.1505437	anonymitu.	-0.031655297
-5.1505437	Soubor	-0.031655297
-4.120202	informací	-0.031655297
-5.1505437	související	-0.031655297
-4.570131	touto	-0.031655297
-5.1505437	elektronicky	-0.031655297
-5.1505437	podepsán	-0.031655297
-5.1505437	šifrovacím	-0.031655297
-4.570131	systémem	-0.031655297
-5.1505437	dvojitým	-0.031655297
-5.1505437	klíčem.	-0.031655297
-5.1505437	Síť	-0.031655297
-5.1505437	ověřit	-0.031655297
-5.1505437	oprávněnost	-0.031655297
-5.1505437	transakce.	-0.031655297
-5.1505437	obsahu	-0.031655297
-4.570131	souboru	-0.031655297
-3.9660137	možné	-0.031655297
-5.1505437	zajistit,	-0.031655297
-5.1505437	vyměněné	-0.031655297
-4.3614607	existovaly	-0.031655297
-4.570131	knize	-0.031655297
-5.1505437	distribuována	-0.031655297
-4.570131	celé	-0.031655297
-5.1505437	síti.	-0.031655297
-5.1505437	Klíčová	-0.031655297
-4.570131	spočívá	-0.031655297
-4.3614607	knihy.	-0.703549
-5.1505437	Jedná	-0.031655297
-5.1505437	rozřezání	-0.031655297
-5.1505437	souboru;	-0.031655297
-5.1505437	transformaci	-0.031655297
-5.1505437	obrovského	-0.031655297
-5.1505437	kratší	-0.031655297
-4.3614607	jedinečný	-0.031655297
-4.570131	digitální	-0.031655297
-5.1505437	otisk.	-0.031655297
-5.1505437	Cílem	-0.031655297
-4.3614607	najít	-0.031655297
-5.1505437	číslo,	-0.031655297
-4.3614607	konkrétní	-0.031655297
-5.1505437	otisk	-0.031655297
-5.1505437	(hodně	-0.031655297
-5.1505437	nul	-0.031655297
-5.1505437	začátku).	-0.031655297
-5.1505437	Jakmile	-0.031655297
-3.5690749	toto	-0.031655297
-5.1505437	číslo	-0.031655297
-5.1505437	najde,	-0.031655297
-5.1505437	zkontrolují	-0.031655297
-5.1505437	správnost.	-0.031655297
-5.1505437	Transakce	-0.031655297
-5.1505437	nezničitelně	-0.031655297
-5.1505437	zobrazí	-0.031655297
-5.1505437	napojená	-0.031655297
-5.1505437	řetězec	-0.031655297
-5.1505437	transakcí;	-0.031655297
-5.1505437	jakoukoli	-0.031655297
-5.1505437	úpravou	-0.031655297
-3.7625191	došlo	-0.10852423
-5.1505437	změně	-0.031655297
-5.1505437	otisku.	-0.031655297
-5.1505437	Počítač,	-0.031655297
-5.1505437	výzvu	-0.031655297
-5.1505437	vyřeší,	-0.031655297
-4.570131	bitcoinů.	-0.1766703
-5.1505437	Počet	-0.031655297
-4.3614607	bitcoinů	-0.031655297
-4.570131	oběhu	-0.031655297
-4.570131	omezen	-0.031655297
-5.1505437	počtem	-0.031655297
-5.1505437	milionů,	-0.031655297
-5.1505437	dělit	-0.031655297
-5.1505437	stomilióntinu,	-0.031655297
-3.7625191	takže	-0.031655297
-4.120202	prostor	-0.09813799
-5.1505437	marži	-0.031655297
-5.1505437	je...	-0.031655297
-5.1505437	Webové	-0.031655297
-5.1505437	stránky,	-0.031655297
-5.1505437	zajišťují	-0.031655297
-5.1505437	služby,	-0.031655297
-5.1505437	napadeny	-0.031655297
-5.1505437	odcizení	-0.031655297
-5.1505437	uložených	-0.031655297
-5.1505437	"Využitá	-0.031655297
-5.1505437	skulina	-0.031655297
-5.1505437	netýká	-0.031655297
-4.570131	samotného	-0.031655297
-5.1505437	protokolu,"	-0.031655297
-5.1505437	ujišťuje	-0.031655297
-5.1505437	Noizat,	-0.031655297
-4.570131	založil	-0.031655297
-5.1505437	Paymium,	-0.031655297
-5.1505437	platby	-0.031655297
-4.3614607	skutečnými	-0.031655297
-5.1505437	penězi,	-0.031655297
-5.1505437	využívá	-0.031655297
-5.1505437	Bitcoin.	-0.031655297
-5.1505437	ECB	-0.031655297
-4.570131	možnosti	-0.031655297
-5.1505437	praní	-0.031655297
-5.1505437	anonymní	-0.031655297
-5.1505437	službě.	-0.031655297
-5.1505437	hotovost.	-0.031655297
-5.1505437	Významní	-0.031655297
-5.1505437	hráči	-0.031655297
-5.1505437	Wikipedia	-0.031655297
-4.570131	odmítají	-0.031655297
-4.570131	dary	-0.031655297
-5.1505437	povahy.	-0.031655297
-5.1505437	Jiní,	-0.031655297
-5.1505437	platforma	-0.031655297
-5.1505437	blogů	-0.031655297
-5.1505437	WordPress,	-0.031655297
-5.1505437	přijímají.	-0.031655297
-5.1505437	Adi	-0.031655297
-5.1505437	Shamir	-0.031655297
-5.1505437	Dorit	-0.031655297
-5.1505437	Ron	-0.031655297
-5.1505437	Weizmannova	-0.031655297
-4.120202	ústavu	-0.3092521
-4.3614607	Izraeli	-0.031655297
-5.1505437	analyzovali	-0.031655297
-4.3614607	knihu	-0.031655297
-5.1505437	účtů	-0.031655297
-5.1505437	prokázali,	-0.031655297
-3.3652055	téměř	-0.031655297
-5.1505437	neobíhá.	-0.031655297
-5.1505437	zahájeny	-0.031655297
-5.1505437	"obrovské	-0.031655297
-5.1505437	slevy".	-0.031655297
-5.1505437	"Bylo	-0.031655297
-5.1505437	vyměněno	-0.031655297
-5.1505437	třicet	-0.031655297
-3.6880503	tisíc	-0.031655297
-5.1505437	raduje	-0.031655297
-5.1505437	Jon	-0.031655297
-5.1505437	Holmquist,	-0.031655297
-5.1505437	pracuje	-0.031655297
-5.1505437	Coinabul	-0.031655297
-4.570131	zabývající	-0.1766703
-5.1505437	přeměnou	-0.031655297
-5.1505437	zlato.	-0.031655297
-5.1505437	autorem	-0.031655297
-5.1505437	pedagogické	-0.031655297
-4.570131	peněz,	-0.031655297
-3.6880503	velkou	-0.06362571
-5.1505437	důvěru	-0.031655297
-4.120202	potenciál	-0.031655297
-4.3614607	technologie	-0.031655297
-5.1505437	jakožto	-0.031655297
-5.1505437	transakční	-0.031655297
-4.570131	sítě.	-0.1766703
-5.1505437	Jeho	-0.031655297
-4.570131	systém,	-0.031655297
-5.1505437	Paytunia,	-0.031655297
-5.1505437	ekvivalentní	-0.031655297
-5.1505437	kreditní	-0.031655297
-5.1505437	kartě	-0.031655297
-5.1505437	(se	-0.031655297
-5.1505437	penězi)	-0.031655297
-5.1505437	bezkontaktnímu	-0.031655297
-5.1505437	placení	-0.031655297
-5.1505437	mobilem,	-0.031655297
-3.9660137	používá	-0.031655297
-4.570131	ověřování	-0.031655297
-5.1505437	transakcí,	-0.031655297
-5.1505437	levnější.	-0.031655297
-5.1505437	Nositel	-0.031655297
-4.570131	spravuje	-0.031655297
-5.1505437	totožnost	-0.031655297
-4.120202	zůstat	-0.031655297
-5.1505437	anonymní.	-0.031655297
-5.1505437	Systém	-0.031655297
-5.1505437	nastavuje	-0.031655297
-5.1505437	obchodníků,	-0.031655297
-4.570131	zapotřebí	-0.031655297
-5.1505437	instalovat	-0.031655297
-5.1505437	terminály	-0.031655297
-5.1505437	software.	-0.031655297
-5.1505437	Stačí	-0.031655297
-5.1505437	sdělit	-0.031655297
-5.1505437	adresu,	-0.031655297
-5.1505437	telefonem	-0.031655297
-5.1505437	"ofotografovat	-0.031655297
-5.1505437	rozpoznat",	-0.031655297
-5.1505437	upřesňuje	-0.031655297
-5.1505437	ujišťuje,	-0.031655297
-4.3614607	tisíce	-0.031655297
-5.1505437	uživatelů.	-0.031655297
-5.1505437	Dochází	-0.031655297
-5.1505437	obecnému	-0.031655297
-4.3614607	pohybu	-0.031655297
-5.1505437	zpochybňování	-0.031655297
-5.1505437	hierarchických	-0.031655297
-4.3614607	systémů	-0.031655297
-5.1505437	přechodu	-0.031655297
-5.1505437	horizontálnějším	-0.031655297
-5.1505437	systémům.	-0.031655297
-5.1505437	"Než	-0.031655297
-5.1505437	prosadí,	-0.031655297
-4.570131	chvíli	-0.031655297
-5.1505437	potrvá,	-0.031655297
-4.3614607	2013	-0.031655297
-3.9660137	mohl	-0.06839128
-5.1505437	rozhodující,"	-0.031655297
-5.1505437	předpovídá.	-0.031655297
-4.570131	předpokládá	-0.031655297
-5.1505437	přehodnocení	-0.031655297
-3.6880503	různých	-0.031655297
-5.1505437	rizik,	-0.031655297
-4.570131	považována	-0.031655297
-5.1505437	zvýšená,	-0.031655297
-5.1505437	úspěšný.	-0.031655297
-5.1505437	Odešli	-0.031655297
-5.1505437	Afghánistánu.	-0.031655297
-5.1505437	dál?	-0.031655297
-5.1505437	Francouzské	-0.031655297
-4.570131	jednotky	-0.031655297
-5.1505437	opustily	-0.031655297
-4.570131	oblast	-0.031655297
-4.570131	odpovědnosti	-0.031655297
-5.1505437	Afghánistánu	-0.031655297
-5.1505437	(Kapisa	-0.031655297
-5.1505437	Surobi).	-0.031655297
-5.1505437	NATO	-0.031655297
-3.9660137	americké	-0.031655297
-4.120202	měly	-0.031655297
-5.1505437	následovat	-0.031655297
-4.3614607	koncem	-0.031655297
-4.570131	2014.	-0.1766703
-5.1505437	čase,	-0.031655297
-4.570131	afghánská	-0.031655297
-5.1505437	armáda	-0.031655297
-5.1505437	převzala	-0.031655297
-4.570131	kontrolu	-0.031655297
-3.5199285	nad	-0.031655323
-5.1505437	územím	-0.031655297
-4.570131	Afghánci	-0.031655297
-4.570131	zvolili	-0.031655297
-4.570131	budoucnost	-0.031655297
-5.1505437	nečekali	-0.031655297
-5.1505437	nás.	-0.031655297
-5.1505437	Největší	-0.031655297
-5.1505437	újmu	-0.031655297
-5.1505437	utrpěli	-0.031655297
-5.1505437	afghánském	-0.031655297
-5.1505437	venkově,	-0.031655297
-5.1505437	trestali,	-0.031655297
-4.570131	považovali	-0.031655297
-5.1505437	teroristy.	-0.031655297
-4.120202	my	-0.031655297
-4.570131	vždyť	-0.031655297
-5.1505437	přišli	-0.031655297
-5.1505437	zabitých	-0.031655297
-5.1505437	vojáků,	-0.031655297
-4.120202	ti	-0.031655297
-5.1505437	zmrzačení.	-0.031655297
-5.1505437	Chtějí	-0.031655297
-4.570131	bránit	-0.031655297
-5.1505437	starodávné	-0.031655297
-5.1505437	archaické	-0.031655297
-5.1505437	tradice,	-0.031655297
-4.570131	nim	-0.031655297
-5.1505437	přidali	-0.031655297
-5.1505437	džihádisté,	-0.031655297
-5.1505437	Pakistánci,	-0.031655297
-5.1505437	Arabové,	-0.031655297
-5.1505437	Uzbekové,	-0.031655297
-5.1505437	Tádžikové.	-0.031655297
-5.1505437	Konvoje	-0.031655297
-5.1505437	kamionů	-0.031655297
-5.1505437	pancéřovaných	-0.031655297
-5.1505437	vozidel	-0.031655297
-5.1505437	dorazily	-0.031655297
-4.570131	Kábulu	-0.031655297
-5.1505437	napadení	-0.031655297
-5.1505437	vzdušného	-0.031655297
-5.1505437	doprovodu	-0.031655297
-5.1505437	helikoptér.	-0.031655297
-5.1505437	2014	-0.031655297
-4.3614607	nebudou	-0.031655297
-4.570131	talibánci	-0.031655297
-5.1505437	aktivní.	-0.031655297
-5.1505437	nezastavitelného	-0.031655297
-3.4757826	letech	-0.059954986
-4.570131	1994	-0.031655297
-5.1505437	1996	-0.031655297
-3.8524551	podmínky	-0.031655297
-5.1505437	značně	-0.031655297
-5.1505437	změnily.	-0.031655297
-5.1505437	Kábul	-0.031655297
-5.1505437	tenkrát	-0.031655297
-5.1505437	prázdný	-0.031655297
-3.435713	země	-0.031655297
-5.1505437	krvi	-0.031655297
-5.1505437	ohni	-0.031655297
-5.1505437	důsledku	-0.031655297
-4.570131	bojů	-0.031655297
-4.3614607	různými	-0.031655297
-5.1505437	odbojovými	-0.031655297
-5.1505437	skupinami.	-0.031655297
-4.570131	převzetí	-0.031655297
-4.3614607	kontroly	-0.031655297
-3.9660137	zemí	-0.031655297
-4.3614607	považováno	-0.703549
-4.570131	druhu	-0.031655297
-5.1505437	osvobození,	-0.031655297
-4.570131	bezpečnosti.	-0.1766703
-5.1505437	zaplatili	-0.031655297
-4.570131	tmářství	-0.031655297
-5.1505437	venkovanů,	-0.031655297
-5.1505437	ovládla	-0.031655297
-5.1505437	Al-Ká'ida,	-0.031655297
-3.6245012	situace	-0.031655297
-3.9660137	naší	-0.031655297
-4.3614607	doby	-0.031655297
-5.1505437	nezlepšila.	-0.031655297
-5.1505437	Někdejší	-0.031655297
-5.1505437	mudžáhedíni,	-0.031655297
-3.7625191	vláda	-0.059954986
-5.1505437	současní	-0.031655297
-5.1505437	shodují	-0.031655297
-4.3614607	snaze	-0.031655297
-5.1505437	zachovat	-0.031655297
-3.8524551	ženy	-0.07482778
-5.1505437	podřízeném	-0.031655297
-4.570131	postavení.	-0.1766703
-5.1505437	Hlavní	-0.031655297
-5.1505437	hodnostáři	-0.031655297
-4.570131	války	-0.031655297
-5.1505437	sovětským	-0.031655297
-5.1505437	jednotkám	-0.031655297
-5.1505437	vrátili	-0.031655297
-5.1505437	2001	-0.031655297
-5.1505437	Stali	-0.031655297
-5.1505437	kšeftaři,	-0.031655297
-5.1505437	zmocňovali	-0.031655297
-5.1505437	pozemků,	-0.031655297
-5.1505437	prodávali	-0.031655297
-4.570131	stavební	-0.031655297
-5.1505437	pozemky	-0.031655297
-5.1505437	uprchlíkům	-0.031655297
-4.570131	Íránu	-0.031655297
-5.1505437	Pákistánu,	-0.031655297
-5.1505437	využívali	-0.031655297
-4.570131	zakázek	-0.031655297
-5.1505437	subdodavatele.	-0.031655297
-5.1505437	zaslechl	-0.031655297
-5.1505437	kampaních,	-0.031655297
-5.1505437	touží	-0.031655297
-5.1505437	vládě,	-0.031655297
-4.570131	tvořit	-0.031655297
-5.1505437	zloději.	-0.031655297
-5.1505437	Řada	-0.031655297
-3.9660137	mladých	-0.031655297
-5.1505437	odjet	-0.031655297
-5.1505437	odjedou	-0.031655297
-4.570131	dokázali	-0.031655297
-4.3614607	využít	-0.031655297
-5.1505437	štědrosti:	-0.031655297
-5.1505437	únik	-0.031655297
-4.3614607	kapitálu	-0.031655297
-5.1505437	značný.	-0.031655297
-5.1505437	Mladé	-0.031655297
-5.1505437	unavuje	-0.031655297
-5.1505437	válka	-0.031655297
-5.1505437	spojené	-0.031655297
-5.1505437	ideologie.	-0.031655297
-5.1505437	Během	-0.031655297
-5.1505437	vyhnanství	-0.031655297
-5.1505437	Pákistánu	-0.031655297
-5.1505437	poznali	-0.031655297
-3.8524551	moderní	-0.031655297
-3.6880503	svět	-0.031655297
-5.1505437	výhody	-0.031655297
-5.1505437	zaujaly.	-0.031655297
-5.1505437	65%	-0.031655297
-4.570131	obyvatelstva	-0.1766703
-5.1505437	mladší	-0.031655297
-4.120202	25	-0.031655297
-5.1505437	let;	-0.031655297
-3.7625191	žije	-0.06839128
-4.570131	současnosti	-0.031655297
-4.570131	5	-0.031655297
-4.570131	obyvatel,	-0.031655297
-5.1505437	pětina	-0.031655297
-4.570131	celkové	-0.031655297
-5.1505437	populace.	-0.031655297
-4.570131	městech	-0.1766703
-3.6245012	státní	-0.031655297
-4.570131	školy	-0.031655297
-5.1505437	plné,	-0.031655297
-4.570131	chodí	-0.031655297
-3.1820796	tam	-0.040885154
-5.1505437	dívky	-0.031655297
-5.1505437	chlapci.	-0.031655297
-5.1505437	Těmto	-0.031655297
-5.1505437	mladým	-0.031655297
-4.120202	lidem	-0.031655297
-4.3614607	práci,	-0.031655297
-4.3614607	oni	-0.031655297
-4.3614607	nechtějí	-0.031655297
-4.570131	dřívějších	-0.031655297
-4.570131	korupci	-0.031655297
-5.1505437	představitelů.	-0.031655297
-5.1505437	Všichni,	-0.031655297
-3.8524551	včetně	-0.031655297
-5.1505437	ozbrojené	-0.031655297
-5.1505437	opozice,	-0.031655297
-4.120202	rádi	-0.031655297
-5.1505437	mobilní	-0.031655297
-5.1505437	telefony;	-0.031655297
-5.1505437	televizi	-0.031655297
-4.570131	turecké	-0.031655297
-5.1505437	seriály,	-0.031655297
-5.1505437	ukazují	-0.031655297
-5.1505437	svět,	-0.031655297
-5.1505437	sledují	-0.031655297
-5.1505437	všude.	-0.031655297
-5.1505437	Armáda	-0.031655297
-5.1505437	přítomna.	-0.031655297
-5.1505437	Budou	-0.031655297
-5.1505437	úřady,	-0.031655297
-5.1505437	postaví	-0.031655297
-4.570131	jejího	-0.031655297
-5.1505437	čela,	-0.031655297
-4.570131	považovány	-0.1766703
-5.1505437	legitimní?	-0.031655297
-5.1505437	velitelé	-0.031655297
-5.1505437	sovětské	-0.031655297
-5.1505437	armádě	-0.031655297
-5.1505437	obnovují	-0.031655297
-5.1505437	provinční	-0.031655297
-5.1505437	milice,	-0.031655297
-3.5690749	mimo	-0.20957895
-5.1505437	Prezident	-0.031655297
-5.1505437	Karzáí	-0.031655297
-5.1505437	nechce	-0.031655297
-3.6245012	zahraniční	-0.05704057
-5.1505437	kontroly,	-0.031655297
-4.3614607	příležitosti	-0.031655297
-5.1505437	plánovaných	-0.031655297
-5.1505437	duben	-0.031655297
-4.570131	50.	-0.031655297
-4.570131	závislá	-0.1766703
-5.1505437	pomoci.	-0.031655297
-5.1505437	Žádný	-0.031655297
-4.570131	průmysl	-0.031655297
-5.1505437	nepodařilo	-0.031655297
-5.1505437	obnovit,	-0.031655297
-5.1505437	přehrada	-0.031655297
-5.1505437	nefunguje,	-0.031655297
-5.1505437	opraven	-0.031655297
-5.1505437	zavlažovací	-0.031655297
-5.1505437	Všechno	-0.031655297
-5.1505437	dováží;	-0.031655297
-5.1505437	nevyrábí,	-0.031655297
-4.570131	ovoce	-0.1766703
-5.1505437	zelenina.	-0.031655297
-5.1505437	Přednost	-0.031655297
-5.1505437	soukromá	-0.031655297
-5.1505437	iniciativa.	-0.031655297
-3.5690749	zemi	-0.04734641
-5.1505437	zničené	-0.031655297
-4.3614607	třemi	-0.031655297
-5.1505437	desetiletími	-0.031655297
-4.570131	válek	-0.031655297
-5.1505437	nezbytná	-0.031655297
-4.570131	vládní	-0.031655297
-4.570131	kontrola	-0.031655297
-4.570131	infrastruktury.	-0.1766703
-5.1505437	Roznesly	-0.031655297
-5.1505437	zvěsti,	-0.031655297
-4.570131	Afghánistán	-0.031655297
-5.1505437	disponuje	-0.031655297
-4.570131	obrovským	-0.031655297
-5.1505437	nerostným	-0.031655297
-5.1505437	bohatstvím.	-0.031655297
-5.1505437	přiživilo	-0.031655297
-4.3614607	pocit,	-0.703549
-4.570131	západní	-0.031655297
-3.9660137	proto,	-0.5161529
-5.1505437	zmocnily.	-0.031655297
-5.1505437	Bez	-0.031655297
-5.1505437	energie	-0.031655297
-5.1505437	železné	-0.031655297
-5.1505437	rudy	-0.031655297
-5.1505437	mědi	-0.031655297
-5.1505437	místě	-0.031655297
-4.570131	prostředků	-0.031655297
-5.1505437	přepravu	-0.031655297
-5.1505437	surovin	-0.031655297
-3.5690749	přes	-0.031655297
-5.1505437	hory	-0.031655297
-5.1505437	těžba	-0.031655297
-5.1505437	nerostů	-0.031655297
-4.570131	probíhat	-0.031655297
-5.1505437	nemůže.	-0.031655297
-5.1505437	Jednoho	-0.031655297
-4.120202	dne	-0.031655297
-5.1505437	třeba,	-0.031655297
-5.1505437	Pákistán,	-0.031655297
-4.570131	kterém	-0.06839128
-5.1505437	závisí	-0.031655297
-4.3614607	velká	-0.031655297
-5.1505437	dovozu	-0.031655297
-5.1505437	vývozu,	-0.031655297
-5.1505437	obnovily	-0.031655297
-4.120202	normální	-0.031655297
-4.3614607	vztahy.	-0.703549
-5.1505437	Odchod	-0.031655297
-5.1505437	francouzských	-0.031655297
-5.1505437	bojových	-0.031655297
-5.1505437	jednotek	-0.031655297
-5.1505437	dokončen	-0.031655297
-4.120202	20.	-0.031655297
-5.1505437	listopadu.	-0.031655297
-4.570131	Tyto	-0.031655297
-3.9660137	práce,	-0.031655297
-4.570131	zapojilo	-0.031655297
-3.6880503	množství	-0.031655297
-4.3614607	místních	-0.031655297
-4.570131	pracovníků,	-0.031655297
-5.1505437	pomohly	-0.031655297
-5.1505437	utlumit	-0.031655297
-5.1505437	povstání:	-0.031655297
-5.1505437	zavlažování,	-0.031655297
-5.1505437	studny,	-0.031655297
-5.1505437	pitná	-0.031655297
-4.570131	voda,	-0.031655297
-5.1505437	zalesnění,	-0.031655297
-4.570131	ovocné	-0.031655297
-5.1505437	stromy,	-0.031655297
-4.570131	ochrana	-0.031655297
-5.1505437	půdy	-0.031655297
-5.1505437	rozšiřování	-0.031655297
-5.1505437	obdělávatelné	-0.031655297
-5.1505437	plochy.	-0.031655297
-5.1505437	Jakou	-0.031655297
-5.1505437	vzpomínku	-0.031655297
-5.1505437	necháme	-0.031655297
-3.6245012	dvou	-0.031655323
-5.1505437	miliardách	-0.031655297
-3.9660137	eur	-0.031655297
-5.1505437	armádních	-0.031655297
-5.1505437	výdajů?	-0.031655297
-5.1505437	Mnohem	-0.031655297
-5.1505437	skromnější	-0.031655297
-5.1505437	rozpočet	-0.031655297
-4.570131	přispěl	-0.031655297
-5.1505437	zlepšení	-0.031655297
-4.3614607	životních	-0.031655297
-5.1505437	podmínek,	-0.031655297
-5.1505437	náročné	-0.031655297
-5.1505437	údolích,	-0.031655297
-4.570131	nacházejí	-0.031655297
-5.1505437	nadmořské	-0.031655297
-4.3614607	výšce	-0.031655297
-4.570131	2	-0.031655297
-5.1505437	m.	-0.031655297
-5.1505437	Velvyslanectví	-0.031655297
-5.1505437	obdrželo	-0.031655297
-4.570131	desítky	-0.031655297
-5.1505437	písemných	-0.031655297
-4.570131	žádostí	-0.1766703
-5.1505437	drobnou	-0.031655297
-5.1505437	zemědělskou	-0.031655297
-5.1505437	společenství	-0.031655297
-5.1505437	provincii	-0.031655297
-5.1505437	Kapisa.	-0.031655297
-5.1505437	Obtížné	-0.031655297
-4.3614607	egyptské	-0.031655297
-3.9660137	ústavě	-0.031655297
-5.1505437	Muhammad	-0.031655297
-4.120202	Mursí	-0.031655297
-5.1505437	pustil	-0.031655297
-5.1505437	partie	-0.031655297
-5.1505437	pokeru.	-0.031655297
-5.1505437	Zatímco	-0.031655297
-4.120202	Egypt	-0.031655297
-4.3614607	historii	-0.031655297
-3.9660137	nejvíce	-0.031655297
-5.1505437	rozdělený	-0.031655297
-5.1505437	vyhlášení	-0.031655297
-4.570131	ústavy,	-0.031655297
-5.1505437	dočasně	-0.031655297
-4.570131	uděluje	-0.031655297
-5.1505437	neomezené	-0.031655297
-5.1505437	pravomoci,	-0.031655297
-4.570131	rozhodl	-0.031655297
-5.1505437	vabank.	-0.031655297
-4.3614607	středu	-0.031655297
-4.570131	oznámil	-0.031655297
-5.1505437	ostatních,	-0.031655297
-4.570131	Ústavodárné	-0.1766703
-4.3614607	shromáždění	-0.09813799
-5.1505437	nazítří	-0.031655297
-5.1505437	schválí	-0.031655297
-4.570131	závěrečné	-0.031655297
-5.1505437	znění.	-0.031655297
-5.1505437	Již	-0.031655297
-5.1505437	provizorní	-0.031655297
-5.1505437	text,	-0.031655297
-4.570131	mnohokrát	-0.031655297
-5.1505437	doplňován,	-0.031655297
-5.1505437	oslabuje	-0.031655297
-3.9660137	ústavní	-0.031655297
-5.1505437	stabilitu	-0.031655297
-4.570131	právním	-0.031655297
-5.1505437	dohadům.	-0.031655297
-5.1505437	iniciativa	-0.031655297
-5.1505437	posílila	-0.031655297
-4.570131	rozpolcenost	-0.1227706
-4.120202	země.	-0.82848775
-4.120202	pohledu	-0.09813799
-4.120202	opozice	-0.031655297
-3.435713	prezident	-0.1118827
-5.1505437	setrvává	-0.031655297
-5.1505437	"autokratickém	-0.031655297
-5.1505437	deliriu",	-0.031655297
-3.9660137	nadále	-0.031655297
-5.1505437	"porušuje	-0.031655297
-5.1505437	slovo"	-0.031655297
-5.1505437	"pošlapává	-0.031655297
-5.1505437	právo".	-0.031655297
-5.1505437	stoupenci	-0.031655297
-4.570131	ujišťují,	-0.1766703
-5.1505437	prostředek,	-0.031655297
-5.1505437	nejrychleji	-0.031655297
-5.1505437	zatočit	-0.031655297
-4.3614607	politickou	-0.031655297
-5.1505437	krizí	-0.031655297
-5.1505437	zrychlit	-0.031655297
-5.1505437	přechodný	-0.031655297
-5.1505437	proces.	-0.031655297
-3.8524551	mělo	-0.21036665
-5.1505437	konat	-0.031655297
-5.1505437	referendum.	-0.031655297
-5.1505437	Jde	-0.031655297
-5.1505437	krátký	-0.031655297
-5.1505437	časový	-0.031655297
-5.1505437	úsek,	-0.031655297
-5.1505437	donutí	-0.031655297
-5.1505437	Bratrstvo	-0.031655297
-5.1505437	odstoupit	-0.031655297
-5.1505437	záměru	-0.031655297
-4.3614607	text	-0.031655297
-4.570131	Egypťanům	-0.031655297
-5.1505437	objasnit	-0.031655297
-4.570131	článku.	-0.1766703
-3.6880503	prezidenta	-0.031655297
-3.9660137	dosáhnout	-0.031655297
-3.8524551	národní	-0.031655297
-5.1505437	legitimity,	-0.031655297
-4.120202	celou	-0.031655297
-5.1505437	zmítají	-0.031655297
-5.1505437	protesty.	-0.031655297
-5.1505437	zvláštním	-0.031655297
-5.1505437	ovzduší	-0.031655297
-4.120202	včera	-0.031655297
-5.1505437	85	-0.031655297
-5.1505437	poslanců	-0.031655297
-5.1505437	zmiňovaného	-0.031655297
-5.1505437	ústavodárného	-0.031655297
-3.6245012	většinou	-0.031655297
-4.570131	islamistů	-0.031655297
-5.1505437	schválilo.	-0.031655297
-5.1505437	Většina	-0.031655297
-4.570131	liberálů	-0.031655297
-3.9660137	hlasování	-0.031655297
-5.1505437	chyběla.	-0.031655297
-4.570131	polovině	-0.031655297
-5.1505437	listopadu,	-0.031655297
-5.1505437	nedlouho	-0.031655297
-5.1505437	vyhlášením	-0.031655297
-5.1505437	bouchli	-0.031655297
-5.1505437	dveřmi	-0.031655297
-4.570131	prosadit	-0.031655297
-4.570131	názory.	-0.1766703
-5.1505437	Obhájci	-0.031655297
-4.120202	lidských	-0.09813799
-5.1505437	práv,	-0.031655297
-4.570131	občanské	-0.031655297
-3.435713	společnosti	-0.031655297
-5.1505437	příslušníci	-0.031655297
-4.570131	náboženských	-0.031655297
-4.570131	krok	-0.031655297
-5.1505437	napodobili.	-0.031655297
-5.1505437	dosaženo	-0.031655297
-5.1505437	usnášeníschopnosti,	-0.031655297
-5.1505437	spěšně	-0.031655297
-5.1505437	doplněno	-0.031655297
-5.1505437	řad	-0.031655297
-5.1505437	náhradníků.	-0.031655297
-5.1505437	Někteří	-0.031655297
-5.1505437	blízcí	-0.031655297
-4.570131	Muslimskému	-0.1766703
-5.1505437	bratrstvu.	-0.031655297
-5.1505437	Nepřekvapí	-0.031655297
-5.1505437	pak,	-0.031655297
-4.570131	články	-0.031655297
-3.9660137	ústavy	-0.031655297
-5.1505437	odhlasovány	-0.031655297
-5.1505437	jednomyslně.	-0.031655297
-5.1505437	Text,	-0.031655297
-4.570131	němž	-0.031655297
-4.570131	hlasovalo	-0.031655297
-5.1505437	večer,	-0.031655297
-5.1505437	skládá	-0.031655297
-4.570131	234	-0.031655297
-4.570131	článků.	-0.1766703
-5.1505437	Salafistické	-0.031655297
-4.570131	strany,	-0.031655297
-4.120202	zavedení	-0.031655297
-4.570131	islámského	-0.031655297
-4.3614607	práva	-0.031655297
-5.1505437	zásadních	-0.031655297
-5.1505437	požadavků,	-0.031655297
-5.1505437	doufaly,	-0.031655297
-5.1505437	nahradí	-0.031655297
-5.1505437	termín	-0.031655297
-5.1505437	"zásady"	-0.031655297
-5.1505437	termínem	-0.031655297
-5.1505437	"pravidla",	-0.031655297
-5.1505437	umožňovalo	-0.031655297
-4.570131	přísnější	-0.031655297
-5.1505437	uplatňování.	-0.031655297
-5.1505437	islamisty	-0.031655297
-4.570131	zase	-0.031655297
-4.570131	skutečnost,	-0.1766703
-4.570131	nebyl	-0.031655297
-5.1505437	opraven,	-0.031655297
-4.120202	představuje	-0.031655297
-5.1505437	známku	-0.031655297
-5.1505437	vůle	-0.031655297
-5.1505437	respektu	-0.031655297
-3.6245012	vůči	-0.031655297
-5.1505437	součástem	-0.031655297
-4.570131	společnosti.	-0.1766703
-5.1505437	"Pokrytectví",	-0.031655297
-5.1505437	namítají	-0.031655297
-5.1505437	liberálové,	-0.031655297
-4.3614607	tom	-0.031655297
-4.3614607	vidí	-0.031655297
-5.1505437	řečnický	-0.031655297
-4.570131	problém.	-0.1766703
-5.1505437	islamizace	-0.031655297
-3.6880503	jiných	-0.031655297
-5.1505437	Zaměřují	-0.031655297
-4.570131	220,	-0.031655297
-3.9660137	univerzitě	-0.5161529
-5.1505437	al-Azhar	-0.031655297
-4.570131	poradní	-0.031655297
-5.1505437	úlohu,	-0.031655297
-5.1505437	shody	-0.031655297
-5.1505437	právem	-0.031655297
-4.570131	šaría.	-0.1766703
-5.1505437	odbornice	-0.031655297
-4.570131	Sophie	-0.031655297
-5.1505437	Pommierové	-0.031655297
-5.1505437	zneklidňující,	-0.031655297
-5.1505437	"osoby	-0.031655297
-5.1505437	povolané	-0.031655297
-4.3614607	vyjádření	-0.031655297
-5.1505437	zvoleny	-0.031655297
-3.9660137	žádnou	-0.031655297
-5.1505437	demokratickou	-0.031655297
-5.1505437	legitimitu.	-0.031655297
-5.1505437	spatřovat	-0.031655297
-5.1505437	začátky	-0.031655297
-5.1505437	teokracie".	-0.031655297
-5.1505437	Obavy	-0.031655297
-5.1505437	rozdmýchává	-0.031655297
-4.570131	příští	-0.031655297
-5.1505437	rektor	-0.031655297
-4.570131	univerzity	-0.031655297
-5.1505437	umírněný	-0.031655297
-5.1505437	stávající.	-0.031655297
-5.1505437	"Prozatím	-0.031655297
-5.1505437	neprojevil	-0.031655297
-5.1505437	náboženský	-0.031655297
-5.1505437	důsledek.	-0.031655297
-5.1505437	Souhlasí	-0.031655297
-5.1505437	"mohou	-0.031655297
-4.3614607	existovat	-0.031655297
-4.120202	ohledně	-0.031655297
-4.570131	výkladu	-0.031655297
-4.570131	článku	-0.031655297
-4.120202	něm	-0.031655297
-5.1505437	použité	-0.031655297
-5.1505437	termíny	-0.031655297
-5.1505437	náboženského	-0.031655297
-5.1505437	slovníku.	-0.031655297
-5.1505437	odkaz	-0.031655297
-5.1505437	"fiqh"	-0.031655297
-5.1505437	[islámská	-0.031655297
-4.3614607	právní	-0.031655297
-5.1505437	věda,	-0.031655297
-5.1505437	pozn.	-0.031655297
-5.1505437	red.].	-0.031655297
-4.570131	budoucnosti	-0.031655297
-5.1505437	otázka,	-0.031655297
-5.1505437	míry	-0.031655297
-4.570131	civilní	-0.031655297
-5.1505437	soudci	-0.031655297
-5.1505437	kompetentní,	-0.031655297
-5.1505437	vyjadřovat".	-0.031655297
-5.1505437	schválený	-0.031655297
-5.1505437	kritizován	-0.031655297
-5.1505437	důvodu	-0.031655297
-5.1505437	rozšířených	-0.031655297
-5.1505437	pravomocí,	-0.031655297
-4.570131	prezidentu	-0.031655297
-5.1505437	republiky.	-0.031655297
-5.1505437	Muslimské	-0.031655297
-5.1505437	bratrstvo	-0.031655297
-5.1505437	výraznému	-0.031655297
-5.1505437	bývalému	-0.031655297
-5.1505437	režimu.	-0.031655297
-5.1505437	sporné	-0.031655297
-5.1505437	místo:	-0.031655297
-5.1505437	pravomoci	-0.031655297
-5.1505437	svěřené	-0.031655297
-4.570131	armádě.	-0.1766703
-4.570131	souladu	-0.1766703
-5.1505437	přáním	-0.031655297
-4.3614607	představitelů	-0.031655297
-5.1505437	armády	-0.031655297
-5.1505437	rozpočtu	-0.031655297
-5.1505437	obranu	-0.031655297
-4.570131	provádět	-0.031655297
-5.1505437	parlament,	-0.031655297
-4.3614607	Národní	-0.031655297
-5.1505437	rada	-0.031655297
-5.1505437	obrany.	-0.031655297
-3.9660137	vojenských	-0.07482778
-5.1505437	soudech	-0.031655297
-5.1505437	zakázána	-0.031655297
-4.120202	řízení	-0.031655297
-5.1505437	civilisty,	-0.031655297
-5.1505437	požadovala	-0.031655297
-4.570131	sdružení	-0.031655297
-4.3614607	ochranu	-0.031655297
