\data\
ngram 1=14004
ngram 2=30607
ngram 3=32490

\1-grams:
-0.37991187	<unk>
-inf	<s>	-1.145058
-1.1616781	</s>
-5.1141486	strategie	-0.034628052
-4.3648286	republikánské	-0.034628022
-3.7598054	strany	-0.034628052
-3.018638	proti	-0.051420525
-5.1141486	obamovu	-0.034628052
-5.1141486	znovuzvolení	-0.034628052
-5.1141486	republikánští	-0.034628052
-5.1141486	lídři	-0.034628052
-5.1141486	odůvodnili	-0.034628052
-3.3951652	svou	-0.034628052
-4.3648286	politiku	-0.10851902
-5.1141486	nezbytností	-0.034628052
-3.9645164	boje	-0.19889699
-4.3648286	volebním	-0.034628022
-5.1141486	podvodům.	-0.034628052
-5.1141486	brennanovo	-0.034628052
-4.579083	středisko	-0.034628052
-2.9630992	však	-0.040449623
-3.6212342	takový	-0.03462808
-4.579083	podvod	-0.034628052
-4.579083	označuje	-0.19761251
-2.5300307	za	-0.09374844
-5.1141486	mýtus	-0.034628052
-2.2132337	s	-0.096175626
-3.3612752	tím,	-0.6133563
-2.1567867	že	-0.19928241
-4.120095	volební	-0.034628052
-1.9552097	je	-0.16300036
-1.7865719	v	-0.19636549
-3.8502092	usa	-0.0927008
-3.6850164	méně	-0.034628052
-5.1141486	častý	-0.034628052
-2.9899814	než	-0.044625405
-3.5163457	počet	-0.034628052
-4.120095	osob,	-0.59121525
-2.4392426	které	-0.1989649
-5.1141486	zemřou	-0.034628052
-2.6911845	po	-0.08086139
-5.1141486	zásahu	-0.034628052
-5.1141486	bleskem.	-0.034628052
-5.1141486	advokáti	-0.034628052
-4.579083	ostatně	-0.034628052
-4.120095	posledních	-0.034628052
-4.120095	deset	-0.10851902
-3.018638	let	-0.06685622
-5.1141486	zaznamenali	-0.034628052
-3.222865	pouze	-0.06269448
-3.8502092	300	-0.034628022
-3.5656312	případů	-0.034628052
-4.3648286	volebních	-0.034628022
-5.1141486	podvodů	-0.034628052
-4.3648286	usa.	-0.4662766
-4.3648286	jedno	-0.034628022
-5.1141486	jisté:	-0.034628052
-3.4720876	tato	-0.12696081
-4.3648286	nová	-0.034628052
-5.1141486	ustanovení	-0.034628052
-3.3298392	budou	-0.049996097
-3.2730668	mít	-0.034628052
-4.579083	negativní	-0.034628052
-4.120095	dopad	-0.59121525
-1.8430386	na	-0.11686944
-5.1141486	účast.	-0.034628052
-4.3648286	tomto	-0.034628052
-4.3648286	smyslu	-0.034628052
-4.120095	opatření	-0.034628052
-3.9645164	částečně	-0.034628052
-5.1141486	podkopou	-0.034628052
-3.9645164	americký	-0.034628052
-5.1141486	demokratický	-0.034628052
-4.579083	systém.	-0.19761251
-4.579083	rozdíl	-0.19761251
-2.6576684	od	-0.09503935
-5.1141486	kanady	-0.034628052
-3.1180685	mají	-0.07861365
-4.3648286	odpovědnost	-0.13623452
-4.3648286	organizaci	-0.034628022
-4.579083	federálních	-0.034628052
-3.7598054	voleb	-0.17127265
-3.9645164	jednotlivé	-0.034628052
-5.1141486	státy.	-0.034628052
-1.6417655	a	-0.10048821
-5.1141486	duchu	-0.034628052
-3.7598054	většina	-0.034628052
-3.9645164	amerických	-0.034628052
-5.1141486	vlád	-0.034628052
-3.3298392	roku	-0.078818776
-4.3648286	2009	-0.034628052
-5.1141486	vyhlašuje	-0.034628052
-3.2730668	nové	-0.034628052
-4.120095	zákony,	-0.10851902
-5.1141486	ztěžují	-0.034628052
-4.120095	proces	-0.034628052
-4.3648286	volby	-0.034628022
-2.5447006	nebo	-0.055354368
-4.579083	zápisu	-0.034628052
-2.364191	do	-0.09095713
-4.579083	volebního	-0.034628052
-5.1141486	seznamu.	-0.034628052
-3.300526	tento	-0.075439624
-5.1141486	jev	-0.034628052
-4.3648286	zaznamenal	-0.13623452
-5.1141486	rozmach	-0.034628052
-4.3648286	volbách	-0.034628052
-4.120095	listopadu	-0.034628052
-4.579083	2010,	-0.034628052
-3.5163457	během	-0.06784131
-3.9645164	nichž	-0.07000392
-5.1141486	přibylo	-0.034628052
-5.1141486	675	-0.034628052
-3.7598054	nových	-0.07000392
-5.1141486	republikánských	-0.034628052
-5.1141486	zástupců	-0.034628052
-2.3002183	ve	-0.22807345
-4.579083	26	-0.034628052
-4.120095	státech.	-0.59121525
-5.1141486	následkem	-0.034628052
-3.3951652	toho	-0.034628022
-2.859262	bylo	-0.054488704
-2.7589202	jen	-0.10114018
-3.8502092	rok	-0.034628052
-3.8502092	2011	-0.07859369
-5.1141486	předloženo	-0.034628052
-4.579083	180	-0.034628052
-4.3648286	návrhů	-0.034628022
-3.6212342	zákona	-0.2804171
-5.1141486	omezujících	-0.034628052
-4.3648286	právo	-0.034628022
-5.1141486	41	-0.034628052
-3.1180685	před	-0.051955886
-5.1141486	volbami	-0.034628052
-3.8502092	roce	-0.050917253
-5.1141486	2006	-0.034628052
-4.579083	nevyžadoval	-0.034628052
-5.1141486	voličích	-0.034628052
-4.579083	předložení	-0.034628052
-5.1141486	půkazu	-0.034628052
-4.120095	totožnosti	-0.31996545
-5.1141486	fotografií	-0.034628052
-3.4319255	žádný	-0.034628052
-4.120095	stát.	-0.59121525
-4.120095	prvním	-0.034628052
-5.1141486	státem,	-0.034628052
-2.5598836	který	-0.1765513
-4.3648286	požadavek	-0.034628022
-5.1141486	zavedl,	-0.034628052
-2.859262	byla	-0.063792914
-5.1141486	indiana.	-0.034628052
-5.1141486	Ústavnost	-0.034628052
-5.1141486	indianského	-0.034628052
-5.1141486	potvrdil	-0.034628052
-5.1141486	2008	-0.034628052
-4.3648286	nejvyšší	-0.034628022
-4.120095	soud	-0.034628052
-4.579083	úřady	-0.034628052
-5.1141486	spěchaly	-0.034628052
-5.1141486	rozšířením	-0.034628052
-3.5163457	tohoto	-0.034628052
-4.579083	postupu	-0.034628052
-2.4201617	i	-0.16166417
-4.3648286	ostatních	-0.034628022
-4.3648286	států.	-0.4662766
-3.4720876	poslední	-0.034628052
-3.4319255	dva	-0.10284241
-4.579083	roky	-0.034628052
-5.1141486	podpořily	-0.034628052
-4.3648286	návrhy	-0.034628022
-4.120095	takových	-0.034628052
-3.7598054	zákonů	-0.034628052
-4.579083	34	-0.034628052
-3.7598054	státech	-0.034628052
-3.6850164	cílem	-0.11648414
-5.1141486	přinutit	-0.034628052
-5.1141486	voliče,	-0.034628052
-2.7589202	aby	-0.23544723
-5.1141486	předkládali	-0.034628052
-5.1141486	průkazy	-0.034628052
-5.1141486	fotografií.	-0.034628052
-3.8502092	třeba	-0.049996097
-4.579083	poznamenat,	-0.19761251
-4.3648286	quebeku	-0.034628052
-3.5163457	nemají	-0.034628052
-5.1141486	američtí	-0.034628052
-4.579083	občané	-0.034628052
-5.1141486	univerzální	-0.034628052
-4.120095	průkaz	-0.3123268
-5.1141486	totožnosti,	-0.034628052
-2.497613	jako	-0.113545164
-5.1141486	karta	-0.034628052
-5.1141486	zdravotního	-0.034628052
-5.1141486	pojištění.	-0.034628052
-4.3648286	skutečnosti	-0.034628052
-5.1141486	nevlastní	-0.034628052
-4.579083	11%	-0.034628052
-4.579083	občanů,	-0.034628052
-4.579083	tj.	-0.034628052
-3.6850164	21	-0.07000392
-3.5656312	milionů	-0.03462808
-3.6850164	osob	-0.07000392
-3.8502092	věku	-0.07000392
-5.1141486	umožňujícím	-0.034628052
-5.1141486	volit,	-0.034628052
-5.1141486	vydaný	-0.034628052
-5.1141486	vládním	-0.034628052
-5.1141486	úřadem	-0.034628052
-3.018638	jejich	-0.041839898
-4.3648286	státu.	-0.4662766
-3.7598054	dále	-0.03462808
-3.5656312	nemá	-0.034628052
-3.2730668	asi	-0.034628052
-3.5656312	pět	-0.060066707
-4.120095	voličů	-0.0927008
-4.579083	2012.	-0.19761251
-5.1141486	pořízení	-0.034628052
-5.1141486	požadovaného	-0.034628052
-4.579083	průkazu	-0.19761251
-3.5163457	navíc	-0.034628052
-3.247241	stojí	-0.16045865
-3.4720876	často	-0.034628022
-3.018638	více	-0.4355266
-4.579083	sto	-0.034628052
-4.120095	dolarů.	-0.59121525
-3.9645164	omezení	-0.034628052
-1.8430386	se	-0.16559106
-5.1141486	nepřiměřeně	-0.034628052
-5.1141486	dotýkají	-0.034628052
-3.9645164	hlavně	-0.034628022
-5.1141486	mladých,	-0.034628052
-5.1141486	příslušníků	-0.034628052
-4.579083	menšin	-0.034628052
-5.1141486	nízkými	-0.034628052
-5.1141486	příjmy.	-0.034628052
-2.4551349	to	-0.13360588
-2.8911932	není	-0.07333457
-5.1141486	vše.	-0.034628052
-5.1141486	studenti,	-0.034628052
-2.7589202	kteří	-0.18457563
-2.4431615	jsou	-0.09636422
-4.579083	voliči	-0.034628052
-5.1141486	známí	-0.034628052
-3.5656312	svým	-0.05605477
-5.1141486	příklonem	-0.034628052
-2.4201617	k	-0.1193816
-4.579083	demokratickým	-0.034628052
-5.1141486	kandidátům,	-0.034628052
-3.2730668	nejsou	-0.06592794
-3.5656312	několika	-0.034628052
-5.1141486	oprávněni	-0.034628052
-4.3648286	používat	-0.034628022
-3.3951652	svůj	-0.054488704
-5.1141486	vystavený	-0.034628052
-5.1141486	školou.	-0.034628052
-3.6212342	druhé	-0.06592794
-4.120095	straně	-0.034628052
-5.1141486	tytéž	-0.034628052
-4.120095	státy	-0.034628052
-4.3648286	umožňují	-0.034628022
-5.1141486	členům	-0.034628052
-5.1141486	loveckých	-0.034628052
-5.1141486	rybářských	-0.034628052
-5.1141486	klubů,	-0.034628052
-5.1141486	volí	-0.034628052
-3.6212342	spíše	-0.06269448
-5.1141486	kandidáty,	-0.034628052
-5.1141486	karty	-0.034628052
-5.1141486	vystavené	-0.034628052
-5.1141486	těmito	-0.034628052
-4.3648286	kluby	-0.034628022
-3.018638	při	-0.049573474
-5.1141486	používat.	-0.034628052
-4.3648286	2004	-0.034628052
-3.3612752	stát	-0.051955886
-2.8911932	u	-0.120411895
-4.579083	doklad	-0.034628052
-2.3741508	o	-0.100428276
-5.1141486	občanství.	-0.034628052
-3.1778698	první	-0.04378345
-4.579083	zavedla	-0.034628052
-5.1141486	arizona.	-0.034628052
-4.579083	přijalo	-0.034628052
-5.1141486	dvanáct	-0.034628052
-4.3648286	států	-0.034628022
-5.1141486	stanoví	-0.034628052
-4.120095	povinnost	-0.034628052
-5.1141486	prokazovat,	-0.034628052
-5.1141486	americkými	-0.034628052
-5.1141486	občany.	-0.034628052
-4.579083	zjevně	-0.034628052
-5.1141486	směřují	-0.034628052
-4.120095	počtu	-0.034628052
-4.3648286	hlasů	-0.034628022
-5.1141486	hispánské	-0.034628052
-5.1141486	menšiny.	-0.034628052
-3.9645164	nutno	-0.034628052
-3.8502092	totiž	-0.034628022
-2.859262	ze	-0.11669443
-4.3648286	tří	-0.034628052
-4.579083	hispánců	-0.034628052
-4.3648286	dávají	-0.034628022
-4.3648286	přednost	-0.034628022
-4.579083	demokratické	-0.034628052
-4.579083	straně.	-0.19761251
-5.1141486	legislativci	-0.034628052
-4.579083	podpořili	-0.034628052
-4.579083	osmi	-0.034628052
-3.3951652	jež	-0.09759822
-5.1141486	ruší	-0.034628052
-4.579083	zápis	-0.19761251
-3.4720876	den	-0.05313604
-5.1141486	konání	-0.034628052
-5.1141486	voleb.	-0.034628052
-5.1141486	omezili	-0.034628052
-4.120095	skupin	-0.034628052
-5.1141486	poskytovat	-0.034628052
-3.9645164	pomoc	-0.034628052
-5.1141486	voličům,	-0.034628052
-3.9645164	chtějí	-0.034628052
-5.1141486	zapsat.	-0.034628052
-3.0040734	své	-0.04809256
-5.1141486	důsledky.	-0.034628052
-3.137102	například	-0.056779604
-5.1141486	všeobecných	-0.034628052
-5.1141486	napomohly	-0.034628052
-4.3648286	kampaně	-0.034628022
-2.3983188	pro	-0.08991865
-5.1141486	zaregistrování	-0.034628052
-4.579083	cca	-0.034628052
-3.8502092	10	-0.034628022
-4.579083	obyvatel.	-0.19761251
-5.1141486	přijatá	-0.034628052
-2.4201617	ale	-0.13401547
-5.1141486	způsobila	-0.034628052
-5.1141486	pokles	-0.034628052
-5.1141486	zapisování	-0.034628052
-4.579083	2010	-0.034628052
-4.579083	17%	-0.034628052
-3.9645164	oproti	-0.034628052
-5.1141486	2006.	-0.034628052
-4.579083	zákonodárci	-0.034628052
-3.247241	pak	-0.074033104
-3.9645164	dalších	-0.03462808
-3.7598054	pěti	-0.034628052
-4.3648286	přijali	-0.034628022
-3.6212342	zákony	-0.034628052
-4.579083	zaměřené	-0.19761251
-5.1141486	zkrácení	-0.034628052
-4.3648286	období	-0.034628022
-5.1141486	předstihu.	-0.034628052
-3.4319255	tomu	-0.077730425
-5.1141486	stejně.	-0.034628052
-4.579083	tvořili	-0.034628052
-5.1141486	pouhých	-0.034628052
-3.247241	všech	-0.04660863
-4.3648286	voličů,	-0.034628052
-5.1141486	24%	-0.034628052
-2.227372	z	-0.13864559
-4.3648286	občanů	-0.034628022
-5.1141486	hlasujících	-0.034628052
-4.3648286	druhou	-0.034628052
-4.120095	stranu	-0.034628022
-5.1141486	běloši,	-0.034628052
-4.579083	představovali	-0.034628052
-5.1141486	76%	-0.034628052
-5.1141486	46%	-0.034628052
-5.1141486	volili	-0.034628052
-4.579083	schválení	-0.034628052
-4.579083	zákonů,	-0.034628052
-5.1141486	omezují	-0.034628052
-4.579083	registraci	-0.034628052
-3.6850164	samozřejmě	-0.034628052
-3.033708	velmi	-0.060807
-5.1141486	důrazně	-0.034628052
-4.579083	postavili	-0.034628052
-4.579083	demokratičtí	-0.034628022
-5.1141486	podporovatelé.	-0.034628052
-5.1141486	guvernéři	-0.034628052
-5.1141486	zablokovali	-0.034628052
-5.1141486	vetem	-0.034628052
-3.2730668	několik	-0.045637928
-4.3648286	zákonů.	-0.4662766
-5.1141486	pozastavit	-0.034628052
-4.579083	platnost	-0.034628052
-5.1141486	nejkontroverznějších	-0.034628052
-3.5656312	dokonce	-0.10284241
-5.1141486	zasáhl	-0.034628052
-4.579083	generální	-0.034628052
-4.3648286	prokurátor	-0.034628052
-3.6212342	spojených	-0.14739092
-5.1141486	Škody	-0.034628052
-3.4720876	jim	-0.049996097
-5.1141486	zčásti	-0.034628052
-3.9645164	podařilo	-0.034628052
-5.1141486	omezit.	-0.034628052
-5.1141486	vyžadující	-0.034628052
-3.9645164	16	-0.034628052
-4.120095	nově	-0.034628052
-5.1141486	zavedená	-0.034628052
-3.9645164	pravidla	-0.034628052
-3.4319255	zcela	-0.034628052
-5.1141486	nepopiratelně	-0.034628052
-5.1141486	ztíží	-0.034628052
-4.579083	2012	-0.034628052
-4.579083	výkon	-0.034628052
-5.1141486	hlasovacího	-0.034628052
-3.7598054	práva.	-0.55536485
-4.579083	kritici	-0.034628052
-3.8502092	hovoří	-0.034628022
-3.6212342	především	-0.06269448
-5.1141486	předpojatosti	-0.034628052
-5.1141486	schválených	-0.034628052
-5.1141486	považují	-0.034628052
-5.1141486	zjevnou	-0.034628052
-4.579083	snahu	-0.034628052
-5.1141486	ovlivnit	-0.034628052
-4.579083	výsledky	-0.034628052
-5.1141486	klíčových	-0.034628052
-5.1141486	zpráva	-0.034628052
-5.1141486	brennanova	-0.034628052
-4.579083	střediska	-0.034628052
-4.3648286	ukazuje,	-0.13623452
-4.3648286	státy,	-0.034628022
-3.033708	kde	-0.1469873
-3.0655138	byly	-0.064223126
-3.3951652	tyto	-0.04660863
-5.1141486	schváleny,	-0.034628052
-4.579083	představují	-0.034628052
-5.1141486	171	-0.034628052
-5.1141486	270	-0.034628052
-5.1141486	sboru	-0.034628052
-5.1141486	volitelů	-0.034628052
-5.1141486	nezbytných	-0.034628052
-4.579083	vítězství	-0.19761251
-4.579083	prezidentských	-0.034628022
-4.579083	volbách.	-0.19761251
-3.247241	příliš	-0.047161147
-4.579083	brzy	-0.034628052
-3.1570077	to,	-0.39997724
-5.1141486	prohlásit	-0.034628052
-5.1141486	jistotou,	-0.034628052
-5.1141486	legislativní	-0.034628052
-3.9645164	změny	-0.0927008
-4.3648286	úrovni	-0.034628052
-4.120095	systému	-0.034628052
-5.1141486	výrazný	-0.034628052
-4.3648286	výsledek	-0.034628022
-4.579083	jisté	-0.034628052
-2.9763324	již	-0.060676396
-5.1141486	dnes:	-0.034628052
-5.1141486	nepříznivý	-0.034628052
-5.1141486	odhalování	-0.034628052
-3.7598054	rakoviny	-0.034628052
-5.1141486	prostaty:	-0.034628052
-4.579083	absolvovat	-0.034628052
-3.8502092	vyšetření	-0.034628052
-4.579083	ne?	-0.19761251
-5.1141486	test	-0.034628052
-4.579083	psa	-0.034628052
-4.579083	přinášel	-0.034628052
-5.1141486	leckdy	-0.034628052
-5.1141486	chybné	-0.034628052
-5.1141486	výsledky,	-0.034628052
-4.579083	nesprávně	-0.034628052
-3.6212342	či	-0.034628052
-5.1141486	pozitivní,	-0.034628052
-3.300526	což	-0.14382038
-4.579083	vedlo	-0.034628052
-3.199785	ke	-0.05892911
-5.1141486	zbytečným	-0.034628052
-5.1141486	lékařským	-0.034628052
-5.1141486	zákrokům.	-0.034628052
-3.6212342	vše	-0.06592794
-2.784069	ještě	-0.08441843
-5.1141486	zvýšilo	-0.034628052
-5.1141486	váhavost	-0.034628052
-4.120095	mužů,	-0.10851902
-2.7429285	tak	-0.08115476
-5.1141486	zdráhali	-0.034628052
-3.5656312	vůbec	-0.12558669
-4.3648286	jít.	-0.4662766
-4.3648286	nechat	-0.034628022
-5.1141486	vyšetřit	-0.034628052
-5.1141486	požádali	-0.034628052
-2.8295188	jsme	-0.10941506
-4.579083	názor	-0.034628052
-4.579083	odborníky.	-0.19761251
-5.1141486	studiích	-0.034628052
-4.3648286	prováděných	-0.034628022
-5.1141486	projevila	-0.034628052
-4.3648286	vysoká	-0.034628022
-4.3648286	míra	-0.13623452
-5.1141486	kontaminace	-0.034628052
-2.8491197	mezi	-0.10058351
-4.579083	jednotlivými	-0.034628052
-5.1141486	testovanými	-0.034628052
-5.1141486	skupinami,	-0.034628052
-3.3298392	tedy	-0.047767073
-4.3648286	obtížné	-0.034628022
-5.1141486	interpretovat	-0.034628052
-5.1141486	přinést	-0.034628052
-5.1141486	hodnotná	-0.034628052
-5.1141486	doporučení.	-0.034628052
-3.7598054	další	-0.034628052
-4.579083	studie,	-0.034628052
-5.1141486	tentokrát	-0.034628052
-5.1141486	evropská,	-0.034628052
-5.1141486	konstatovala	-0.034628052
-5.1141486	rozdílnou	-0.034628052
-5.1141486	úmrtnost	-0.034628052
-5.1141486	pacienty,	-0.034628052
-4.579083	podstoupili	-0.034628052
-5.1141486	vyšetření,	-0.034628052
-5.1141486	těmi,	-0.034628052
-4.120095	ně	-0.034628052
-5.1141486	nešli.	-0.034628052
-4.3648286	studie	-0.034628022
-2.8491197	také	-0.0719683
-5.1141486	prokázala	-0.034628052
-5.1141486	12letém	-0.034628052
-5.1141486	odstupu,	-0.034628052
-3.9645164	ti,	-0.24078421
-3.300526	kdo	-0.084671
-5.1141486	nejdou,	-0.034628052
-3.5656312	30	-0.0927008
-2.8295188	až	-0.10608804
-5.1141486	40%	-0.034628052
-3.9645164	vyšší	-0.034628052
-3.9645164	riziko	-0.034628052
-4.579083	výskytu	-0.034628052
-5.1141486	metastáz.	-0.034628052
-4.579083	doporučuji	-0.034628052
-3.9645164	50	-0.034628052
-4.579083	40	-0.034628022
-3.5656312	let,	-0.06269448
-3.4720876	pokud	-0.1189949
-4.3648286	váš	-0.034628022
-4.579083	přímý	-0.034628052
-5.1141486	příbuzný	-0.034628052
-3.247241	měl	-0.047767073
-4.579083	rakovinu	-0.034628022
-5.1141486	prostaty.	-0.034628052
-5.1141486	ohroženější	-0.034628052
-4.3648286	skupinou	-0.034628022
-3.7598054	rovněž	-0.034628052
-4.579083	muži	-0.034628052
-5.1141486	afroamerického	-0.034628052
-5.1141486	původu.	-0.034628052
-5.1141486	klíčem	-0.034628052
-5.1141486	přijmout	-0.034628052
-5.1141486	správné	-0.034628052
-5.1141486	rozhodnutí,	-0.034628052
-4.579083	jakmile	-0.034628052
-4.3648286	rakovina	-0.034628022
-5.1141486	odhalena.	-0.034628052
-3.8502092	existují	-0.034628052
-4.579083	agresivní	-0.034628052
-4.579083	druhy	-0.034628052
-3.7598054	takové	-0.034628052
-5.1141486	druhy,	-0.034628052
-5.1141486	netečné.	-0.034628052
-3.222865	dnes	-0.08202691
-4.120095	řada	-0.034628052
-5.1141486	diagnostikována,	-0.034628052
-5.1141486	neléčí,	-0.034628052
-4.120095	jelikož	-0.034628052
-4.3648286	druh	-0.034628022
-5.1141486	neohrožuje	-0.034628052
-5.1141486	životě.	-0.034628052
-5.1141486	navrhneme	-0.034628052
-5.1141486	provádění	-0.034628052
-5.1141486	aktivního	-0.034628052
-4.579083	dohledu	-0.034628052
-4.3648286	případě	-0.034628052
-5.1141486	progrese	-0.034628052
-3.9645164	nemoci	-0.034628052
-5.1141486	nabídneme	-0.034628052
-4.579083	léčbu.	-0.19761251
-3.3612752	stále	-0.05313604
-4.579083	častěji	-0.034628052
-3.3951652	větší	-0.034628052
-5.1141486	přesností	-0.034628052
-5.1141486	stanovujeme	-0.034628052
-5.1141486	kritéria,	-0.034628052
-5.1141486	pomáhají	-0.034628052
-5.1141486	rozhodování,	-0.034628052
-5.1141486	léčit	-0.034628052
-4.120095	ne.	-0.59121525
-3.9645164	přesto	-0.12558669
-5.1141486	absolvovat.	-0.034628052
-4.3648286	důležité	-0.034628052
-5.1141486	pohovor	-0.034628052
-5.1141486	lékařem	-0.034628052
-5.1141486	stanovit,	-0.034628052
-3.4720876	zda	-0.19871326
-4.579083	vhodné	-0.034628052
-5.1141486	podstoupit	-0.034628052
-4.3648286	spolupráci	-0.10851902
-3.8502092	mezinárodní	-0.034628022
-5.1141486	urologickou	-0.034628052
-4.3648286	společností	-0.034628022
-5.1141486	vytvořilo	-0.034628052
-4.3648286	hnutí	-0.034628022
-5.1141486	movember	-0.034628052
-4.579083	nástroj,	-0.034628052
-4.120095	umožňuje	-0.034628052
-5.1141486	hodnotit	-0.034628052
-4.579083	souvislosti	-0.19761251
-5.1141486	vyšetřením	-0.034628052
-5.1141486	psa.	-0.034628052
-5.1141486	prevence	-0.034628052
-4.120095	onemocnění	-0.10851902
-5.1141486	bohužel	-0.034628052
-4.3648286	neexistuje	-0.034628052
-5.1141486	zázračný	-0.034628052
-4.3648286	postup	-0.034628022
-5.1141486	prevenci	-0.034628052
-4.3648286	rakoviny.	-0.4662766
-5.1141486	odhaduje	-0.034628052
-3.4720876	se,	-0.27440462
-3.6850164	kdyby	-0.034628052
-3.6212342	všichni	-0.03462808
-4.579083	zdravě	-0.034628052
-5.1141486	jedli	-0.034628052
-4.3648286	dostatečně	-0.034628022
-5.1141486	hýbali,	-0.034628052
-4.579083	dalo	-0.034628052
-2.670766	by	-0.17654525
-5.1141486	předejít	-0.034628052
-4.3648286	30%	-0.034628022
-5.1141486	naproti	-0.034628052
-5.1141486	odhaduje,	-0.034628052
-4.120095	přibližně	-0.034628052
-5.1141486	10%	-0.034628052
-4.3648286	rakovinou	-0.034628022
-5.1141486	způsobuje	-0.034628052
-5.1141486	dědičnost.	-0.034628052
-3.7598054	nějaké	-0.034628052
-4.579083	procento	-0.034628052
-4.3648286	zůstává	-0.034628022
-5.1141486	nevysvětlené.	-0.034628052
-5.1141486	kanadskou	-0.034628052
-3.3298392	společnost	-0.10000145
-3.8502092	výzkum	-0.034628052
-4.579083	prioritou	-0.034628052
-4.120095	boj	-0.034628052
-5.1141486	kouření,	-0.034628052
-2.859262	když	-0.13890356
-4.579083	kuřáků	-0.034628052
-5.1141486	klesá.	-0.034628052
-4.579083	cigarety	-0.034628052
-5.1141486	85%	-0.034628052
-5.1141486	plic.	-0.034628052
-4.579083	rizikovým	-0.19761251
-5.1141486	faktorem	-0.034628052
-5.1141486	dalších.	-0.034628052
-5.1141486	nesmírně	-0.034628052
-5.1141486	škodí	-0.034628052
-5.1141486	lidskému	-0.034628052
-4.579083	zdraví.	-0.19761251
-5.1141486	"ještě	-0.034628052
-4.120095	1,5	-0.034628052
-4.3648286	milionu	-0.034628022
-5.1141486	kuřáků,"	-0.034628052
-4.579083	kroutí	-0.034628052
-5.1141486	hlavou	-0.034628052
-4.3648286	mluvčí	-0.034628022
-4.579083	andré	-0.034628052
-5.1141486	beaulieu.	-0.034628052
-5.1141486	povzbudivý	-0.034628052
-5.1141486	údaj:	-0.034628052
-3.9645164	poté,	-0.68812525
-2.7927866	co	-0.19870365
-5.1141486	kuřák	-0.034628052
-5.1141486	přestane	-0.034628052
-4.579083	kouřit,	-0.034628052
-4.579083	klesá	-0.034628052
-5.1141486	úmrtí	-0.034628052
-5.1141486	polovinu.	-0.034628052
-4.3648286	hmotnost	-0.10851902
-5.1141486	tělnatost	-0.034628052
-5.1141486	obezita	-0.034628052
-3.1180685	podle	-0.078818776
-5.1141486	scc	-0.034628052
-4.3648286	dalším	-0.034628052
-4.579083	výskyt	-0.034628052
-5.1141486	onemocnění.	-0.034628052
-4.579083	zvyšují	-0.034628052
-5.1141486	prsu,	-0.034628052
-4.579083	tlustého	-0.034628052
-5.1141486	střeva	-0.034628052
-5.1141486	konečníku,	-0.034628052
-5.1141486	jícnu,	-0.034628052
-5.1141486	slinivky	-0.034628052
-5.1141486	dělohy.	-0.034628052
-5.1141486	"z	-0.034628022
-4.579083	výzkumu	-0.034628052
-4.579083	vyplývá,	-0.19761251
-4.579083	pravidelná	-0.034628052
-5.1141486	tělesná	-0.034628052
-5.1141486	aktivita	-0.034628052
-3.5656312	celý	-0.060066707
-3.5656312	život	-0.05788898
-4.579083	chrání	-0.034628052
-5.1141486	střeva,"	-0.034628052
-4.120095	dodává	-0.19761251
-5.1141486	zpráva.	-0.034628052
-5.1141486	výživa	-0.034628052
-5.1141486	uvedená	-0.034628052
-3.8502092	organizace	-0.17127265
-4.579083	doporučuje	-0.034628052
-5.1141486	omezit	-0.034628052
-5.1141486	spotřebu	-0.034628052
-5.1141486	červeného	-0.034628052
-4.579083	masa.	-0.19761251
-3.9645164	vysoké	-0.034628052
-5.1141486	spotřebě	-0.034628052
-2.902381	může	-0.111195214
-4.120095	vést	-0.19889699
-5.1141486	zvýšenému	-0.034628052
-4.120095	nebezpečí	-0.034628052
-5.1141486	kolorektální	-0.034628052
-5.1141486	vyvarovat	-0.034628052
-5.1141486	uzenin,	-0.034628052
-3.6212342	platí	-0.06592794
-5.1141486	totéž.	-0.034628052
-5.1141486	konzervování	-0.034628052
-5.1141486	masa	-0.034628052
-5.1141486	uzením,	-0.034628052
-5.1141486	sušením	-0.034628052
-5.1141486	solením	-0.034628052
-4.579083	tvorbě	-0.034628052
-5.1141486	karcinogenních	-0.034628052
-5.1141486	látek.	-0.034628052
-4.579083	"mohou	-0.034628052
-4.579083	způsobit	-0.034628052
-4.579083	poškození	-0.034628052
-5.1141486	buněk	-0.034628052
-5.1141486	organismu	-0.034628052
-5.1141486	rozvoji	-0.034628052
-5.1141486	rakoviny,"	-0.034628052
-5.1141486	vitamíny	-0.034628052
-3.8502092	době	-0.08920924
-5.1141486	různí	-0.034628052
-3.6212342	vědci	-0.034628052
-5.1141486	zaměřili	-0.034628052
-5.1141486	spojitost	-0.034628052
-5.1141486	vitamínovými	-0.034628052
-5.1141486	doplňky	-0.034628052
-4.3648286	rakovinou.	-0.4662766
-4.579083	výzkumy	-0.034628052
-3.6212342	dosud	-0.034628052
-5.1141486	nepřinesly	-0.034628052
-5.1141486	jednoznačné	-0.034628052
-5.1141486	závěry.	-0.034628052
-5.1141486	vitamín	-0.034628052
-5.1141486	e	-0.034628052
-5.1141486	rozporuplné.	-0.034628052
-5.1141486	ačkoli	-0.034628052
-3.5656312	jedné	-0.15427269
-3.6850164	nich	-0.034628052
-4.3648286	dojde	-0.13623452
-4.579083	snížení	-0.034628052
-4.579083	rizika	-0.034628052
-4.579083	prostaty,	-0.034628052
-4.3648286	jiná	-0.034628022
-2.8392086	jeho	-0.034628052
-5.1141486	zvýšení.	-0.034628052
-2.9763324	ani	-0.047767073
-5.1141486	účinek	-0.034628052
-5.1141486	vitamínu	-0.034628052
-5.1141486	d	-0.034628052
-5.1141486	jednoznačně	-0.034628052
-5.1141486	prokázán.	-0.034628052
-3.9645164	pan	-0.034628022
-5.1141486	beaulieu	-0.034628052
-3.8502092	trvá	-0.19889699
-4.3648286	tom,	-0.2280054
-2.7351484	jak	-0.21857561
-5.1141486	hovořit	-0.034628052
-3.4319255	svých	-0.034628052
-5.1141486	obavách	-0.034628052
-5.1141486	precedentech	-0.034628052
-3.8502092	rodiny	-0.034628022
-5.1141486	lékařem.	-0.034628052
-5.1141486	"podrobit	-0.034628052
-4.579083	neznamená,	-0.19761251
-3.9645164	budete	-0.034628052
-5.1141486	rakovinu."	-0.034628052
-4.579083	higgsův	-0.034628022
-4.579083	boson	-0.034628022
-5.1141486	prozkoumán	-0.034628052
-3.7598054	existuje	-0.034628022
-5.1141486	názor,	-0.034628052
-5.1141486	podílí	-0.034628052
-5.1141486	mechanismu,	-0.034628052
-4.579083	odpovědný	-0.034628052
-5.1141486	veškerou	-0.034628052
-5.1141486	hmotu	-0.034628052
-4.120095	vesmíru.	-0.59121525
-5.1141486	fyziky	-0.034628052
-5.1141486	nepanuje	-0.034628052
-4.579083	stoprocentní	-0.034628052
-5.1141486	jistota,	-0.034628052
-3.4720876	jde	-0.40535587
-5.1141486	boson.	-0.034628052
-5.1141486	nepochybuje	-0.034628052
-3.9645164	máme	-0.034628052
-5.1141486	dispozici	-0.034628052
-4.120095	novou	-0.034628052
-5.1141486	částici,	-0.034628052
-2.7351484	která	-0.20064975
-4.579083	podobá	-0.034628052
-5.1141486	higgsovu	-0.034628052
-5.1141486	bosonu,	-0.034628052
-5.1141486	předpovězen	-0.034628052
-5.1141486	standardním	-0.034628052
-5.1141486	modelem.	-0.034628052
-5.1141486	data	-0.034628052
-5.1141486	zveřejněná	-0.034628052
-3.9645164	týden	-0.034628052
-5.1141486	velkého	-0.034628052
-5.1141486	fyzikálního	-0.034628052
-5.1141486	kongresu	-0.034628052
-5.1141486	kjótu	-0.034628052
-3.7598054	jej	-0.034628052
-4.579083	potvrzují,	-0.034628052
-4.579083	chybějí	-0.034628052
-4.579083	veškeré	-0.034628052
-4.579083	údaje,	-0.034628052
-3.5163457	abychom	-0.03462808
-4.120095	mohli	-0.034628052
-5.1141486	absolutní	-0.034628052
-4.579083	jistotu.	-0.19761251
-4.3648286	nicméně	-0.034628052
-5.1141486	předpokládejme,	-0.034628052
-5.1141486	boson,	-0.034628052
-5.1141486	omylu	-0.034628052
-4.3648286	jeví	-0.13623452
-5.1141486	malá,	-0.034628052
-4.579083	podívejme	-0.19761251
-5.1141486	oč	-0.034628052
-3.6212342	vlastně	-0.034628052
-5.1141486	jde.	-0.034628052
-3.9645164	světě	-0.034628022
-5.1141486	nezpochybnitelný	-0.034628052
-4.3648286	zákon,	-0.13623452
-4.579083	něhož	-0.034628052
-3.5656312	dvě	-0.034628052
-3.9645164	věci	-0.034628052
-3.8502092	nemohou	-0.082466625
-5.1141486	vyskytovat	-0.034628052
-5.1141486	stejný	-0.034628052
-4.579083	okamžik	-0.034628052
-5.1141486	stejném	-0.034628052
-4.3648286	místě.	-0.4662766
-3.5163457	toto	-0.051955886
-4.579083	pravidlo	-0.034628022
-3.7598054	nelze	-0.075301394
-5.1141486	obejít	-0.034628052
-2.51584	-	-0.13899595
-5.1141486	nepokoušejte	-0.034628052
-5.1141486	usilovně,	-0.034628052
-4.3648286	jinak	-0.034628052
-2.5300307	si	-0.06964454
-5.1141486	ublížíte.	-0.034628052
-4.579083	dělí	-0.034628052
-5.1141486	fyzikové	-0.034628052
-4.3648286	částice	-0.034628022
-5.1141486	kategorie.	-0.034628052
-5.1141486	najdeme	-0.034628052
-5.1141486	spořádané	-0.034628052
-5.1141486	občany,	-0.034628052
-3.7598054	neboli	-0.034628052
-5.1141486	fermiony,	-0.034628052
-5.1141486	poslušně	-0.034628052
-5.1141486	dodržují	-0.034628052
-5.1141486	pauliho	-0.034628052
-5.1141486	princip.	-0.034628052
-4.120095	říct,	-0.59121525
-5.1141486	bosony	-0.034628052
-5.1141486	exotická	-0.034628052
-5.1141486	zvířátka,	-0.034628052
-5.1141486	možno	-0.034628052
-5.1141486	domnívat.	-0.034628052
-4.120095	článek	-0.034628052
-5.1141486	přečtete,	-0.034628052
-3.6850164	díky	-0.034628052
-5.1141486	bosonu	-0.034628052
-5.1141486	neobvyklou	-0.034628052
-5.1141486	banalitou:	-0.034628052
-5.1141486	fotonu,	-0.034628052
-5.1141486	"částici	-0.034628052
-5.1141486	světla",	-0.034628052
-5.1141486	"nositelem"	-0.034628052
-4.579083	elektromagnetické	-0.034628052
-5.1141486	síly.	-0.034628052
-5.1141486	elektrickým	-0.034628052
-5.1141486	nábojem	-0.034628052
-5.1141486	zrychlí	-0.034628052
-4.579083	změní	-0.034628052
-5.1141486	směr,	-0.034628052
-5.1141486	"vyruší"	-0.034628052
-3.6212342	tím	-0.054488704
-4.579083	pole	-0.034628052
-5.1141486	konkrétním	-0.034628052
-4.579083	místě,	-0.034628052
-4.579083	podobně	-0.034628052
-5.1141486	oblázek	-0.034628052
-5.1141486	hozený	-0.034628052
-5.1141486	rybníka.	-0.034628052
-5.1141486	"vyrušení"	-0.034628052
-4.579083	vznikne	-0.034628052
-5.1141486	elektromagnetická	-0.034628052
-4.579083	vlna	-0.034628022
-5.1141486	(světlo,	-0.034628052
-4.120095	infračervené	-0.034628052
-5.1141486	ultrafialové	-0.034628052
-5.1141486	záření	-0.034628052
-5.1141486	atd.)	-0.034628052
-4.3648286	ničím	-0.034628022
-5.1141486	jiným	-0.034628052
-5.1141486	fotonem	-0.034628052
-3.7598054	jedním	-0.2658438
-5.1141486	bosonů,	-0.034628052
-5.1141486	"nositelů	-0.034628052
-5.1141486	síly".	-0.034628052
-5.1141486	stabilnější	-0.034628052
-5.1141486	taktéž	-0.034628052
-5.1141486	higgsovým	-0.034628052
-5.1141486	bosonem,	-0.034628052
-5.1141486	rozdílem,	-0.034628052
-5.1141486	"vyrušit"	-0.034628052
-3.8502092	jiné	-0.034628052
-4.579083	pole,	-0.034628052
-5.1141486	higgsovo	-0.034628052
-5.1141486	objevil.	-0.034628052
-5.1141486	analogie	-0.034628052
-5.1141486	elektromagnetickým	-0.034628052
-4.579083	polem	-0.13623452
-3.3298392	nám	-0.047767073
-3.9645164	znovu	-0.034628052
-5.1141486	hodí	-0.034628052
-4.579083	objasnění	-0.034628052
-4.120095	vztahu	-0.10851902
-5.1141486	higgsem	-0.034628052
-5.1141486	hmotou.	-0.034628052
-5.1141486	nereagují	-0.034628052
-3.300526	všechny	-0.03462808
-5.1141486	materiály.	-0.034628052
-5.1141486	některé,	-0.034628052
-5.1141486	magnety,	-0.034628052
-5.1141486	činí,	-0.034628052
-3.3298392	ne	-0.06477037
-4.579083	kus	-0.034628052
-5.1141486	papíru	-0.034628052
-3.3612752	nikdy	-0.12756144
-3.7598054	nebude	-0.034628052
-3.6850164	sám	-0.07000392
-3.7598054	sebe	-0.06592794
-4.579083	držet	-0.034628052
-5.1141486	ledničce.	-0.034628052
-3.3951652	stejně	-0.30167794
-4.120095	platí,	-0.59121525
-5.1141486	částice:	-0.034628052
-3.8502092	ty,	-0.13623452
-4.3648286	určitou	-0.034628022
-5.1141486	hmotu,	-0.034628052
-4.120095	zatímco	-0.034628052
-3.6850164	ostatní	-0.06269448
-5.1141486	(jako	-0.034628052
-5.1141486	foton,	-0.034628052
-5.1141486	něj)	-0.034628052
-3.3298392	ji	-0.050917253
-5.1141486	nemají.	-0.034628052
-4.120095	paní	-0.034628052
-5.1141486	nováková	-0.034628052
-5.1141486	ptá,	-0.034628052
-5.1141486	čemu	-0.034628022
-4.579083	jsou,	-0.034628052
-5.1141486	"nám	-0.034628052
-5.1141486	přinesou"?	-0.034628052
-4.579083	hlediska	-0.034628052
-5.1141486	vědy	-0.034628052
-5.1141486	potvrzení	-0.034628052
-4.3648286	platnosti	-0.034628022
-5.1141486	standardního	-0.034628052
-5.1141486	modelu	-0.034628052
-5.1141486	(sm),	-0.034628052
-5.1141486	fyzikům	-0.034628052
-5.1141486	podrobovat	-0.034628052
-5.1141486	zkoumání	-0.034628052
-5.1141486	jakýkoli	-0.034628052
-5.1141486	nesoulad	-0.034628052
-5.1141486	pozorováním	-0.034628052
-4.579083	předpověďmi	-0.034628052
-5.1141486	sm.	-0.034628052
-4.579083	potřeba	-0.034628052
-5.1141486	konstatovat,	-0.034628052
-4.579083	model	-0.034628052
-2.7927866	má	-0.09481629
-4.579083	obrovské	-0.034628052
-5.1141486	nedostatky,	-0.034628052
-5.1141486	nepřináší	-0.034628052
-3.5163457	žádné	-0.034628022
-5.1141486	gravitace	-0.034628052
-5.1141486	(ouha!)	-0.034628052
-4.579083	tmavé	-0.034628052
-5.1141486	hmoty,	-0.034628052
-3.9645164	tvoří	-0.034628052
-4.579083	80%	-0.034628052
-5.1141486	vesmírné	-0.034628052
-5.1141486	hmoty	-0.034628052
-5.1141486	(zase	-0.034628052
-5.1141486	ouha!).	-0.034628052
-4.3648286	zařízení	-0.034628052
-5.1141486	cern	-0.034628052
-4.579083	rozpory	-0.034628052
-5.1141486	neobjevilo.	-0.034628052
-5.1141486	odezvy	-0.034628052
-5.1141486	hleďte:	-0.034628052
-4.579083	samotném	-0.034628052
-4.120095	počátku	-0.034628052
-4.579083	60.	-0.034628052
-4.3648286	neměli	-0.13623452
-5.1141486	průkopníci	-0.034628052
-5.1141486	laseru	-0.034628052
-5.1141486	bellových	-0.034628052
-5.1141486	laboratořích	-0.034628052
-5.1141486	tušení	-0.034628052
-5.1141486	revoluci,	-0.034628052
-3.5163457	práce	-0.05605477
-5.1141486	vyvolá.	-0.034628052
-5.1141486	předpokládali	-0.034628052
-4.3648286	vědecké	-0.034628022
-5.1141486	využití,	-0.034628052
-3.4720876	nic	-0.034628052
-5.1141486	dalšího.	-0.034628052
-5.1141486	představte...	-0.034628052
-3.7598054	kromě	-0.0927008
-4.579083	uplatnění	-0.034628052
-5.1141486	vyplynout	-0.034628052
-5.1141486	veškerých	-0.034628052
-5.1141486	nástrojů,	-0.034628052
-5.1141486	obklopují	-0.034628052
-4.579083	výzkum.	-0.19761251
-5.1141486	tentýž	-0.034628052
-5.1141486	willard	-0.034628052
-4.579083	boyle	-0.034628052
-5.1141486	vytvořil	-0.034628052
-4.3648286	malý	-0.034628022
-5.1141486	světelný	-0.034628052
-4.579083	snímač	-0.034628052
-5.1141486	1969	-0.034628052
-4.3648286	prací	-0.034628022
-4.579083	zaměřených	-0.19761251
-5.1141486	optiku.	-0.034628052
-5.1141486	snímač,	-0.034628052
-4.579083	zpočátku	-0.034628052
-5.1141486	neplánoval,	-0.034628052
-3.4319255	nyní	-0.050917253
-4.3648286	slouží	-0.13623452
-5.1141486	"oko"	-0.034628052
-5.1141486	digitálních	-0.034628052
-5.1141486	fotoaparátů	-0.034628052
-5.1141486	vynesl	-0.034628052
-3.137102	mu	-0.044102635
-5.1141486	nobelovu	-0.034628052
-3.7598054	cenu	-0.075301394
-5.1141486	fyziku	-0.034628052
-5.1141486	2009.	-0.034628052
-4.120095	činnosti	-0.034628052
-3.3612752	kolem	-0.05313604
-5.1141486	lhc	-0.034628052
-3.9645164	nutně	-0.034628052
-3.300526	musí	-0.12348253
-4.120095	změnit	-0.034628052
-4.579083	život,	-0.034628052
-3.5656312	znamená	-0.082466625
-4.579083	ale,	-0.19761251
-4.3648286	člověk	-0.034628052
-3.6212342	opravdu	-0.034628052
-5.1141486	neví...	-0.034628052
-3.5656312	paliativní	-0.28217688
-4.120095	péče	-0.034628022
-3.6212342	nejlepší	-0.034628052
-4.120095	způsob,	-0.59121525
-5.1141486	odejít	-0.034628052
-5.1141486	života...	-0.034628052
-5.1141486	|	-0.034628052
-4.579083	le	-0.19761251
-5.1141486	devoir	-0.034628052
-4.120095	prostřednictvím	-0.034628052
-4.120095	komise	-0.0927008
-5.1141486	důstojné	-0.034628052
-5.1141486	umírání	-0.034628052
-5.1141486	quebek	-0.034628052
-3.8502092	nedávno	-0.034628052
-5.1141486	zapojil	-0.034628052
-5.1141486	choulostivé	-0.034628052
-3.8502092	otázky	-0.034628022
-3.8502092	týkající	-0.76730657
-3.7598054	konce	-0.034628052
-3.8502092	života.	-0.76730657
-5.1141486	debata	-0.034628052
-3.5163457	měla	-0.060066707
-5.1141486	zanedlouho	-0.034628052
-4.120095	pokračovat	-0.034628052
-4.3648286	současně	-0.082466625
-5.1141486	chystá	-0.034628052
-4.120095	návrh	-0.034628052
-4.579083	zákona.	-0.19761251
-3.0998344	této	-0.042036504
-3.9645164	zásadní	-0.034628052
-3.8502092	oblasti	-0.051955886
-5.1141486	zbývá	-0.034628052
-5.1141486	vykonat	-0.034628052
-4.120095	spoustu	-0.034628052
-4.579083	práce.	-0.19761251
-5.1141486	Časopis	-0.034628052
-4.579083	pokusil	-0.034628022
-4.579083	podívat	-0.034628052
-3.3951652	tuto	-0.034628052
-5.1141486	otázku	-0.034628052
-5.1141486	podrobněji.	-0.034628052
-5.1141486	necelými	-0.034628052
-3.9645164	pár	-0.034628022
-3.8502092	týdny	-0.034628022
-5.1141486	bydlel	-0.034628052
-4.579083	l.	-0.034628022
-4.120095	svém	-0.034628052
-5.1141486	bytě	-0.034628052
-5.1141486	montérégie.	-0.034628052
-5.1141486	stravovala,	-0.034628052
-5.1141486	poskytla	-0.034628052
-5.1141486	dvouletý	-0.034628052
-5.1141486	odklad.	-0.034628052
-4.3648286	"je	-0.034628052
-3.9645164	pořád	-0.034628052
-5.1141486	šok,	-0.034628052
-4.120095	tohle	-0.034628052
-5.1141486	nemůžete	-0.034628052
-5.1141486	připravit,"	-0.034628052
-4.120095	dodává.	-0.59121525
-4.579083	nemoc	-0.034628022
-5.1141486	vykonala	-0.034628052
-5.1141486	dílo:	-0.034628052
-5.1141486	nesmírná	-0.034628052
-5.1141486	slabost	-0.034628052
-5.1141486	znemožňuje	-0.034628052
-5.1141486	odebrat	-0.034628052
-5.1141486	toaletu	-0.034628052
-4.579083	najíst.	-0.19761251
-5.1141486	rezignovaně	-0.034628052
-5.1141486	dívá	-0.034628052
-5.1141486	chutně	-0.034628052
-5.1141486	vyhlížející	-0.034628052
-5.1141486	snídani	-0.034628052
-4.579083	souhlasí	-0.034628052
-5.1141486	pomůžeme	-0.034628052
-5.1141486	odvážný	-0.034628052
-5.1141486	usměje,	-0.034628052
-5.1141486	neznámými,	-0.034628052
-3.9645164	něj	-0.034628052
-5.1141486	zastavují,	-0.034628052
-5.1141486	přináší	-0.034628052
-5.1141486	léky,	-0.034628052
-4.120095	nabízejí	-0.034628052
-5.1141486	koupel.	-0.034628052
-5.1141486	odvaha	-0.034628052
-5.1141486	obyčejnou	-0.034628052
-5.1141486	smrt.	-0.034628052
-5.1141486	"mé	-0.034628052
-3.8502092	největší	-0.034628052
-5.1141486	přání	-0.034628052
-5.1141486	zbavit	-0.034628052
-5.1141486	průjmu,	-0.034628052
-3.7598054	ten	-0.034628052
-3.5163457	mě	-0.034628052
-5.1141486	ponižuje,"	-0.034628052
-4.579083	svěřuje	-0.034628052
-4.3648286	se.	-0.4662766
-4.120095	hodin	-0.034628052
-3.6850164	později	-0.11590408
-4.579083	našel	-0.034628052
-3.8502092	tým	-0.082466625
-4.579083	lékařů	-0.034628022
-3.6212342	problém	-0.034628052
-5.1141486	lék.	-0.034628052
-5.1141486	"v	-0.034628052
-4.120095	celém	-0.034628052
-4.3648286	životě	-0.034628022
-5.1141486	učí,	-0.034628052
-5.1141486	chlapi	-0.034628052
-5.1141486	močí	-0.034628052
-5.1141486	vestoje,"	-0.034628052
-3.5163457	vypráví	-0.11648414
-4.120095	pierre	-0.3123268
-5.1141486	brodeur,	-0.034628052
-5.1141486	psycholog	-0.034628052
-5.1141486	victor-gadbois.	-0.034628052
-4.3648286	vrátit	-0.034628022
-4.579083	fáze	-0.034628052
-4.3648286	dítěte	-0.034628022
-3.7598054	některé	-0.075301394
-3.5656312	lidi	-0.034628052
-5.1141486	nepřijatelným	-0.034628052
-5.1141486	ponížením.	-0.034628052
-5.1141486	"závisí	-0.034628052
-5.1141486	schopnostech	-0.034628052
-3.7598054	kterého	-0.06592794
-5.1141486	člověka",	-0.034628052
-4.579083	návrat	-0.034628052
-5.1141486	přijme,	-0.034628052
-4.120095	tvrdí	-0.034628052
-5.1141486	psycholog.	-0.034628052
-4.3648286	názoru	-0.034628052
-4.579083	řady	-0.034628052
-5.1141486	zabývají	-0.034628052
-5.1141486	péčí,	-0.034628052
-5.1141486	okamžiky	-0.034628052
-5.1141486	odehrávají	-0.034628052
-5.1141486	jádru	-0.034628052
-3.9645164	takového	-0.034628052
-5.1141486	návratu.	-0.034628052
-5.1141486	pacienti,	-0.034628052
-5.1141486	nastupují	-0.034628052
-5.1141486	domova	-0.034628052
-5.1141486	péčí	-0.034628052
-5.1141486	victor-gadbois,	-0.034628052
-4.3648286	trpí	-0.034628022
-5.1141486	prognóza	-0.034628052
-5.1141486	maximálně	-0.034628052
-3.3612752	tři	-0.049996097
-4.3648286	měsíce	-0.034628022
-5.1141486	stadiu	-0.034628052
-5.1141486	sester,	-0.034628052
-5.1141486	starají,	-0.034628052
-5.1141486	neposkytuje	-0.034628052
-5.1141486	takzvaně	-0.034628052
-5.1141486	"léčebnou"	-0.034628052
-5.1141486	péči.	-0.034628052
-5.1141486	a.,	-0.034628052
-5.1141486	89	-0.034628052
-4.120095	nejhorší	-0.034628052
-5.1141486	obavou	-0.034628052
-5.1141486	umřít	-0.034628052
-4.3648286	"na	-0.034628052
-5.1141486	udušení	-0.034628052
-5.1141486	plném	-0.034628052
-5.1141486	vědomí".	-0.034628052
-3.0998344	mi	-0.051955886
-5.1141486	umožnila	-0.034628052
-4.3648286	objevit	-0.034628022
-3.9645164	děti.	-0.68812525
-4.3648286	"mám	-0.034628022
-5.1141486	hodné	-0.034628052
-5.1141486	děti,"	-0.034628052
-2.9763324	už	-0.070950046
-3.7598054	nemám	-0.0927008
-3.8502092	žádná	-0.034628052
-5.1141486	přání,"	-0.034628052
-3.4319255	říká,	-0.368875
-5.1141486	svolí,	-0.034628052
-3.9645164	jí	-0.034628052
-4.579083	nasadili	-0.034628052
-5.1141486	dýchací	-0.034628052
-5.1141486	přístroj.	-0.034628052
-5.1141486	těší	-0.034628052
-5.1141486	následujících	-0.034628052
-5.1141486	dnech	-0.034628052
-4.579083	návštěvu	-0.034628022
-5.1141486	syna	-0.034628052
-5.1141486	itálie.	-0.034628052
-5.1141486	domově	-0.034628052
-4.3648286	victor-gadbois	-0.034628052
-5.1141486	dobrovolníků	-0.034628052
-4.120095	poskytuje	-0.034628052
-4.579083	tělo	-0.034628052
-3.5656312	pomocí	-0.034628052
-5.1141486	výživy.	-0.034628052
-4.579083	vypadá	-0.034628052
-5.1141486	péče,	-0.034628052
-5.1141486	nastupuje,	-0.034628052
-3.8502092	dělat	-0.082466625
-5.1141486	jiného.	-0.034628052
-4.579083	smrt	-0.034628052
-5.1141486	pohodlnější.	-0.034628052
-5.1141486	québeku	-0.034628052
-4.3648286	připadá	-0.034628022
-5.1141486	lůžko	-0.034628052
-4.3648286	11	-0.034628022
-4.579083	700	-0.034628052
-4.3648286	málo,	-0.10851902
-5.1141486	uvědomíme,	-0.034628052
-3.8502092	jednou	-0.034628052
-5.1141486	umřeme.	-0.034628052
-3.2730668	zde	-0.053788535
-5.1141486	pokračuje	-0.034628052
-5.1141486	optimálních	-0.034628052
-5.1141486	podmínkách,	-0.034628052
-3.7598054	vysvětluje	-0.034628052
-4.579083	dr.	-0.034628052
-4.579083	christiane	-0.034628052
-5.1141486	martelová,	-0.034628052
-3.5656312	jedna	-0.16697939
-5.1141486	lékařek	-0.034628052
-5.1141486	domově.	-0.034628052
-3.9645164	ať	-0.082466625
-4.120095	úroveň	-0.10851902
-5.1141486	fyzického,	-0.034628052
-5.1141486	emočního	-0.034628052
-5.1141486	duchovního	-0.034628052
-5.1141486	pohodlí.	-0.034628052
-5.1141486	umírá,	-0.034628052
-3.4319255	lze	-0.075301394
-4.3648286	poskytnout	-0.034628022
-5.1141486	doušek	-0.034628052
-5.1141486	brandy	-0.034628052
-5.1141486	pepsi,	-0.034628052
-5.1141486	chuti.	-0.034628052
-5.1141486	diabetici	-0.034628052
-4.579083	nemusí	-0.034628052
-5.1141486	hlídat	-0.034628052
-5.1141486	hladinu	-0.034628052
-5.1141486	cukru.	-0.034628052
-3.9645164	součástí	-0.034628052
-5.1141486	každodenního	-0.034628052
-3.9645164	včera	-0.082466625
-4.120095	večer	-0.034628052
-5.1141486	nesli	-0.034628052
-4.3648286	pivo	-0.034628022
-5.1141486	panu	-0.034628052
-5.1141486	x.,	-0.034628052
-5.1141486	noci	-0.034628052
-4.3648286	zemřel.	-0.4662766
-4.3648286	ráno	-0.034628052
-5.1141486	dopije	-0.034628052
-4.3648286	syn	-0.034628022
-5.1141486	počest	-0.034628052
-5.1141486	zesnulého	-0.034628052
-5.1141486	otce.	-0.034628052
-5.1141486	"pomáháme	-0.034628052
-5.1141486	pacientům	-0.034628052
-5.1141486	blízkým,"	-0.034628052
-4.579083	nathalie	-0.034628052
-5.1141486	savardová,	-0.034628052
-4.579083	ředitelka	-0.034628052
-5.1141486	pečovatelské	-0.034628052
-5.1141486	služby.	-0.034628052
-4.579083	jdou	-0.034628052
-4.579083	dny	-0.034628052
-3.3612752	jeden	-0.2541205
-5.1141486	druhým,	-0.034628052
-5.1141486	nepodobají	-0.034628052
-5.1141486	navzájem.	-0.034628052
-5.1141486	"už	-0.034628022
-4.120095	půl	-0.034628052
-3.3951652	vždy	-0.034628052
-5.1141486	lůžek,	-0.034628052
-4.579083	určena	-0.034628052
-4.3648286	osoby	-0.034628022
-4.3648286	45	-0.034628022
-5.1141486	let,"	-0.034628052
-5.1141486	obavami	-0.034628052
-5.1141486	doktorka	-0.034628052
-5.1141486	martelová.	-0.034628052
-5.1141486	53%	-0.034628052
-4.579083	pacientů,	-0.19761251
-4.579083	přicházejí,	-0.034628052
-3.8502092	sem	-0.034628022
-5.1141486	přijíždí	-0.034628052
-5.1141486	domovů,	-0.034628052
-5.1141486	47%	-0.034628052
-5.1141486	nemocnic.	-0.034628052
-4.3648286	problémy	-0.034628052
-5.1141486	přístupem	-0.034628052
-4.579083	péči	-0.034628052
-5.1141486	organizací,	-0.034628052
-5.1141486	domov	-0.034628052
-4.579083	domácí	-0.034628052
-5.1141486	léčbu	-0.034628052
-4.579083	grand	-0.034628052
-5.1141486	montréal,	-0.034628052
-5.1141486	specializují	-0.034628052
-4.3648286	výhradně	-0.034628022
-5.1141486	poskytovanou	-0.034628052
-5.1141486	onkologickým	-0.034628052
-4.579083	pacientům.	-0.19761251
-3.6850164	právě	-0.034628052
-5.1141486	nedostupnost	-0.034628052
-5.1141486	zdravotnické	-0.034628052
-3.8502092	vede	-0.31996545
-3.8502092	tomu,	-0.36347932
-5.1141486	specializujících	-0.034628052
-4.579083	obává	-0.034628052
-4.3648286	přijetí	-0.034628022
-5.1141486	eutanazii	-0.034628052
-5.1141486	asistované	-0.034628052
-5.1141486	sebevraždě.	-0.034628052
-5.1141486	zažila	-0.034628052
-5.1141486	pacientku,	-0.034628052
-5.1141486	strávila	-0.034628052
-3.8502092	14	-0.034628022
-4.579083	dní	-0.034628052
-5.1141486	pohotovosti	-0.034628052
-4.579083	obrovských	-0.034628052
-5.1141486	bolestech,	-0.034628052
-4.3648286	aniž	-0.4662766
-4.579083	kdokoli	-0.034628052
-4.579083	udělal	-0.034628052
-5.1141486	nezbytné	-0.034628052
-5.1141486	kroky,	-0.034628052
-5.1141486	ulevilo.	-0.034628052
-4.579083	pacienti	-0.034628052
-5.1141486	nežádali	-0.034628052
-5.1141486	usmrcení	-0.034628052
-5.1141486	důvodu,	-0.034628052
-4.579083	nedostává	-0.034628052
-4.579083	péče.	-0.19761251
-5.1141486	onkologů	-0.034628052
-4.579083	pečuje	-0.034628052
-5.1141486	pacienty	-0.034628052
-5.1141486	chvil	-0.034628052
-3.018638	bez	-0.09631766
-5.1141486	ohledu	-0.034628052
-5.1141486	nepříznivou	-0.034628052
-5.1141486	prognózu.	-0.034628052
-5.1141486	naděje	-0.034628052
-5.1141486	přežití	-0.034628052
-5.1141486	hélène	-0.034628052
-5.1141486	richardové	-0.034628052
-4.579083	minimální,	-0.034628052
-5.1141486	opustila	-0.034628052
-5.1141486	náročnou	-0.034628052
-5.1141486	chemoterapii.	-0.034628052
-2.5447006	jsem	-0.20513947
-5.1141486	onkoložce	-0.034628052
-5.1141486	sdělila,	-0.034628052
-5.1141486	končím	-0.034628052
-5.1141486	léčbou,	-0.034628052
-5.1141486	odpověděla,	-0.034628052
-5.1141486	lituje	-0.034628052
-3.5656312	toho,	-0.45062947
-5.1141486	přestávám	-0.034628052
-5.1141486	bojovat,	-0.034628052
-5.1141486	nám.	-0.034628052
-3.9645164	přitom	-0.034628052
-5.1141486	říkala,	-0.034628052
-5.1141486	konec!	-0.034628052
-4.579083	všemocná	-0.034628052
-4.579083	rozhodně	-0.034628052
-4.3648286	léčbě	-0.034628022
-5.1141486	bolesti.	-0.034628052
-5.1141486	elsie	-0.034628052
-5.1141486	monereauové,	-0.034628052
-5.1141486	ředitelky	-0.034628052
-3.3951652	společnosti	-0.054488704
-4.579083	brání	-0.034628052
-4.120095	bolesti	-0.10851902
-4.579083	8%	-0.034628052
-4.579083	případů.	-0.19761251
-5.1141486	tvářit,	-0.034628052
-4.579083	součást	-0.034628022
-5.1141486	utrpení	-0.034628052
-5.1141486	nevnímáme.	-0.034628052
-5.1141486	pacient,	-0.034628052
-5.1141486	nezbavíme	-0.034628052
-5.1141486	bolesti,	-0.034628052
-2.8911932	bude	-0.045637928
-3.7598054	možnost	-0.034628052
-4.120095	přístupu	-0.3123268
-5.1141486	paliativním	-0.034628052
-5.1141486	sedativům.	-0.034628052
-5.1141486	nemocní,	-0.034628052
-3.5656312	kterým	-0.14739092
-4.579083	poskytnuto	-0.034628052
-5.1141486	sedativum,	-0.034628052
-4.579083	říkají	-0.034628052
-5.1141486	totéž:	-0.034628052
-5.1141486	"chci	-0.034628052
-5.1141486	umřít".	-0.034628052
-4.579083	znamenat	-0.034628052
-4.579083	"chci,	-0.19761251
-3.9645164	abyste	-0.034628022
-5.1141486	poskytli	-0.034628052
-5.1141486	eutanazii",	-0.034628052
-5.1141486	zbavili	-0.034628052
-5.1141486	bolesti".	-0.034628052
-4.579083	realizaci	-0.034628052
-5.1141486	reportáže	-0.034628052
-5.1141486	umožnil	-0.034628052
-4.579083	grant	-0.034628052
-4.3648286	novináře	-0.034628022
-4.579083	kanadského	-0.034628052
-4.3648286	Ústavu	-0.034628022
-5.1141486	zdravotnictví.	-0.034628052
-4.579083	rozsáhlé	-0.034628052
-5.1141486	realitní	-0.034628052
-5.1141486	skandály	-0.034628052
-5.1141486	"obor"	-0.034628052
-4.3648286	přišel	-0.034628022
-5.1141486	quebecké	-0.034628052
-5.1141486	daňové	-0.034628052
-5.1141486	poplatníky	-0.034628052
-5.1141486	draho	-0.034628052
-3.300526	zejména	-0.085801475
-4.579083	lety	-0.034628022
-4.579083	1990	-0.034628052
-5.1141486	2000.	-0.034628052
-5.1141486	zajímavé,	-0.034628052
-3.5656312	systém	-0.03462808
-5.1141486	rozdrolil	-0.034628052
-4.3648286	doby,	-0.034628022
-5.1141486	opatření,"	-0.034628052
-2.902381	říká	-0.061449964
-5.1141486	ironicky	-0.034628052
-5.1141486	jacques	-0.034628052
-5.1141486	duchesneau,	-0.034628052
-5.1141486	quebecký	-0.034628052
-4.120095	poslanec	-0.034628052
-4.120095	bývalý	-0.0927008
-5.1141486	šéf	-0.034628052
-4.120095	policie	-0.0927008
-5.1141486	montrealu.	-0.034628052
-5.1141486	"duchesneauova	-0.034628052
-5.1141486	zpráva"	-0.034628052
-5.1141486	potvrdila	-0.034628052
-5.1141486	přímé	-0.034628052
-4.120095	spojení	-0.19761251
-5.1141486	průmyslem,	-0.034628052
-5.1141486	neprůhledným	-0.034628052
-5.1141486	financováním	-0.034628052
-4.3648286	stran	-0.034628022
-4.579083	korupcí	-0.034628052
-4.579083	státních	-0.034628052
-5.1141486	úředníků.	-0.034628052
-4.579083	"již	-0.034628052
-4.3648286	začátku	-0.034628022
-5.1141486	vyšetřování	-0.034628052
-5.1141486	2010,"	-0.034628052
-5.1141486	"ušetřilo	-0.034628052
-4.120095	ministerstvo	-0.034628052
-4.579083	dopravy	-0.034628052
-4.579083	zakázkách	-0.034628052
-5.1141486	miliardu	-0.034628052
-4.579083	dolarů,"	-0.034628052
-3.9645164	někteří	-0.034628052
-3.0823352	lidé	-0.06701897
-5.1141486	udrželi	-0.034628052
-5.1141486	uzdě	-0.034628052
-5.1141486	instinkty	-0.034628052
-3.6212342	získat	-0.034628052
-5.1141486	podíl!	-0.034628052
-5.1141486	charbonneauova	-0.034628052
-5.1141486	přivedla	-0.034628052
-5.1141486	demisi	-0.034628052
-5.1141486	starosty,"	-0.034628052
-5.1141486	nadějí,	-0.034628052
-3.9645164	podaří	-0.034628052
-5.1141486	"rozkrýt	-0.034628052
-5.1141486	lstivost	-0.034628052
-3.8502092	některých	-0.034628052
-4.579083	lidí".	-0.19761251
-5.1141486	stálá	-0.034628052
-5.1141486	jednotka	-0.034628052
-5.1141486	založená	-0.034628052
-4.579083	zapojuje	-0.034628052
-5.1141486	armádou	-0.034628052
-5.1141486	vládních	-0.034628052
-5.1141486	kontrolorů,	-0.034628052
-5.1141486	vyšetřovatelů	-0.034628052
-5.1141486	analytiků.	-0.034628052
-5.1141486	policisté	-0.034628052
-5.1141486	"marteauovy	-0.034628052
-5.1141486	družiny",	-0.034628052
-5.1141486	zajistili,	-0.034628052
-5.1141486	montrealský	-0.034628052
-5.1141486	"kartel	-0.034628052
-5.1141486	penězovodů"	-0.034628052
-4.3648286	výrazně	-0.034628022
-5.1141486	zmírnil	-0.034628052
-4.579083	nafukování	-0.034628052
-5.1141486	zakázek...	-0.034628052
-4.579083	seznamu	-0.034628052
-3.0040734	být	-0.039339505
-5.1141486	gilles	-0.034628052
-5.1141486	vaillancourt,	-0.034628052
-5.1141486	odstoupil	-0.034628052
-4.579083	funkce	-0.034628052
-5.1141486	starosty	-0.034628052
-5.1141486	obce	-0.034628052
-5.1141486	laval,	-0.034628052
-5.1141486	třetího	-0.034628052
-5.1141486	největšího	-0.034628052
-5.1141486	quebeckého	-0.034628052
-4.579083	města.	-0.034628052
-5.1141486	podezřelý	-0.034628052
-5.1141486	opakovaně	-0.034628052
-5.1141486	přijímal	-0.034628052
-5.1141486	úplatky	-0.034628052
-4.579083	výměnou	-0.19761251
-3.8502092	veřejné	-0.034628052
-5.1141486	zakázky.	-0.034628052
-4.3648286	formální	-0.034628022
-4.3648286	obvinění	-0.034628022
-5.1141486	obdrželi	-0.034628052
-4.579083	dopravní	-0.034628052
-5.1141486	inženýři	-0.034628052
-4.3648286	montrealu	-0.034628022
-5.1141486	podnikatelé	-0.034628052
-5.1141486	italského	-0.034628052
-5.1141486	původu,	-0.034628052
-4.579083	tony	-0.034628052
-5.1141486	accurso	-0.034628052
-4.579083	lino	-0.034628052
-5.1141486	zambito.	-0.034628052
-4.579083	zambito	-0.034628052
-4.3648286	vyvolal	-0.034628022
-5.1141486	senzaci	-0.034628052
-4.3648286	komisi	-0.034628022
-5.1141486	vysvětloval	-0.034628052
-5.1141486	mechanismus	-0.034628052
-5.1141486	"systému"	-0.034628052
-5.1141486	získávání	-0.034628052
-3.8502092	veřejných	-0.034628052
-5.1141486	zakázek.	-0.034628052
-2.750851	byl	-0.07983283
-4.579083	2000	-0.034628022
-5.1141486	štědrý	-0.034628052
-4.3648286	věnoval	-0.034628022
-4.579083	88	-0.034628052
-3.4319255	000	-0.05605477
-5.1141486	kanadských	-0.034628052
-3.6212342	dolarů	-0.24855964
-4.579083	(přibližně	-0.034628052
-5.1141486	68	-0.034628052
-5.1141486	euro)	-0.034628052
-5.1141486	provinčním	-0.034628052
-5.1141486	stranám,	-0.034628052
-4.579083	liberálům,	-0.034628052
-3.5163457	byli	-0.034628052
-4.120095	tehdy	-0.034628022
-4.3648286	moci.	-0.4662766
-5.1141486	přiznal	-0.034628052
-5.1141486	organizoval	-0.034628052
-3.9645164	nelegální	-0.034628052
-5.1141486	shánění	-0.034628052
-5.1141486	financí	-0.034628052
-5.1141486	bývalou	-0.034628052
-4.579083	liberální	-0.034628052
-5.1141486	vicepremiérku	-0.034628052
-5.1141486	normandeauovou.	-0.034628052
-4.579083	zakázky	-0.034628052
-5.1141486	penězovody,	-0.034628052
-4.3648286	jejichž	-0.034628022
-4.3648286	ceny	-0.034628022
-5.1141486	nadsazoval	-0.034628052
-5.1141486	fungoval	-0.034628052
-5.1141486	"systém"	-0.034628052
-5.1141486	korupce	-0.034628052
-5.1141486	čile.	-0.034628052
-5.1141486	veřejní	-0.034628052
-5.1141486	činitelé	-0.034628052
-5.1141486	sféry	-0.034628052
-5.1141486	přiznali,	-0.034628052
-4.3648286	nechali	-0.034628022
-5.1141486	vyplácet	-0.034628052
-5.1141486	odměny	-0.034628052
-5.1141486	nadhodnocovali	-0.034628052
-5.1141486	faktury	-0.034628052
-5.1141486	nepravdivých	-0.034628052
-5.1141486	víceprací.	-0.034628052
-5.1141486	základě	-0.034628052
-3.3612752	těchto	-0.034628022
-5.1141486	odhalení	-0.034628052
-5.1141486	tremblay	-0.034628052
-4.579083	začátkem	-0.034628052
-5.1141486	odstoupil,	-0.034628052
-4.120095	čímž	-0.034628052
-5.1141486	uvrhl	-0.034628052
-5.1141486	montréal	-0.034628052
-5.1141486	krize.	-0.034628052
-5.1141486	chantal	-0.034628052
-5.1141486	rouleau	-0.034628052
-5.1141486	prvními	-0.034628052
-5.1141486	montrealskými	-0.034628052
-5.1141486	poslanci,	-0.034628052
-4.579083	vydali	-0.034628052
-5.1141486	varovný	-0.034628052
-5.1141486	signál.	-0.034628052
-5.1141486	70%	-0.034628052
-4.579083	špinavých	-0.19761251
-3.8502092	peněz	-0.17127265
-5.1141486	kampaních	-0.034628052
-3.7598054	ní	-0.034628052
-5.1141486	"bolestný,	-0.034628052
-5.1141486	kladný".	-0.034628052
-4.579083	fázi	-0.034628052
-5.1141486	čištění	-0.034628052
-5.1141486	rány,	-0.034628052
-5.1141486	zřídit	-0.034628052
-5.1141486	montréalu	-0.034628052
-3.4319255	vlastní	-0.054488704
-5.1141486	vyšetřovací	-0.034628052
-5.1141486	jednotku	-0.034628052
-5.1141486	zajistit	-0.034628052
-5.1141486	dohled,	-0.034628052
-5.1141486	pochybné	-0.034628052
-5.1141486	praktiky	-0.034628052
-5.1141486	nemohly	-0.034628052
-4.579083	zpět.	-0.19761251
-5.1141486	uklízí.	-0.034628052
-5.1141486	pravidelně.	-0.034628052
-4.120095	příběh	-0.034628052
-5.1141486	očernil	-0.034628052
-5.1141486	obraz	-0.034628052
-5.1141486	zahraničí,	-0.034628052
-5.1141486	duchesneau	-0.034628052
-4.3648286	všem,	-0.034628022
-5.1141486	vysmívají,	-0.034628052
-5.1141486	podívali	-0.034628052
-5.1141486	dvorek...	-0.034628052
-5.1141486	"psg	-0.034628052
-4.579083	fc	-0.034628052
-5.1141486	barcelona!"	-0.034628052
-4.3648286	sezóně	-0.034628052
-3.3612752	jste	-0.12348253
-3.8502092	psg	-0.034628022
-5.1141486	tempo.	-0.034628052
-4.120095	vývoj	-0.034628052
-5.1141486	vysvětlujete?	-0.034628052
-5.1141486	vysvětlit	-0.034628052
-5.1141486	jednotlivci	-0.034628052
-4.3648286	šli	-0.034628022
-5.1141486	sebe,	-0.034628052
-3.9645164	naprosto	-0.034628022
-3.6850164	novým	-0.034628052
-5.1141486	rozměrem	-0.034628052
-5.1141486	psg.	-0.034628052
-4.579083	přišli	-0.034628052
-5.1141486	velcí	-0.034628052
-4.579083	hráči.	-0.19761251
-3.5656312	každý	-0.08883468
-4.120095	vedle	-0.034628052
-5.1141486	dostávám	-0.034628052
-4.579083	dále.	-0.19761251
-5.1141486	technický	-0.034628052
-4.3648286	taky	-0.034628022
-3.4720876	hodně	-0.034628022
-5.1141486	pomohl.	-0.034628052
-4.579083	zvyšovat	-0.034628052
-5.1141486	hry.	-0.034628052
-5.1141486	fotbale	-0.034628052
-3.5656312	všechno	-0.034628022
-4.579083	hrozně	-0.034628052
-5.1141486	rychle.	-0.034628052
-5.1141486	neztrácím	-0.034628052
-5.1141486	hlavu.	-0.034628052
-4.3648286	mých	-0.034628022
-4.579083	začátků	-0.19761251
-5.1141486	přípravce	-0.034628052
-5.1141486	inf	-0.034628052
-5.1141486	clairefontaine	-0.034628052
-5.1141486	přestup	-0.034628052
-5.1141486	saint-etienne	-0.034628052
-5.1141486	posouval	-0.034628052
-4.579083	stupně.	-0.19761251
-5.1141486	využíváte	-0.034628052
-5.1141486	konkurenčního	-0.034628052
-4.579083	prostředí,	-0.034628052
-5.1141486	zavedl	-0.034628052
-4.579083	carlo	-0.034628052
-5.1141486	ancelotti...	-0.034628052
-5.1141486	posily	-0.034628052
-4.3648286	léta	-0.034628022
-5.1141486	zvyklé	-0.034628052
-3.6212342	hrát	-0.0927008
-5.1141486	zápasy	-0.034628052
-5.1141486	úrovni.	-0.034628052
-5.1141486	vědí	-0.034628052
-4.3648286	také,	-0.034628022
-5.1141486	trénink	-0.034628052
-5.1141486	zásadní.	-0.034628052
-4.579083	hráč	-0.034628052
-3.7598054	já	-0.034628022
-5.1141486	chuť	-0.034628052
-5.1141486	utkání	-0.034628052
-3.6212342	chce	-0.034628052
-4.579083	podat	-0.034628022
-4.120095	maximální	-0.034628052
-4.579083	výkon.	-0.19761251
-4.3648286	ancelotti	-0.034628022
-4.120095	dává	-0.034628052
-4.579083	mým	-0.034628052
-5.1141486	postavením.	-0.034628052
-4.579083	ruce	-0.034628052
-5.1141486	asistenty,	-0.034628052
-5.1141486	claude	-0.034628052
-5.1141486	makelele,	-0.034628052
-5.1141486	hrával	-0.034628052
-5.1141486	postu	-0.034628052
-5.1141486	já.	-0.034628052
-5.1141486	rozhodující	-0.034628052
-4.3648286	slovo	-0.10851902
-5.1141486	pravou	-0.034628052
-5.1141486	chvíli?	-0.034628052
-5.1141486	samozřejmě.	-0.034628052
-5.1141486	respekt	-0.034628052
-5.1141486	techniků.	-0.034628052
-4.120095	1.	-0.10851902
-4.579083	lize	-0.034628022
-4.120095	sobě	-0.034628052
-5.1141486	rovného	-0.034628052
-3.5163457	patří	-0.180667
-3.8502092	evropské	-0.034628022
-5.1141486	trenéry.	-0.034628052
-4.120095	zkušenosti	-0.034628052
-5.1141486	špičkovými	-0.034628052
-4.579083	týmy	-0.034628052
-3.9645164	získal	-0.034628052
-5.1141486	titulů.	-0.034628052
-4.3648286	pracoval	-0.034628022
-5.1141486	vynikajícími	-0.034628052
-4.579083	vyhraje	-0.034628052
-5.1141486	paříži	-0.034628052
-5.1141486	tituly.	-0.034628052
-4.3648286	sebou	-0.034628052
-3.9645164	řadu	-0.034628052
-5.1141486	zranění.	-0.034628052
-5.1141486	důvěra,	-0.034628052
-3.1778698	kterou	-0.082712606
-5.1141486	poskytuje,	-0.034628052
-5.1141486	důvodem	-0.034628052
-3.8502092	mé	-0.034628052
-5.1141486	výkonnosti.	-0.034628052
-5.1141486	díváte	-0.034628052
-3.7598054	část	-0.034628052
-4.579083	sezóny	-0.034628052
-5.1141486	psg?	-0.034628052
-4.3648286	lyon	-0.034628022
-5.1141486	sebral	-0.034628052
-5.1141486	čelní	-0.034628052
-4.3648286	pozici.	-0.4662766
-5.1141486	zůstáváme	-0.034628052
-5.1141486	závěsu.	-0.034628052
-4.3648286	našich	-0.034628052
-4.3648286	hlavních	-0.034628052
-5.1141486	cílů	-0.034628052
-4.579083	liga	-0.034628052
-5.1141486	mistrů:	-0.034628052
-3.9645164	snadno	-0.034628052
-5.1141486	postoupili	-0.034628052
-5.1141486	osmifinále.	-0.034628052
-4.120095	jaký	-0.034628052
-4.579083	klub	-0.034628052
-5.1141486	soutěži	-0.034628052
-5.1141486	cíl?	-0.034628052
-5.1141486	pokusíme	-0.034628052
-3.9645164	jít	-0.0927008
-5.1141486	nejdále.	-0.034628052
-3.8502092	teď	-0.034628052
-5.1141486	cokoli.	-0.034628052
-5.1141486	krátkodobém	-0.034628052
-4.579083	horizontu	-0.034628052
-3.8502092	velkým	-0.13623452
-5.1141486	evropským	-0.034628052
-5.1141486	klubem?	-0.034628052
-4.579083	rozpočet	-0.034628052
-5.1141486	má...	-0.034628052
-5.1141486	paříž	-0.034628052
-4.3648286	stala	-0.034628052
-5.1141486	klubem,	-0.034628052
-4.579083	vyhrát	-0.034628052
-4.579083	tituly	-0.19761251
-5.1141486	zapsat	-0.034628052
-4.579083	historie.	-0.19761251
-4.3648286	není.	-0.13623452
-3.7598054	finanční	-0.034628052
-4.579083	stránce	-0.034628052
-4.579083	prostředky,	-0.19761251
-4.3648286	tenhle	-0.034628022
-5.1141486	záměr	-0.034628052
-5.1141486	povedlo	-0.034628052
-5.1141486	uskutečnit.	-0.034628052
-5.1141486	samozřejmě,	-0.034628052
-3.6212342	velké	-0.034628052
-4.579083	zklamání.	-0.19761251
-4.579083	letos	-0.034628052
-3.8502092	chceme	-0.034628022
-5.1141486	ligový	-0.034628052
-5.1141486	titul.	-0.034628052
-5.1141486	loňské	-0.034628052
-3.6850164	dost	-0.07000392
-5.1141486	chybělo.	-0.034628052
-5.1141486	květnu	-0.034628022
-5.1141486	zklamaní,	-0.034628052
-2.9630992	protože	-0.10510795
-3.3612752	měli	-0.034628052
-5.1141486	vyhráli.	-0.034628052
-5.1141486	výbornou	-0.034628052
-5.1141486	sezónu.	-0.034628052
-5.1141486	nasbírali	-0.034628052
-4.579083	79	-0.034628052
-5.1141486	bodů.	-0.034628052
-3.8502092	obvykle	-0.034628022
-5.1141486	body	-0.034628052
-4.579083	jasný	-0.034628052
-5.1141486	mistr...	-0.034628052
-5.1141486	jenže	-0.034628052
-4.3648286	jiný	-0.034628022
-4.579083	klub,	-0.034628052
-5.1141486	montpellier,	-0.034628052
-4.579083	sezónu	-0.034628052
-5.1141486	úžasnější.	-0.034628052
-3.9645164	myslím,	-0.48841804
-5.1141486	povede.	-0.034628052
-4.579083	titul	-0.034628052
-5.1141486	usilují	-0.034628052
-5.1141486	týmy,	-0.034628052
-4.579083	marseille,	-0.034628052
-5.1141486	bordeaux,	-0.034628052
-5.1141486	zbraně,	-0.034628052
-5.1141486	porazili.	-0.034628052
-4.579083	myslíte	-0.034628052
-3.6212342	si,	-0.5418142
-4.3648286	média	-0.034628022
-5.1141486	očekávají	-0.034628052
-5.1141486	příliš?	-0.034628052
-4.579083	neobvyklé	-0.034628052
-5.1141486	očekávat	-0.034628052
-3.3612752	nás	-0.052526526
-3.9645164	vzhledem	-0.4092368
-3.2730668	tu	-0.034628052
-5.1141486	investovalo	-0.034628052
-3.9645164	jaké	-0.034628022
-4.3648286	hráče.	-0.4662766
-5.1141486	přijímáme.	-0.034628052
-4.579083	fakt,	-0.19761251
-4.3648286	doma	-0.034628022
-5.1141486	porazíme	-0.034628052
-5.1141486	troyes	-0.034628052
-4.579083	4:0	-0.034628052
-5.1141486	najde	-0.034628052
-4.3648286	něco,	-0.4662766
-5.1141486	novinách	-0.034628052
-5.1141486	vyčítají,	-0.034628052
-5.1141486	zrovna	-0.034628052
-4.579083	příjemné.	-0.19761251
-5.1141486	Člověk	-0.034628052
-3.5656312	vás	-0.03462808
-5.1141486	můžou	-0.034628052
-5.1141486	chtít	-0.034628052
-5.1141486	víc.	-0.034628052
-4.3648286	nejde	-0.034628052
-5.1141486	vyhrávat	-0.034628052
-4.579083	každém	-0.034628022
-5.1141486	víkendu.	-0.034628052
-4.3648286	nejsme	-0.034628022
-5.1141486	barcelona!	-0.034628052
-4.3648286	snažíme	-0.4662766
-4.579083	nastavit	-0.034628052
-5.1141486	herní	-0.034628052
-5.1141486	styl.	-0.034628052
-4.579083	vybudování	-0.034628052
-4.3648286	týmu	-0.034628022
-5.1141486	potřebujete	-0.034628052
-4.579083	čas.	-0.19761251
-5.1141486	mistrů	-0.034628052
-5.1141486	dokázali,	-0.034628052
-5.1141486	umíme.	-0.034628052
-5.1141486	podívejte	-0.034628052
-5.1141486	manchester	-0.034628052
-5.1141486	city,	-0.034628052
-5.1141486	neprobojoval	-0.034628052
-5.1141486	osmifinále,	-0.034628052
-5.1141486	investovali	-0.034628052
-5.1141486	částky!	-0.034628052
-5.1141486	investovaným	-0.034628052
-5.1141486	sumám	-0.034628052
-5.1141486	čekat,	-0.034628052
-5.1141486	ostatními	-0.034628052
-3.6850164	15	-0.034628052
-5.1141486	bodů	-0.034628052
-5.1141486	náskok!	-0.034628052
-5.1141486	urážíte	-0.034628052
-4.579083	francouzskou	-0.034628052
-5.1141486	ligu.	-0.034628052
-5.1141486	nedařilo,	-0.034628052
-5.1141486	posunuly	-0.034628052
-5.1141486	fáze.	-0.034628052
-4.579083	doufám,	-0.19761251
-3.6850164	budeme	-0.09966008
-3.8502092	moci	-0.034628052
-5.1141486	usmívat	-0.034628052
-4.579083	říkat	-0.034628052
-3.9645164	navzdory	-0.034628052
-4.120095	všem	-0.034628052
-5.1141486	těžkostem	-0.034628052
-5.1141486	zvítězit.	-0.034628052
-3.9645164	zdá	-0.27063024
-5.1141486	spoléhalo	-0.034628052
-5.1141486	výkony	-0.034628052
-5.1141486	zlatana	-0.034628052
-5.1141486	ibrahimoviče.	-0.034628052
-4.579083	dobře,	-0.034628052
-5.1141486	"závislost	-0.034628052
-5.1141486	zlatanovi".	-0.034628052
-5.1141486	znamená,	-0.034628052
-5.1141486	ibrahimovič	-0.034628052
-5.1141486	výkonný	-0.034628052
-5.1141486	gólů.	-0.034628052
-3.5163457	kvůli	-0.05788898
-5.1141486	prokazuje,	-0.034628052
-4.579083	hvězdou	-0.034628052
-5.1141486	ligy.	-0.034628052
-4.579083	našem	-0.034628052
-5.1141486	respektujeme	-0.034628052
-3.6850164	člověka	-0.07000392
-4.3648286	on	-0.034628052
-5.1141486	respektuje	-0.034628052
-5.1141486	lidi,	-0.034628052
-5.1141486	má.	-0.034628052
-4.120095	čeho	-0.0927008
-5.1141486	dosáhl,	-0.034628052
-5.1141486	výjimečné.	-0.034628052
-5.1141486	zvýšili	-0.034628052
-5.1141486	thiago	-0.034628052
-5.1141486	silva,	-0.034628052
-4.3648286	nejlepším	-0.034628022
-5.1141486	obráncům	-0.034628052
-4.3648286	světě,	-0.034628052
-4.3648286	ostatním	-0.034628022
-5.1141486	růst.	-0.034628052
-5.1141486	prožíval	-0.034628052
-4.579083	euro	-0.034628052
-5.1141486	reprezentací?	-0.034628052
-4.579083	zranění	-0.034628052
-3.9645164	nemohl	-0.034628052
-3.8502092	tak,	-0.13623452
-3.4720876	bych	-0.05605477
-5.1141486	představoval.	-0.034628052
-5.1141486	zažil	-0.034628052
-5.1141486	vyšel	-0.034628052
-5.1141486	silnější.	-0.034628052
-4.3648286	daří	-0.034628022
-5.1141486	reprezentaci	-0.034628052
-3.5656312	dobré	-0.034628052
-4.579083	zápasy.	-0.19761251
-5.1141486	doufal	-0.034628052
-3.3951652	svého	-0.034628022
-4.3648286	nástupu	-0.034628022
-5.1141486	reprezentace.	-0.034628052
-5.1141486	poučili	-0.034628052
-4.3648286	stalo	-0.034628052
-5.1141486	ukrajině,	-0.034628052
-5.1141486	dlužíme	-0.034628052
-3.9645164	sami	-0.0927008
-5.1141486	sobě,	-0.034628052
-3.6850164	naše	-0.034628052
-5.1141486	vystupování	-0.034628052
-5.1141486	příkladné.	-0.034628052
-5.1141486	didiera	-0.034628052
-5.1141486	deschampse	-0.034628052
-5.1141486	čele	-0.034628052
-4.120095	národního	-0.034628052
-5.1141486	týmu?	-0.034628052
-5.1141486	výsledky.	-0.034628052
-5.1141486	kvalifikaci	-0.034628052
-5.1141486	ms	-0.034628052
-5.1141486	dobrém	-0.034628052
-5.1141486	trenér	-0.034628052
-5.1141486	vybírá	-0.034628052
-5.1141486	přísně,	-0.034628052
-5.1141486	hráčům	-0.034628052
-5.1141486	nablízku	-0.034628052
-4.120095	dokáže	-0.034628052
-5.1141486	nadchnout	-0.034628052
-4.579083	vítězství.	-0.19761251
-5.1141486	laurent	-0.034628052
-5.1141486	blanc.	-0.034628052
-5.1141486	nechci	-0.034628052
-5.1141486	srovnávat.	-0.034628052
-5.1141486	blanc	-0.034628052
-4.579083	dosáhl	-0.19761251
-4.579083	cíle	-0.034628052
-5.1141486	kvalifikovali	-0.034628052
-5.1141486	euro.	-0.034628052
-5.1141486	didier	-0.034628052
-5.1141486	deschamps	-0.034628052
-4.579083	dovede	-0.034628052
-4.3648286	náš	-0.034628022
-5.1141486	brazílie.	-0.034628052
-5.1141486	remíza	-0.034628052
-5.1141486	(1:1)	-0.034628052
-5.1141486	16.	-0.034628052
-4.579083	října	-0.034628052
-5.1141486	Španělsku	-0.034628052
-5.1141486	solidním	-0.034628052
-5.1141486	výchozím	-0.034628052
-5.1141486	zápasem?	-0.034628052
-4.3648286	zápas	-0.034628022
-4.579083	dodal	-0.034628052
-5.1141486	sebevědomí.	-0.034628052
-5.1141486	bojovali	-0.034628052
-5.1141486	tým.	-0.034628052
-3.8502092	tímto	-0.06592794
-5.1141486	šokem	-0.034628052
-5.1141486	kariéru	-0.034628052
-5.1141486	nezažil.	-0.034628052
-4.579083	bitcoinu	-0.034628052
-3.3951652	můžete	-0.050917253
-4.120095	platit	-0.034628052
-4.3648286	prodávat	-0.034628022
-5.1141486	bank	-0.034628052
-4.3648286	všechna	-0.034628052
-5.1141486	negativa	-0.034628052
-4.579083	současných	-0.034628052
-4.579083	finančních	-0.034628052
-4.579083	transakcí	-0.034628052
-5.1141486	založených	-0.034628052
-5.1141486	centrálních	-0.034628052
-5.1141486	bankách,	-0.034628052
-5.1141486	identifikovaných	-0.034628052
-5.1141486	transakcích	-0.034628052
-5.1141486	nákladech	-0.034628052
-4.579083	zpracování	-0.034628052
-5.1141486	příjemci.	-0.034628052
-5.1141486	rámci	-0.034628052
-4.3648286	technologií	-0.034628022
-5.1141486	pravdou,	-0.034628052
-4.3648286	cítit	-0.034628022
-5.1141486	zjevný	-0.034628052
-4.120095	politický	-0.034628052
-5.1141486	výhled:	-0.034628052
-5.1141486	přesvědčení,	-0.034628052
-5.1141486	stávající	-0.034628052
-4.579083	postavený	-0.034628052
-5.1141486	bankovních	-0.034628052
-5.1141486	monopolech	-0.034628052
-5.1141486	finančním	-0.034628052
-5.1141486	krizím.	-0.034628052
-5.1141486	tisícovka	-0.034628052
-4.120095	webových	-0.19761251
-4.3648286	stránek	-0.034628052
-4.579083	přijímá	-0.034628052
-4.579083	bitcoiny	-0.034628052
-5.1141486	dárky	-0.034628052
-5.1141486	platební	-0.034628052
-5.1141486	prostředek.	-0.034628052
-5.1141486	porovnání	-0.034628052
-4.3648286	světovou	-0.034628022
-5.1141486	reálné	-0.034628052
-3.6212342	peníze	-0.06269448
-5.1141486	produkty	-0.034628052
-5.1141486	impozantního.	-0.034628052
-3.9645164	evropská	-0.034628052
-4.579083	centrální	-0.034628052
-5.1141486	banka	-0.034628052
-5.1141486	(ecb)	-0.034628052
-5.1141486	skutečnost	-0.034628052
-4.579083	zajímá	-0.034628052
-5.1141486	zprávě	-0.034628052
-4.579083	virtuálních	-0.034628052
-5.1141486	financích,	-0.034628052
-4.579083	vyšla	-0.034628052
-5.1141486	říjnu.	-0.034628052
-4.120095	bitcoin	-0.034628052
-5.1141486	"nejúspěšnější	-0.034628052
-3.8502092	virtuální	-0.034628022
-5.1141486	peníze",	-0.034628052
-5.1141486	"konkurující	-0.034628052
-5.1141486	dolaru	-0.034628052
-5.1141486	euru"	-0.034628052
-5.1141486	"obdobu	-0.034628052
-4.120095	běžných	-0.10851902
-5.1141486	peněz".	-0.034628052
-4.120095	měsíc	-0.034628052
-5.1141486	ústřední	-0.034628052
-5.1141486	orgán	-0.034628052
-4.579083	kontroluje	-0.034628052
-5.1141486	zpracovává	-0.034628052
-5.1141486	komunikace.	-0.034628052
-4.579083	uzly	-0.034628052
-4.3648286	sítě	-0.034628022
-5.1141486	depozitáři	-0.034628052
-4.579083	knihy	-0.034628052
-5.1141486	účtů,	-0.034628052
-5.1141486	kontrolory,	-0.034628052
-5.1141486	emitenty	-0.034628052
-5.1141486	kupujícími	-0.034628052
-5.1141486	prodávajícími.	-0.034628052
-4.120095	síť	-0.034628052
-5.1141486	funguje?	-0.034628052
-4.3648286	každá	-0.034628022
-4.3648286	transakce	-0.034628022
-4.3648286	dvěma	-0.034628052
-4.579083	uživateli	-0.034628052
-4.120095	probíhá	-0.034628052
-5.1141486	elektronickými	-0.034628052
-5.1141486	adresami	-0.034628052
-5.1141486	e-mailu.	-0.034628052
-4.579083	uživatel	-0.034628052
-5.1141486	zvolit	-0.034628052
-4.579083	jinou	-0.034628022
-5.1141486	adresu	-0.034628052
-4.579083	každou	-0.034628052
-5.1141486	platbu,	-0.034628052
-5.1141486	zajišťuje	-0.034628052
-5.1141486	anonymitu.	-0.034628052
-4.579083	soubor	-0.034628052
-4.120095	informací	-0.034628052
-5.1141486	související	-0.034628052
-4.579083	touto	-0.034628022
-5.1141486	elektronicky	-0.034628052
-5.1141486	podepsán	-0.034628052
-5.1141486	šifrovacím	-0.034628052
-4.579083	systémem	-0.034628052
-5.1141486	dvojitým	-0.034628052
-5.1141486	klíčem.	-0.034628052
-5.1141486	ověřit	-0.034628052
-5.1141486	oprávněnost	-0.034628052
-5.1141486	transakce.	-0.034628052
-5.1141486	obsahu	-0.034628052
-4.579083	souboru	-0.034628052
-3.9645164	možné	-0.034628052
-5.1141486	zajistit,	-0.034628052
-5.1141486	vyměněné	-0.034628052
-4.3648286	existovaly	-0.034628022
-4.579083	knize	-0.034628052
-5.1141486	distribuována	-0.034628052
-4.579083	celé	-0.034628052
-5.1141486	síti.	-0.034628052
-5.1141486	klíčová	-0.034628052
-4.579083	spočívá	-0.034628052
-4.3648286	knihy.	-0.4662766
-4.3648286	jedná	-0.13623452
-5.1141486	rozřezání	-0.034628052
-5.1141486	souboru;	-0.034628052
-5.1141486	transformaci	-0.034628052
-5.1141486	obrovského	-0.034628052
-5.1141486	kratší	-0.034628052
-4.3648286	jedinečný	-0.034628022
-4.579083	digitální	-0.034628052
-5.1141486	otisk.	-0.034628052
-4.3648286	najít	-0.034628022
-5.1141486	číslo,	-0.034628052
-4.3648286	konkrétní	-0.034628022
-5.1141486	otisk	-0.034628052
-5.1141486	(hodně	-0.034628052
-5.1141486	nul	-0.034628052
-5.1141486	začátku).	-0.034628052
-5.1141486	číslo	-0.034628052
-5.1141486	najde,	-0.034628052
-5.1141486	zkontrolují	-0.034628052
-5.1141486	správnost.	-0.034628052
-5.1141486	nezničitelně	-0.034628052
-5.1141486	zobrazí	-0.034628052
-5.1141486	napojená	-0.034628052
-5.1141486	řetězec	-0.034628052
-5.1141486	transakcí;	-0.034628052
-5.1141486	jakoukoli	-0.034628052
-5.1141486	úpravou	-0.034628052
-3.6850164	došlo	-0.10851902
-5.1141486	změně	-0.034628052
-5.1141486	otisku.	-0.034628052
-5.1141486	počítač,	-0.034628052
-5.1141486	výzvu	-0.034628052
-5.1141486	vyřeší,	-0.034628052
-4.579083	bitcoinů.	-0.19761251
-4.3648286	bitcoinů	-0.034628022
-4.579083	oběhu	-0.034628052
-4.579083	omezen	-0.034628052
-5.1141486	počtem	-0.034628052
-5.1141486	milionů,	-0.034628052
-5.1141486	dělit	-0.034628052
-5.1141486	stomilióntinu,	-0.034628052
-3.6212342	takže	-0.049996097
-4.120095	prostor	-0.10851902
-5.1141486	marži	-0.034628052
-5.1141486	je...	-0.034628052
-4.579083	webové	-0.034628052
-5.1141486	stránky,	-0.034628052
-5.1141486	zajišťují	-0.034628052
-5.1141486	služby,	-0.034628052
-5.1141486	napadeny	-0.034628052
-5.1141486	odcizení	-0.034628052
-5.1141486	uložených	-0.034628052
-5.1141486	"využitá	-0.034628052
-5.1141486	skulina	-0.034628052
-5.1141486	netýká	-0.034628052
-4.579083	samotného	-0.034628052
-5.1141486	protokolu,"	-0.034628052
-5.1141486	ujišťuje	-0.034628052
-5.1141486	noizat,	-0.034628052
-4.579083	založil	-0.034628052
-5.1141486	paymium,	-0.034628052
-5.1141486	platby	-0.034628052
-4.3648286	skutečnými	-0.034628022
-5.1141486	penězi,	-0.034628052
-5.1141486	využívá	-0.034628052
-5.1141486	bitcoin.	-0.034628052
-5.1141486	ecb	-0.034628052
-4.579083	možnosti	-0.034628052
-5.1141486	praní	-0.034628052
-5.1141486	anonymní	-0.034628052
-5.1141486	službě.	-0.034628052
-5.1141486	hotovost.	-0.034628052
-4.3648286	významní	-0.034628022
-5.1141486	hráči	-0.034628052
-5.1141486	wikipedia	-0.034628052
-4.579083	odmítají	-0.034628052
-4.579083	dary	-0.034628052
-5.1141486	povahy.	-0.034628052
-4.3648286	jiní,	-0.034628022
-5.1141486	platforma	-0.034628052
-5.1141486	blogů	-0.034628052
-5.1141486	wordpress,	-0.034628052
-5.1141486	přijímají.	-0.034628052
-5.1141486	adi	-0.034628052
-5.1141486	shamir	-0.034628052
-5.1141486	dorit	-0.034628052
-5.1141486	ron	-0.034628052
-5.1141486	weizmannova	-0.034628052
-4.120095	ústavu	-0.24078421
-4.579083	izraeli	-0.034628052
-5.1141486	analyzovali	-0.034628052
-4.3648286	knihu	-0.034628022
-5.1141486	účtů	-0.034628052
-5.1141486	prokázali,	-0.034628052
-3.3298392	téměř	-0.034628052
-5.1141486	neobíhá.	-0.034628052
-5.1141486	zahájeny	-0.034628052
-5.1141486	"obrovské	-0.034628052
-5.1141486	slevy".	-0.034628052
-5.1141486	"bylo	-0.034628022
-5.1141486	vyměněno	-0.034628052
-5.1141486	třicet	-0.034628052
-3.6850164	tisíc	-0.034628052
-5.1141486	raduje	-0.034628052
-5.1141486	jon	-0.034628052
-5.1141486	holmquist,	-0.034628052
-5.1141486	pracuje	-0.034628052
-5.1141486	coinabul	-0.034628052
-4.579083	zabývající	-0.19761251
-5.1141486	přeměnou	-0.034628052
-5.1141486	zlato.	-0.034628052
-5.1141486	autorem	-0.034628052
-5.1141486	pedagogické	-0.034628052
-4.579083	peněz,	-0.034628052
-3.6850164	velkou	-0.07000392
-5.1141486	důvěru	-0.034628052
-4.120095	potenciál	-0.034628052
-4.3648286	technologie	-0.034628022
-5.1141486	jakožto	-0.034628052
-5.1141486	transakční	-0.034628052
-4.579083	sítě.	-0.19761251
-4.579083	systém,	-0.034628052
-5.1141486	paytunia,	-0.034628052
-5.1141486	ekvivalentní	-0.034628052
-5.1141486	kreditní	-0.034628052
-5.1141486	kartě	-0.034628052
-5.1141486	(se	-0.034628052
-5.1141486	penězi)	-0.034628052
-5.1141486	bezkontaktnímu	-0.034628052
-5.1141486	placení	-0.034628052
-5.1141486	mobilem,	-0.034628052
-3.9645164	používá	-0.034628052
-4.579083	ověřování	-0.034628052
-5.1141486	transakcí,	-0.034628052
-5.1141486	levnější.	-0.034628052
-5.1141486	nositel	-0.034628052
-4.579083	spravuje	-0.034628052
-5.1141486	totožnost	-0.034628052
-4.120095	zůstat	-0.034628052
-5.1141486	anonymní.	-0.034628052
-5.1141486	nastavuje	-0.034628052
-5.1141486	obchodníků,	-0.034628052
-4.579083	zapotřebí	-0.034628052
-5.1141486	instalovat	-0.034628052
-5.1141486	terminály	-0.034628052
-5.1141486	software.	-0.034628052
-4.3648286	stačí	-0.034628022
-5.1141486	sdělit	-0.034628052
-5.1141486	adresu,	-0.034628052
-5.1141486	telefonem	-0.034628052
-5.1141486	"ofotografovat	-0.034628052
-5.1141486	rozpoznat",	-0.034628052
-5.1141486	upřesňuje	-0.034628052
-5.1141486	ujišťuje,	-0.034628052
-4.3648286	tisíce	-0.034628022
-5.1141486	uživatelů.	-0.034628052
-4.120095	dochází	-0.3123268
-5.1141486	obecnému	-0.034628052
-4.3648286	pohybu	-0.034628022
-5.1141486	zpochybňování	-0.034628052
-5.1141486	hierarchických	-0.034628052
-4.3648286	systémů	-0.034628022
-5.1141486	přechodu	-0.034628052
-5.1141486	horizontálnějším	-0.034628052
-5.1141486	systémům.	-0.034628052
-5.1141486	"než	-0.034628052
-5.1141486	prosadí,	-0.034628052
-4.579083	chvíli	-0.034628022
-5.1141486	potrvá,	-0.034628052
-4.3648286	2013	-0.034628022
-3.9645164	mohl	-0.075301394
-5.1141486	rozhodující,"	-0.034628052
-5.1141486	předpovídá.	-0.034628052
-4.579083	předpokládá	-0.034628052
-5.1141486	přehodnocení	-0.034628052
-3.6850164	různých	-0.034628052
-5.1141486	rizik,	-0.034628052
-4.579083	považována	-0.034628052
-5.1141486	zvýšená,	-0.034628052
-5.1141486	úspěšný.	-0.034628052
-4.579083	odešli	-0.034628052
-5.1141486	afghánistánu.	-0.034628052
-5.1141486	dál?	-0.034628052
-5.1141486	francouzské	-0.034628052
-4.3648286	jednotky	-0.034628022
-5.1141486	opustily	-0.034628052
-4.579083	oblast	-0.034628052
-4.579083	odpovědnosti	-0.034628052
-5.1141486	afghánistánu	-0.034628052
-5.1141486	(kapisa	-0.034628052
-5.1141486	surobi).	-0.034628052
-5.1141486	nato	-0.034628052
-3.8502092	americké	-0.034628022
-3.9645164	měly	-0.034628052
-5.1141486	následovat	-0.034628052
-4.3648286	koncem	-0.034628022
-4.579083	2014.	-0.19761251
-5.1141486	čase,	-0.034628052
-4.579083	afghánská	-0.034628052
-4.579083	armáda	-0.034628022
-5.1141486	převzala	-0.034628052
-4.579083	kontrolu	-0.034628052
-3.4720876	nad	-0.034628022
-5.1141486	územím	-0.034628052
-4.579083	afghánci	-0.034628052
-4.579083	zvolili	-0.034628052
-4.579083	budoucnost	-0.034628052
-5.1141486	nečekali	-0.034628052
-5.1141486	nás.	-0.034628052
-5.1141486	újmu	-0.034628052
-5.1141486	utrpěli	-0.034628052
-5.1141486	afghánském	-0.034628052
-5.1141486	venkově,	-0.034628052
-5.1141486	trestali,	-0.034628052
-4.579083	považovali	-0.034628052
-5.1141486	teroristy.	-0.034628052
-3.8502092	my	-0.060066707
-4.3648286	vždyť	-0.034628022
-5.1141486	zabitých	-0.034628052
-5.1141486	vojáků,	-0.034628052
-3.9645164	ti	-0.034628052
-5.1141486	zmrzačení.	-0.034628052
-4.579083	bránit	-0.034628052
-5.1141486	starodávné	-0.034628052
-5.1141486	archaické	-0.034628052
-5.1141486	tradice,	-0.034628052
-4.579083	nim	-0.034628022
-5.1141486	přidali	-0.034628052
-5.1141486	džihádisté,	-0.034628052
-5.1141486	pakistánci,	-0.034628052
-5.1141486	arabové,	-0.034628052
-5.1141486	uzbekové,	-0.034628052
-5.1141486	tádžikové.	-0.034628052
-5.1141486	konvoje	-0.034628052
-5.1141486	kamionů	-0.034628052
-5.1141486	pancéřovaných	-0.034628052
-5.1141486	vozidel	-0.034628052
-5.1141486	dorazily	-0.034628052
-4.579083	kábulu	-0.034628022
-5.1141486	napadení	-0.034628052
-5.1141486	vzdušného	-0.034628052
-5.1141486	doprovodu	-0.034628052
-5.1141486	helikoptér.	-0.034628052
-5.1141486	2014	-0.034628052
-4.3648286	nebudou	-0.034628022
-4.579083	talibánci	-0.034628052
-5.1141486	aktivní.	-0.034628052
-5.1141486	nezastavitelného	-0.034628052
-3.4720876	letech	-0.06592794
-4.579083	1994	-0.034628022
-5.1141486	1996	-0.034628052
-3.8502092	podmínky	-0.034628022
-5.1141486	značně	-0.034628052
-5.1141486	změnily.	-0.034628052
-5.1141486	kábul	-0.034628052
-5.1141486	tenkrát	-0.034628052
-5.1141486	prázdný	-0.034628052
-3.3951652	země	-0.05313604
-5.1141486	krvi	-0.034628052
-5.1141486	ohni	-0.034628052
-5.1141486	důsledku	-0.034628052
-4.579083	bojů	-0.034628052
-4.3648286	různými	-0.034628022
-5.1141486	odbojovými	-0.034628052
-5.1141486	skupinami.	-0.034628052
-4.579083	převzetí	-0.034628052
-4.3648286	kontroly	-0.034628022
-3.9645164	zemí	-0.034628052
-4.3648286	považováno	-0.4662766
-4.579083	druhu	-0.034628052
-5.1141486	osvobození,	-0.034628052
-4.579083	bezpečnosti.	-0.19761251
-5.1141486	zaplatili	-0.034628052
-4.579083	tmářství	-0.034628052
-5.1141486	venkovanů,	-0.034628052
-5.1141486	ovládla	-0.034628052
-5.1141486	al-ká'ida,	-0.034628052
-3.5656312	situace	-0.060066707
-3.9645164	naší	-0.034628052
-4.3648286	doby	-0.034628052
-5.1141486	nezlepšila.	-0.034628052
-5.1141486	někdejší	-0.034628052
-5.1141486	mudžáhedíni,	-0.034628052
-3.6850164	vláda	-0.06269448
-5.1141486	současní	-0.034628052
-5.1141486	shodují	-0.034628052
-4.579083	snaze	-0.034628022
-5.1141486	zachovat	-0.034628052
-3.8502092	ženy	-0.082466625
-5.1141486	podřízeném	-0.034628052
-4.579083	postavení.	-0.19761251
-3.5163457	hlavní	-0.03462808
-5.1141486	hodnostáři	-0.034628052
-4.579083	války	-0.034628052
-5.1141486	sovětským	-0.034628052
-5.1141486	jednotkám	-0.034628052
-5.1141486	vrátili	-0.034628052
-5.1141486	2001	-0.034628052
-5.1141486	stali	-0.034628052
-5.1141486	kšeftaři,	-0.034628052
-5.1141486	zmocňovali	-0.034628052
-5.1141486	pozemků,	-0.034628052
-5.1141486	prodávali	-0.034628052
-4.579083	stavební	-0.034628052
-5.1141486	pozemky	-0.034628052
-5.1141486	uprchlíkům	-0.034628052
-4.579083	Íránu	-0.034628022
-5.1141486	pákistánu,	-0.034628052
-5.1141486	využívali	-0.034628052
-4.579083	zakázek	-0.034628052
-5.1141486	subdodavatele.	-0.034628052
-5.1141486	zaslechl	-0.034628052
-5.1141486	kampaních,	-0.034628052
-5.1141486	touží	-0.034628052
-5.1141486	vládě,	-0.034628052
-4.579083	tvořit	-0.034628052
-5.1141486	zloději.	-0.034628052
-5.1141486	Řada	-0.034628052
-3.9645164	mladých	-0.034628052
-5.1141486	odjet	-0.034628052
-5.1141486	odjedou	-0.034628052
-4.579083	dokázali	-0.034628052
-4.3648286	využít	-0.034628022
-5.1141486	štědrosti:	-0.034628052
-5.1141486	únik	-0.034628052
-4.3648286	kapitálu	-0.034628022
-5.1141486	značný.	-0.034628052
-4.120095	mladé	-0.034628052
-5.1141486	unavuje	-0.034628052
-5.1141486	válka	-0.034628052
-4.579083	spojené	-0.034628052
-5.1141486	ideologie.	-0.034628052
-5.1141486	vyhnanství	-0.034628052
-5.1141486	pákistánu	-0.034628052
-5.1141486	poznali	-0.034628052
-3.8502092	moderní	-0.034628022
-3.6850164	svět	-0.034628052
-5.1141486	výhody	-0.034628052
-5.1141486	zaujaly.	-0.034628052
-5.1141486	65%	-0.034628052
-4.579083	obyvatelstva	-0.19761251
-5.1141486	mladší	-0.034628052
-4.120095	25	-0.034628052
-5.1141486	let;	-0.034628052
-3.7598054	žije	-0.075301394
-5.1141486	současnosti	-0.034628052
-4.579083	5	-0.034628052
-4.579083	obyvatel,	-0.034628052
-5.1141486	pětina	-0.034628052
-4.3648286	celkové	-0.034628022
-5.1141486	populace.	-0.034628052
-4.579083	městech	-0.19761251
-3.5163457	státní	-0.060066707
-4.579083	školy	-0.034628052
-5.1141486	plné,	-0.034628052
-4.579083	chodí	-0.034628052
-3.1570077	tam	-0.053788535
-5.1141486	dívky	-0.034628052
-5.1141486	chlapci.	-0.034628052
-4.579083	těmto	-0.034628052
-5.1141486	mladým	-0.034628052
-4.120095	lidem	-0.034628052
-4.3648286	práci,	-0.034628022
-4.3648286	oni	-0.034628052
-4.3648286	nechtějí	-0.034628022
-4.579083	dřívějších	-0.034628052
-4.579083	korupci	-0.034628052
-5.1141486	představitelů.	-0.034628052
-5.1141486	všichni,	-0.034628052
-3.8502092	včetně	-0.034628022
-5.1141486	ozbrojené	-0.034628052
-5.1141486	opozice,	-0.034628052
-4.120095	rádi	-0.034628052
-5.1141486	mobilní	-0.034628052
-5.1141486	telefony;	-0.034628052
-5.1141486	televizi	-0.034628052
-4.579083	turecké	-0.034628052
-5.1141486	seriály,	-0.034628052
-5.1141486	ukazují	-0.034628052
-4.579083	svět,	-0.034628052
-5.1141486	sledují	-0.034628052
-5.1141486	všude.	-0.034628052
-5.1141486	přítomna.	-0.034628052
-5.1141486	úřady,	-0.034628052
-5.1141486	postaví	-0.034628052
-4.579083	jejího	-0.034628022
-5.1141486	čela,	-0.034628052
-4.579083	považovány	-0.19761251
-5.1141486	legitimní?	-0.034628052
-5.1141486	velitelé	-0.034628052
-5.1141486	sovětské	-0.034628052
-5.1141486	armádě	-0.034628052
-5.1141486	obnovují	-0.034628052
-5.1141486	provinční	-0.034628052
-5.1141486	milice,	-0.034628052
-3.5656312	mimo	-0.18273504
-3.4319255	prezident	-0.08920924
-5.1141486	karzáí	-0.034628052
-5.1141486	nechce	-0.034628052
-3.6212342	zahraniční	-0.06269448
-5.1141486	kontroly,	-0.034628052
-4.3648286	příležitosti	-0.034628022
-5.1141486	plánovaných	-0.034628052
-5.1141486	duben	-0.034628052
-4.579083	50.	-0.034628052
-4.579083	závislá	-0.19761251
-5.1141486	pomoci.	-0.034628052
-5.1141486	Žádný	-0.034628022
-4.579083	průmysl	-0.034628052
-5.1141486	nepodařilo	-0.034628052
-5.1141486	obnovit,	-0.034628052
-5.1141486	přehrada	-0.034628052
-5.1141486	nefunguje,	-0.034628052
-5.1141486	opraven	-0.034628052
-5.1141486	zavlažovací	-0.034628052
-5.1141486	dováží;	-0.034628052
-5.1141486	nevyrábí,	-0.034628052
-4.579083	ovoce	-0.19761251
-5.1141486	zelenina.	-0.034628052
-5.1141486	soukromá	-0.034628052
-5.1141486	iniciativa.	-0.034628052
-3.5656312	zemi	-0.049996097
-5.1141486	zničené	-0.034628052
-4.3648286	třemi	-0.034628022
-5.1141486	desetiletími	-0.034628052
-4.579083	válek	-0.034628052
-5.1141486	nezbytná	-0.034628052
-4.3648286	vládní	-0.034628052
-4.3648286	kontrola	-0.034628052
-4.579083	infrastruktury.	-0.19761251
-5.1141486	roznesly	-0.034628052
-5.1141486	zvěsti,	-0.034628052
-4.579083	afghánistán	-0.034628052
-5.1141486	disponuje	-0.034628052
-4.579083	obrovským	-0.034628052
-5.1141486	nerostným	-0.034628052
-5.1141486	bohatstvím.	-0.034628052
-5.1141486	přiživilo	-0.034628052
-4.3648286	pocit,	-0.4662766
-4.579083	západní	-0.034628052
-3.9645164	proto,	-0.4092368
-5.1141486	zmocnily.	-0.034628052
-5.1141486	energie	-0.034628052
-5.1141486	železné	-0.034628052
-5.1141486	rudy	-0.034628052
-5.1141486	mědi	-0.034628052
-5.1141486	místě	-0.034628052
-4.579083	prostředků	-0.034628052
-5.1141486	přepravu	-0.034628052
-5.1141486	surovin	-0.034628052
-3.5163457	přes	-0.034628052
-4.579083	hory	-0.034628052
-5.1141486	těžba	-0.034628052
-5.1141486	nerostů	-0.034628052
-4.579083	probíhat	-0.034628052
-5.1141486	nemůže.	-0.034628052
-3.6212342	jednoho	-0.24972808
-4.3648286	dne	-0.034628052
-5.1141486	třeba,	-0.034628052
-5.1141486	pákistán,	-0.034628052
-4.579083	kterém	-0.075301394
-5.1141486	závisí	-0.034628052
-3.7598054	velká	-0.075301394
-5.1141486	dovozu	-0.034628052
-5.1141486	vývozu,	-0.034628052
-5.1141486	obnovily	-0.034628052
-4.120095	normální	-0.034628052
-4.3648286	vztahy.	-0.4662766
-5.1141486	odchod	-0.034628052
-5.1141486	francouzských	-0.034628052
-5.1141486	bojových	-0.034628052
-5.1141486	jednotek	-0.034628052
-5.1141486	dokončen	-0.034628052
-4.120095	20.	-0.034628052
-5.1141486	listopadu.	-0.034628052
-3.9645164	práce,	-0.034628052
-4.579083	zapojilo	-0.034628052
-3.6850164	množství	-0.034628052
-4.3648286	místních	-0.034628022
-4.579083	pracovníků,	-0.034628052
-5.1141486	pomohly	-0.034628052
-5.1141486	utlumit	-0.034628052
-5.1141486	povstání:	-0.034628052
-5.1141486	zavlažování,	-0.034628052
-5.1141486	studny,	-0.034628052
-5.1141486	pitná	-0.034628052
-4.579083	voda,	-0.034628052
-5.1141486	zalesnění,	-0.034628052
-4.579083	ovocné	-0.034628052
-5.1141486	stromy,	-0.034628052
-4.579083	ochrana	-0.034628052
-5.1141486	půdy	-0.034628052
-5.1141486	rozšiřování	-0.034628052
-5.1141486	obdělávatelné	-0.034628052
-5.1141486	plochy.	-0.034628052
-4.3648286	jakou	-0.034628022
-5.1141486	vzpomínku	-0.034628052
-5.1141486	necháme	-0.034628052
-3.6212342	dvou	-0.03462808
-5.1141486	miliardách	-0.034628052
-3.9645164	eur	-0.034628052
-5.1141486	armádních	-0.034628052
-5.1141486	výdajů?	-0.034628052
-3.5163457	mnohem	-0.05788898
-5.1141486	skromnější	-0.034628052
-4.579083	přispěl	-0.034628052
-5.1141486	zlepšení	-0.034628052
-4.3648286	životních	-0.034628022
-5.1141486	podmínek,	-0.034628052
-5.1141486	náročné	-0.034628052
-5.1141486	údolích,	-0.034628052
-4.579083	nacházejí	-0.034628022
-5.1141486	nadmořské	-0.034628052
-4.3648286	výšce	-0.034628052
-4.579083	2	-0.034628052
-4.579083	m.	-0.034628052
-5.1141486	velvyslanectví	-0.034628052
-5.1141486	obdrželo	-0.034628052
-4.579083	desítky	-0.034628052
-5.1141486	písemných	-0.034628052
-4.579083	žádostí	-0.19761251
-5.1141486	drobnou	-0.034628052
-5.1141486	zemědělskou	-0.034628052
-5.1141486	společenství	-0.034628052
-5.1141486	provincii	-0.034628052
-5.1141486	kapisa.	-0.034628052
-4.3648286	egyptské	-0.034628022
-3.9645164	ústavě	-0.034628052
-5.1141486	muhammad	-0.034628052
-4.120095	mursí	-0.034628052
-5.1141486	pustil	-0.034628052
-5.1141486	partie	-0.034628052
-5.1141486	pokeru.	-0.034628052
-4.120095	egypt	-0.034628052
-4.3648286	historii	-0.034628022
-3.8502092	nejvíce	-0.034628022
-5.1141486	rozdělený	-0.034628052
-5.1141486	vyhlášení	-0.034628052
-4.579083	ústavy,	-0.034628052
-5.1141486	dočasně	-0.034628052
-4.579083	uděluje	-0.034628052
-5.1141486	neomezené	-0.034628052
-5.1141486	pravomoci,	-0.034628052
-4.3648286	rozhodl	-0.13623452
-5.1141486	vabank.	-0.034628052
-4.579083	středu	-0.034628022
-4.579083	oznámil	-0.034628052
-5.1141486	ostatních,	-0.034628052
-4.579083	Ústavodárné	-0.19761251
-4.3648286	shromáždění	-0.10851902
-5.1141486	nazítří	-0.034628052
-5.1141486	schválí	-0.034628052
-4.579083	závěrečné	-0.034628052
-5.1141486	znění.	-0.034628052
-5.1141486	provizorní	-0.034628052
-4.579083	text,	-0.034628052
-4.579083	mnohokrát	-0.034628052
-5.1141486	doplňován,	-0.034628052
-5.1141486	oslabuje	-0.034628052
-3.9645164	ústavní	-0.034628052
-5.1141486	stabilitu	-0.034628052
-4.579083	právním	-0.034628052
-5.1141486	dohadům.	-0.034628052
-5.1141486	iniciativa	-0.034628052
-5.1141486	posílila	-0.034628052
-4.579083	rozpolcenost	-0.13623452
-3.9645164	země.	-0.68812525
-4.120095	pohledu	-0.10851902
-4.120095	opozice	-0.034628052
-5.1141486	setrvává	-0.034628052
-5.1141486	"autokratickém	-0.034628052
-5.1141486	deliriu",	-0.034628052
-3.9645164	nadále	-0.034628052
-5.1141486	"porušuje	-0.034628052
-5.1141486	slovo"	-0.034628052
-5.1141486	"pošlapává	-0.034628052
-5.1141486	právo".	-0.034628052
-4.579083	stoupenci	-0.034628052
-4.579083	ujišťují,	-0.19761251
-5.1141486	prostředek,	-0.034628052
-5.1141486	nejrychleji	-0.034628052
-5.1141486	zatočit	-0.034628052
-4.3648286	politickou	-0.034628022
-5.1141486	krizí	-0.034628052
-5.1141486	zrychlit	-0.034628052
-5.1141486	přechodný	-0.034628052
-5.1141486	proces.	-0.034628052
-3.7598054	mělo	-0.15164962
-5.1141486	konat	-0.034628052
-5.1141486	referendum.	-0.034628052
-5.1141486	krátký	-0.034628052
-5.1141486	časový	-0.034628052
-5.1141486	úsek,	-0.034628052
-5.1141486	donutí	-0.034628052
-4.579083	bratrstvo	-0.034628022
-5.1141486	odstoupit	-0.034628052
-5.1141486	záměru	-0.034628052
-4.3648286	text	-0.034628022
-4.579083	egypťanům	-0.034628052
-5.1141486	objasnit	-0.034628052
-4.579083	článku.	-0.19761251
-3.6850164	prezidenta	-0.034628052
-3.9645164	dosáhnout	-0.034628052
-3.6212342	národní	-0.034628052
-5.1141486	legitimity,	-0.034628052
-3.9645164	celou	-0.075301394
-5.1141486	zmítají	-0.034628052
-5.1141486	protesty.	-0.034628052
-5.1141486	zvláštním	-0.034628052
-5.1141486	ovzduší	-0.034628052
-5.1141486	85	-0.034628052
-5.1141486	poslanců	-0.034628052
-5.1141486	zmiňovaného	-0.034628052
-5.1141486	ústavodárného	-0.034628052
-3.5656312	většinou	-0.034628052
-4.579083	islamistů	-0.034628052
-5.1141486	schválilo.	-0.034628052
-4.579083	liberálů	-0.034628052
-3.9645164	hlasování	-0.034628022
-5.1141486	chyběla.	-0.034628052
-5.1141486	polovině	-0.034628022
-5.1141486	listopadu,	-0.034628052
-5.1141486	nedlouho	-0.034628052
-5.1141486	vyhlášením	-0.034628052
-5.1141486	bouchli	-0.034628052
-5.1141486	dveřmi	-0.034628052
-4.579083	prosadit	-0.034628052
-4.579083	názory.	-0.19761251
-5.1141486	obhájci	-0.034628022
-4.120095	lidských	-0.10851902
-5.1141486	práv,	-0.034628052
-4.579083	občanské	-0.034628052
-5.1141486	příslušníci	-0.034628052
-4.579083	náboženských	-0.034628052
-4.579083	krok	-0.034628052
-5.1141486	napodobili.	-0.034628052
-5.1141486	dosaženo	-0.034628052
-5.1141486	usnášeníschopnosti,	-0.034628052
-5.1141486	spěšně	-0.034628052
-5.1141486	doplněno	-0.034628052
-5.1141486	řad	-0.034628052
-5.1141486	náhradníků.	-0.034628052
-5.1141486	blízcí	-0.034628052
-4.579083	muslimskému	-0.19761251
-5.1141486	bratrstvu.	-0.034628052
-5.1141486	nepřekvapí	-0.034628052
-5.1141486	pak,	-0.034628052
-4.579083	články	-0.034628052
-3.9645164	ústavy	-0.034628022
-5.1141486	odhlasovány	-0.034628052
-5.1141486	jednomyslně.	-0.034628052
-4.579083	němž	-0.034628052
-4.579083	hlasovalo	-0.034628052
-5.1141486	večer,	-0.034628052
-5.1141486	skládá	-0.034628052
-4.579083	234	-0.034628052
-4.579083	článků.	-0.19761251
-5.1141486	salafistické	-0.034628052
-4.579083	strany,	-0.034628052
-4.120095	zavedení	-0.034628052
-4.579083	islámského	-0.034628052
-4.3648286	práva	-0.034628052
-5.1141486	zásadních	-0.034628052
-5.1141486	požadavků,	-0.034628052
-5.1141486	doufaly,	-0.034628052
-5.1141486	nahradí	-0.034628052
-5.1141486	termín	-0.034628052
-5.1141486	"zásady"	-0.034628052
-5.1141486	termínem	-0.034628052
-5.1141486	"pravidla",	-0.034628052
-5.1141486	umožňovalo	-0.034628052
-4.579083	přísnější	-0.034628052
-5.1141486	uplatňování.	-0.034628052
-5.1141486	islamisty	-0.034628052
-4.579083	zase	-0.034628052
-4.579083	skutečnost,	-0.19761251
-4.579083	nebyl	-0.034628052
-5.1141486	opraven,	-0.034628052
-4.120095	představuje	-0.034628052
-5.1141486	známku	-0.034628052
-5.1141486	vůle	-0.034628052
-5.1141486	respektu	-0.034628052
-3.6212342	vůči	-0.034628052
-5.1141486	součástem	-0.034628052
-4.579083	společnosti.	-0.19761251
-5.1141486	"pokrytectví",	-0.034628052
-5.1141486	namítají	-0.034628052
-5.1141486	liberálové,	-0.034628052
-4.3648286	tom	-0.034628022
-4.120095	vidí	-0.034628052
-5.1141486	řečnický	-0.034628052
-4.579083	problém.	-0.19761251
-5.1141486	islamizace	-0.034628052
-3.6850164	jiných	-0.034628052
-5.1141486	zaměřují	-0.034628052
-4.579083	220,	-0.034628052
-3.9645164	univerzitě	-0.31996545
-5.1141486	al-azhar	-0.034628052
-4.579083	poradní	-0.034628052
-5.1141486	úlohu,	-0.034628052
-5.1141486	shody	-0.034628052
-5.1141486	právem	-0.034628052
-4.579083	šaría.	-0.19761251
-5.1141486	odbornice	-0.034628052
-4.579083	sophie	-0.034628052
-5.1141486	pommierové	-0.034628052
-5.1141486	zneklidňující,	-0.034628052
-5.1141486	"osoby	-0.034628052
-5.1141486	povolané	-0.034628052
-4.3648286	vyjádření	-0.034628022
-5.1141486	zvoleny	-0.034628052
-3.9645164	žádnou	-0.034628052
-5.1141486	demokratickou	-0.034628052
-5.1141486	legitimitu.	-0.034628052
-5.1141486	spatřovat	-0.034628052
-5.1141486	začátky	-0.034628052
-5.1141486	teokracie".	-0.034628052
-5.1141486	obavy	-0.034628052
-5.1141486	rozdmýchává	-0.034628052
-4.579083	příští	-0.034628022
-5.1141486	rektor	-0.034628052
-4.3648286	univerzity	-0.13623452
-5.1141486	umírněný	-0.034628052
-5.1141486	stávající.	-0.034628052
-5.1141486	"prozatím	-0.034628052
-5.1141486	neprojevil	-0.034628052
-5.1141486	náboženský	-0.034628052
-5.1141486	důsledek.	-0.034628052
-4.3648286	existovat	-0.034628022
-4.120095	ohledně	-0.034628052
-4.579083	výkladu	-0.034628052
-4.579083	článku	-0.034628052
-4.3648286	něm	-0.034628052
-5.1141486	použité	-0.034628052
-5.1141486	termíny	-0.034628052
-5.1141486	náboženského	-0.034628052
-5.1141486	slovníku.	-0.034628052
-5.1141486	odkaz	-0.034628052
-5.1141486	"fiqh"	-0.034628052
-5.1141486	[islámská	-0.034628052
-4.3648286	právní	-0.034628022
-5.1141486	věda,	-0.034628052
-5.1141486	pozn.	-0.034628052
-5.1141486	red.].	-0.034628052
-4.579083	budoucnosti	-0.034628052
-5.1141486	otázka,	-0.034628052
-5.1141486	míry	-0.034628052
-4.3648286	civilní	-0.034628022
-5.1141486	soudci	-0.034628052
-5.1141486	kompetentní,	-0.034628052
-5.1141486	vyjadřovat".	-0.034628052
-5.1141486	schválený	-0.034628052
-5.1141486	kritizován	-0.034628052
-5.1141486	důvodu	-0.034628052
-5.1141486	rozšířených	-0.034628052
-5.1141486	pravomocí,	-0.034628052
-4.579083	prezidentu	-0.034628052
-5.1141486	republiky.	-0.034628052
-5.1141486	muslimské	-0.034628052
-5.1141486	výraznému	-0.034628052
-5.1141486	bývalému	-0.034628052
-5.1141486	režimu.	-0.034628052
-5.1141486	sporné	-0.034628052
-5.1141486	místo:	-0.034628052
-5.1141486	pravomoci	-0.034628052
-5.1141486	svěřené	-0.034628052
-4.579083	armádě.	-0.19761251
-5.1141486	souladu	-0.034628052
-5.1141486	přáním	-0.034628052
-4.3648286	představitelů	-0.034628022
-5.1141486	armády	-0.034628052
-5.1141486	rozpočtu	-0.034628052
-5.1141486	obranu	-0.034628052
-4.579083	provádět	-0.034628052
-5.1141486	parlament,	-0.034628052
-5.1141486	rada	-0.034628052
-5.1141486	obrany.	-0.034628052
-3.9645164	vojenských	-0.082466625
-5.1141486	soudech	-0.034628052
-5.1141486	zakázána	-0.034628052
-4.120095	řízení	-0.034628052
-5.1141486	civilisty,	-0.034628052
-5.1141486	požadovala	-0.034628052
-4.579083	sdružení	-0.034628052
-4.3648286	ochranu	-0.034628022
-5.1141486	práv.	-0.034628052
-5.1141486	textem,	-0.034628052
-5.1141486	namířen	-0.034628052
-5.1141486	svobodě,	-0.034628052
-5.1141486	pochybnostech.	-0.034628052
-5.1141486	trestný	-0.034628052
-5.1141486	čin	-0.034628052
-5.1141486	rouhání	-0.034628052
-5.1141486	zachován	-0.034628052
-5.1141486	urážka	-0.034628052
-5.1141486	zakázána,	-0.034628052
-3.9645164	mohlo	-0.034628022
-5.1141486	vážné	-0.034628052
-5.1141486	důsledky	-0.034628052
-4.579083	svobodu	-0.034628052
-5.1141486	vyjadřování,	-0.034628052
-5.1141486	tisk.	-0.034628052
-5.1141486	nezabývá	-0.034628052
-5.1141486	ochranou	-0.034628052
-5.1141486	žen,	-0.034628052
-5.1141486	zdůrazňuje	-0.034628052
-5.1141486	heba	-0.034628052
-5.1141486	morayefová	-0.034628052
-5.1141486	human	-0.034628052
-5.1141486	rights	-0.034628052
-5.1141486	watch.	-0.034628052
-3.9645164	jediným	-0.034628022
-5.1141486	kladným	-0.034628052
-4.579083	bodem	-0.034628052
-4.3648286	zákaz	-0.034628022
-5.1141486	mučení	-0.034628052
-5.1141486	uvedený	-0.034628052
-5.1141486	36.	-0.034628052
-3.6850164	nebylo	-0.034628052
-5.1141486	předchozí	-0.034628052
-5.1141486	zmíněno.	-0.034628052
-4.579083	egyptský	-0.19761251
-5.1141486	vystoupit	-0.034628052
-4.579083	televizním	-0.034628022
-5.1141486	projevu,	-0.034628052
-4.3648286	dnešní	-0.034628022
-5.1141486	odpoledne	-0.034628052
-5.1141486	naplánovány	-0.034628052
-5.1141486	manifestace.	-0.034628052
-4.579083	hlavy	-0.034628052
-3.6850164	státu	-0.034628052
-5.1141486	manifestovat	-0.034628052
-5.1141486	sobotu.	-0.034628052
-5.1141486	čekají	-0.034628052
-5.1141486	ukrajinské	-0.034628052
-4.579083	turisty	-0.034628052
-5.1141486	svatá	-0.034628052
-5.1141486	místa,	-0.034628052
-5.1141486	pupek	-0.034628052
-3.6850164	světa	-0.10851902
-4.579083	moře	-0.034628052
-5.1141486	nasyceného	-0.034628052
-5.1141486	roztoku	-0.034628052
-5.1141486	soli	-0.034628052
-5.1141486	zaslíbená	-0.034628052
-4.3648286	spojuje	-0.034628022
-5.1141486	velikost	-0.034628052
-5.1141486	biblických	-0.034628052
-5.1141486	pravd,	-0.034628052
-5.1141486	komfort	-0.034628052
-5.1141486	nedotčenost	-0.034628052
-5.1141486	přírody.	-0.034628052
-5.1141486	aaf	-0.034628052
-5.1141486	identifikovala	-0.034628052
-5.1141486	nejdůležitějších	-0.034628052
-4.579083	důvodů,	-0.19761251
-3.6212342	proč	-0.05788898
-4.120095	byste	-0.3123268
-4.3648286	navštívit	-0.034628022
-5.1141486	izrael.	-0.034628052
-5.1141486	poklonit	-0.034628052
-5.1141486	svatým	-0.034628052
-5.1141486	místům	-0.034628052
-5.1141486	všechny,	-0.034628052
-4.3648286	vstoupí	-0.13623452
-5.1141486	"lázně",	-0.034628052
-5.1141486	sestoupí	-0.034628052
-5.1141486	boží	-0.034628052
-5.1141486	milosrdenství.	-0.034628052
-5.1141486	galilej	-0.034628052
-3.6212342	místo	-0.06592794
-5.1141486	ježíšových	-0.034628052
-5.1141486	zázraků:	-0.034628052
-5.1141486	proměny	-0.034628052
-5.1141486	vody	-0.034628052
-5.1141486	víno	-0.034628052
-5.1141486	svatbě,	-0.034628052
-5.1141486	chůze	-0.034628052
-5.1141486	vodě,	-0.034628052
-5.1141486	uklidnění	-0.034628052
-5.1141486	bouře	-0.034628052
-5.1141486	naplnění	-0.034628052
-4.579083	sítí.	-0.19761251
-5.1141486	ježíš	-0.034628052
-5.1141486	zjevil	-0.034628052
-5.1141486	učedníkům	-0.034628052
-5.1141486	vzkříšení.	-0.034628052
-5.1141486	svatých	-0.034628052
-4.3648286	míst	-0.034628022
-5.1141486	jeruzalémě.	-0.034628052
-5.1141486	věřící	-0.034628052
-5.1141486	projdou	-0.034628052
-3.9645164	cestou	-0.034628052
-5.1141486	ježíšovou	-0.034628052
-5.1141486	křížovou	-0.034628052
-5.1141486	(latinsky	-0.034628052
-5.1141486	via	-0.034628052
-5.1141486	dolorosa).	-0.034628052
-5.1141486	klášter	-0.034628052
-5.1141486	svatého	-0.034628052
-5.1141486	kříže	-0.034628052
-5.1141486	jeruzalémě	-0.034628022
